1022 10
1 -0.914048 0.004285 2.371000 0.332685 0.154045 0.447149 -0.923414 0.279668 -3.586438 0.518266 
712 0.512617 -0.231209 -0.296398 -0.095318 -0.013794 0.254494 0.078878 0.499807 -0.691983 0.251319 
268 0.480488 -0.065636 0.226934 -0.177978 -0.277600 0.195058 0.612023 1.241624 -0.336952 0.819424 
217 0.308353 -0.625822 0.138951 0.073280 -0.179283 0.346839 0.311875 1.146506 -0.767869 0.490123 
3 0.216215 1.812841 0.423787 -0.476395 0.805865 0.705216 -1.611895 1.250100 -1.635642 -0.830766 
722 0.012693 -0.434970 -0.589916 -0.098123 -0.051387 0.145495 0.158657 1.056570 -0.831919 0.115376 
676 0.514724 -0.327022 -0.809460 -0.511325 -0.422576 0.316501 0.183959 0.754713 -1.133662 0.061178 
619 0.113100 0.515714 -0.667277 -0.731127 -0.383231 -0.052688 0.462185 0.412202 -0.880031 0.501925 
355 -0.474266 0.530259 -0.323082 -0.336922 -0.442655 0.030780 0.368816 0.637593 -1.395228 -0.104139 
216 0.377787 -0.384470 0.174469 -0.177004 -0.141036 0.133746 0.325669 1.150553 -0.360408 0.781983 
371 0.260168 -0.749082 0.172611 0.000762 -0.154985 0.431892 0.564699 1.245460 -0.763769 0.534497 
779 0.531254 0.255328 -0.396555 -0.542378 -0.413143 0.141745 0.489531 0.545665 -0.632667 0.271757 
326 0.151528 -0.156688 -0.625583 -0.174079 -0.453927 0.378843 0.216156 0.648365 -1.148301 0.067442 
409 0.096636 -0.390756 0.083405 0.017041 -0.456882 0.140442 0.648785 1.084486 -0.777251 0.199428 
324 0.043209 -0.191438 -0.582965 -0.192584 -0.341564 0.369066 0.226675 0.627824 -1.200501 0.136485 
864 0.615667 -0.124641 -0.498887 -0.082973 -0.178023 0.775282 0.057676 0.536688 -0.788466 0.479834 
940 0.364303 -0.356979 -0.697026 -0.273087 -0.367859 0.351471 0.182297 0.663358 -1.246013 0.010323 
58 0.600339 0.783349 0.984096 -1.297994 0.972975 0.257615 0.276255 0.972311 -0.855413 -0.462776 
551 0.774420 0.597536 -0.547412 -0.824789 -0.141174 0.556678 0.058141 0.531841 -0.388572 0.437699 
251 -0.132460 -0.231722 0.181478 -0.092016 -0.444031 -0.234991 0.596087 0.948693 -0.978959 0.389392 
483 0.197350 -0.424206 -0.661965 -0.345338 -0.377137 0.398365 0.234944 0.676953 -1.153973 -0.036521 
81 0.085787 1.443312 1.618556 -1.005857 0.413311 1.175628 2.398359 1.287975 -1.439304 -0.002667 
408 0.424469 -0.151968 0.372565 -0.139931 -0.259474 0.335838 0.576677 0.986538 -0.354608 0.663294 
410 0.168325 -0.365778 0.275551 -0.068056 -0.324640 -0.042093 0.709641 0.897188 -0.697063 0.178794 
266 0.339447 0.005657 0.483875 -0.106454 -0.075900 0.051672 0.582177 1.165479 -0.500093 0.711274 
306 -0.172069 0.374161 -0.128164 -0.299978 -0.346081 -0.259458 0.499013 0.958780 -0.797241 0.688634 
297 0.347035 -0.397536 -0.621448 -0.236722 -0.273244 0.291089 0.225795 0.611996 -1.053141 0.230493 
965 0.114227 -0.470135 -0.503410 0.045323 -0.224488 0.077146 0.151175 1.201347 -1.072574 0.050540 
475 0.222397 -0.353012 -0.588702 -0.318589 -0.368483 0.234961 0.365020 0.625145 -1.200463 0.010186 
206 0.244707 -0.175989 -0.181655 0.046473 -0.175622 0.390948 0.110461 1.141203 -0.541817 0.217060 
267 -0.103257 0.437143 0.112755 -0.320260 -0.406550 -0.279767 0.781118 0.959558 -0.760031 0.562274 
364 -0.103282 0.228162 -0.334023 -0.231995 -0.466279 0.076413 0.056213 0.364086 -1.016258 0.077493 
265 -0.496334 0.365440 0.036883 -0.171967 -0.284064 0.092704 0.283344 0.664985 -1.118721 0.157397 
562 0.443133 0.054244 0.541944 -0.259808 -0.216337 -0.157819 0.699591 1.419200 -0.538971 0.802013 
583 0.191946 -0.553452 0.047280 -0.248400 -0.182708 -0.092493 0.460560 1.044888 -0.642301 0.426101 
28 1.102178 -1.652477 3.431496 -1.287886 0.059751 -0.931503 0.865018 1.576899 -2.178578 0.793238 
444 0.563734 0.072792 -0.067722 -0.470813 0.141207 0.330211 0.553452 0.419712 -0.260344 1.040317 
863 -0.010140 0.508918 -0.627990 -0.597981 -0.684943 -0.119666 0.178700 0.461183 -1.280378 -0.012160 
1007 0.156137 -0.274007 -1.482273 0.878239 0.835246 -0.846698 -0.729921 0.441211 -2.012631 1.386823 
1014 -1.054874 -0.703515 -0.870719 0.054796 -0.743451 1.527333 -1.877854 0.877047 -1.690336 2.132409 
1020 1.082291 1.205978 -1.332818 0.014829 -1.254416 -0.396729 -1.471909 2.033528 -0.443806 -0.429747 
2 0.748763 -0.061778 0.269367 -0.747398 0.547590 0.490708 -0.201864 1.113320 -0.297608 0.669782 
118 0.683281 0.077325 0.079363 -0.653017 0.495061 0.358251 -0.014433 0.673529 -0.175946 0.589556 
1006 1.801685 0.000574 -1.287671 -1.245279 1.997285 -0.814294 1.852858 1.071161 -0.178823 0.428411 
1013 0.617493 -0.433425 -0.775343 -2.568306 0.751442 0.466137 1.388605 1.494036 0.500999 0.294206 
1022 2.318543 -0.174001 -0.351232 -1.619511 -0.658397 -0.672058 0.453597 0.925238 -0.108697 0.244011 
625 1.256194 0.292738 -0.613990 -0.936211 -0.047584 0.779298 -0.025485 0.535716 -0.474345 0.803517 
4 0.424854 0.249511 -0.182270 -0.472336 0.040930 0.600801 0.028653 0.346889 -0.756883 0.050519 
119 0.045221 0.723847 0.077396 -0.424388 0.216613 0.223430 0.384083 0.706027 -0.679931 0.205673 
1015 -0.009759 0.636157 -1.378052 -2.281069 0.327105 0.279471 0.818235 1.785922 0.345946 -0.685549 
5 -0.158057 -0.746931 0.296411 -0.410423 0.454997 0.036550 -0.401855 1.081296 -1.579643 0.146339 
120 0.041984 -0.456324 -0.001503 -0.099407 0.092655 0.129951 -0.115032 0.872743 -0.868838 0.044446 
1021 1.580624 -0.853423 1.571540 -0.605870 -1.791474 -0.074136 1.604510 -0.120709 -1.800477 1.134145 
6 -0.196992 1.103690 0.781850 -0.371772 0.377275 0.593886 -0.513429 0.801000 -1.714040 -0.559308 
571 0.154353 0.429694 -0.163908 -0.481354 -0.154498 0.101783 0.137587 0.293421 -0.949552 0.055130 
1019 -1.001507 1.476589 0.310485 -0.418913 -0.819772 2.611999 2.108925 1.472733 -0.961872 0.374194 
7 1.953153 -0.384625 -0.632759 -2.479221 2.081334 -0.578725 -1.746619 1.580290 -0.797273 -0.340701 
574 0.447493 -0.343604 -0.776837 -0.771499 -0.087474 0.036401 -0.197794 0.597149 -1.015678 0.091216 
1009 1.256513 -0.324873 -0.379342 -0.851754 1.342104 -0.568965 1.869391 0.620230 -0.576223 0.634599 
8 -0.258460 0.890396 2.177190 -0.415076 0.387849 0.847492 0.797240 0.724285 -2.368262 -0.199334 
316 -0.059579 0.534230 0.157844 -0.366691 -0.230640 -0.268627 0.533078 1.091945 -0.862094 0.719513 
1012 0.193365 1.683079 -0.032295 0.598014 0.265167 1.044594 2.915652 1.239199 -1.411020 -0.231570 
9 0.106162 0.123002 0.165589 -0.292497 0.281088 0.220515 -1.023265 0.578634 -1.672423 0.096464 
689 -0.580950 -0.155464 -0.010928 -0.440936 -0.276810 -0.243361 0.319643 0.317823 -1.546015 0.322429 
10 0.061448 0.638153 0.061265 -0.286915 0.275935 0.275838 -0.878002 0.713620 -1.329442 -0.243683 
135 0.131738 0.528104 -0.214792 -0.384575 -0.135420 0.208972 -0.130025 0.509053 -0.936634 0.081478 
11 0.461930 0.187663 0.191955 -0.613209 0.410170 0.261344 -0.125379 0.737444 -0.264596 0.405884 
125 0.646275 0.159289 0.170619 -0.709416 0.492086 0.275837 -0.016812 0.775625 -0.183182 0.470388 
12 0.766616 0.493271 -0.046586 -1.271711 1.372523 -0.308514 -2.744101 1.144739 -1.804838 -0.259214 
941 0.390244 -0.270790 -0.642763 -0.410130 -0.090338 0.352644 -0.024979 0.480553 -1.083390 -0.138792 
13 0.366246 0.292653 1.400477 -1.086727 1.080369 0.292983 -0.560118 0.608425 -1.517751 -0.171380 
14 0.145940 0.389304 -0.002563 -0.743092 -0.011574 0.059465 0.219153 0.450946 -0.582479 0.142518 
113 0.091989 0.410016 0.011020 -0.674427 0.037265 0.130853 0.149734 0.385024 -0.685406 0.168934 
15 0.262346 -0.794659 1.115059 -1.149139 1.417967 -0.566536 -2.057185 0.501731 -2.314472 0.451979 
457 0.106414 -0.543501 -0.740592 -0.089545 0.289018 0.358616 0.233122 1.082911 -1.316597 -0.034991 
16 -0.026645 -0.422150 0.944986 -0.584728 0.326304 -0.255686 -0.303926 0.663921 -1.514720 0.135609 
431 0.105212 -0.520598 0.071940 -0.081472 0.014633 0.033637 0.042347 0.887701 -0.901772 -0.008289 
17 0.542107 0.531276 0.215344 -0.611227 0.098978 0.616127 -0.067832 0.439868 -0.881914 0.184987 
122 0.480180 0.777345 0.098004 -0.555546 0.057312 0.315726 0.097672 0.463463 -0.983014 0.045963 
1016 -1.241993 -2.075604 -1.381600 -4.480467 0.141645 -1.621850 1.245796 1.554702 -0.385106 0.208971 
18 0.407051 -0.197957 -0.240956 -0.389682 0.067784 0.291768 -0.196528 0.500017 -1.013078 0.038784 
164 0.285918 -0.315987 -0.174184 -0.689368 0.239019 0.165550 -0.273212 0.619339 -0.804260 0.042478 
19 0.683728 -0.268721 0.050352 -0.826343 0.966039 0.056683 -1.066919 0.800359 -1.160126 0.034283 
175 0.471080 0.410295 0.009359 -0.692665 0.123005 0.078035 0.351182 0.670483 -0.344108 0.682810 
20 -0.050810 0.724017 0.561245 -1.161309 0.461036 0.113007 0.275246 0.840961 -1.130262 -0.717169 
462 0.149497 0.527395 -0.176296 -0.629881 -0.021153 0.000386 0.290959 0.388545 -0.804365 0.316513 
21 -0.184924 0.142490 0.590277 -0.368938 -0.136669 -0.120534 0.173016 0.932778 -1.103862 -0.148546 
377 -0.221734 0.442328 0.282986 -0.305270 0.110173 -0.145381 0.225485 0.852728 -0.760081 0.606820 
22 0.602323 2.368313 0.868442 -1.379028 0.937495 1.225265 0.908226 1.571630 -0.993543 -1.293850 
654 -0.028835 0.595339 -0.026832 -0.458235 -0.033683 -0.192495 0.389254 0.850116 -0.602298 0.573869 
23 0.049908 0.365709 0.417566 -0.513068 0.317535 0.008038 -0.191695 0.652805 -1.140117 0.061938 
146 0.369539 0.651640 -0.189806 -0.429210 0.141217 0.438599 -0.024288 0.581169 -0.714778 0.184700 
24 0.971547 -0.199800 1.261353 -2.025177 1.819921 -0.588436 -0.852572 0.707792 -1.341552 -0.203952 
226 0.462526 0.120928 -0.461534 -0.671101 -0.251467 -0.058859 -0.100848 0.528918 -1.278257 -0.120608 
25 0.252810 -0.013119 -0.297482 -0.335938 0.129896 0.115188 -0.312386 0.533238 -0.988406 -0.038180 
177 0.421794 -0.108779 -0.717649 -0.583536 -0.085603 0.321998 0.027675 0.640341 -1.511905 -0.069828 
26 0.692250 -0.301654 0.418130 -0.502758 0.512083 0.088029 -0.155415 1.056896 -0.606792 0.145981 
179 0.428030 -0.617875 -0.229825 -0.540593 0.360894 0.187986 0.342418 0.827294 -0.785008 0.114177 
27 0.476977 0.706577 0.359990 -0.784269 0.712201 0.280627 -0.725474 0.814894 -0.975387 -0.413978 
617 0.186311 0.805815 -0.547422 -0.860501 0.444633 -0.082313 0.447680 0.955832 -0.404231 0.923150 
660 -0.091840 -0.118352 0.279143 -0.205380 -0.059852 -0.355935 0.302812 0.788939 -0.761886 0.450119 
29 -0.355192 0.265787 0.266042 -0.649291 0.197891 0.022072 0.084358 0.553564 -1.105285 0.044700 
227 0.017526 0.346937 0.433403 -0.112046 -0.243918 -0.134629 0.241615 1.313875 -0.809082 0.727996 
30 0.058208 0.421427 -0.171818 -0.483779 0.116316 0.129373 -0.051829 0.286925 -1.078113 -0.055997 
183 0.329523 0.347455 -0.467764 -0.774185 -0.599849 0.008762 -0.000537 0.446883 -1.364011 -0.162743 
31 0.960943 0.535183 0.022903 -1.471408 0.843595 0.801126 0.164089 0.910921 -0.317579 0.763318 
750 0.872789 0.295072 0.070134 -0.601197 0.394075 0.190760 0.085719 1.075305 -0.121312 0.587699 
32 0.828132 -0.004425 -0.470387 -0.479096 0.147428 0.302425 -1.228023 0.723577 -1.390703 0.127698 
710 0.401740 -0.333427 -0.773059 -0.325489 -0.198087 0.295025 -0.004359 0.694469 -1.447704 0.069234 
33 -0.445313 1.983113 -0.206374 -0.368637 -0.083028 0.768896 -0.791812 1.369697 -1.719615 -1.065541 
144 0.536665 0.914008 0.283159 -0.710993 0.519496 0.580971 0.428779 0.639052 -0.718977 0.108797 
34 0.485415 0.249577 -0.021750 -0.427816 0.254261 0.281152 0.119992 0.467682 -0.583836 0.159586 
35 0.319431 0.117506 -0.197073 -0.371099 0.154620 0.196400 0.019188 0.589169 -0.772664 -0.193643 
168 0.446764 0.508007 -0.327734 -0.698816 -0.387856 0.184837 -0.080709 0.244332 -0.990764 0.118961 
1011 0.838852 -0.086207 -0.430179 -0.264460 0.872397 0.119449 1.087336 0.782600 -0.501073 0.452536 
36 0.142915 -0.078331 -0.208861 -0.297383 -0.039571 0.131707 -0.212742 0.461458 -1.070000 -0.195967 
230 0.160764 -0.336011 -0.635414 -0.267235 -0.201898 0.261673 0.251753 0.694618 -1.528492 0.032809 
37 0.608563 0.131874 0.320572 -0.685142 0.335660 0.323336 0.001280 0.933160 -0.258513 0.585825 
254 0.506626 0.126949 0.310031 -0.558728 0.426767 0.264141 0.023724 0.994209 -0.259475 0.519155 
38 1.328695 2.588961 -0.977602 -1.502975 1.014452 0.897241 -1.341924 2.061256 -0.763516 -1.509995 
240 0.625369 0.297676 -0.508860 -0.743000 0.221555 0.560377 -0.128604 0.514160 -0.330534 0.346528 
39 0.660610 0.209751 0.394781 -0.764388 0.364329 -0.008342 0.190209 1.178782 -0.349267 0.067218 
542 0.198362 0.459208 0.097925 -0.702636 0.205924 0.112463 0.585945 0.686095 -0.615608 0.237402 
40 0.264821 -0.034755 -0.341623 -0.448540 0.121238 0.309603 -0.182630 0.390417 -1.101355 -0.071164 
253 0.390100 -0.084730 -0.345137 -0.277339 0.100713 0.187877 -0.158497 0.559126 -1.218537 -0.103079 
41 0.513272 -0.098473 0.078843 -0.255968 0.270782 0.469309 0.061205 0.448188 -0.717484 0.041635 
276 0.514597 -0.105379 -0.010865 -0.350793 0.343531 0.430139 0.045153 0.508124 -0.684682 0.108983 
1018 -0.097113 -1.123709 -0.153210 -2.483234 0.267435 -0.302317 1.335976 1.013667 -0.214306 0.638826 
42 0.268238 -0.107452 -0.434460 -0.397800 0.014143 0.344501 -0.303464 0.745342 -1.350343 -0.147106 
43 0.005173 0.755656 0.950076 -0.819543 0.299570 0.323820 1.238871 0.973423 -1.001550 0.277242 
283 0.082428 0.742468 0.300420 -0.486433 -0.152966 -0.186541 0.922039 1.303018 -0.928112 0.722224 
44 0.439453 0.079366 -0.001820 -0.444836 0.448872 0.274106 0.072773 0.415982 -0.601771 0.302663 
378 0.508517 -0.055330 0.205735 -0.539071 0.382197 0.324005 0.018841 0.467546 -0.677377 0.219803 
45 0.980008 0.305378 0.202813 -1.174361 0.856758 0.615340 0.149446 0.994580 -0.257561 0.774130 
383 0.660696 0.190281 0.186829 -0.487103 0.387228 0.215854 0.007287 0.918369 -0.210683 0.532365 
46 0.675015 -0.084309 0.090094 -0.759189 0.793174 0.164663 -0.617333 0.727102 -0.992135 -0.022353 
414 0.303603 -0.099236 -0.259547 -0.660877 0.075585 0.123451 -0.121351 0.443182 -0.829464 -0.012316 
47 0.072175 0.611211 -0.054442 -0.692558 0.066359 0.158061 0.294187 0.286510 -0.776118 0.229002 
274 0.079722 0.674168 0.160267 -0.762577 0.406065 0.311911 0.481003 0.545177 -0.676633 0.501557 
48 0.219820 -0.226193 -0.326310 -0.397046 0.056938 0.317339 -0.256696 0.475928 -1.123228 -0.182715 
392 0.376344 -0.264308 -0.729174 -0.331290 -0.257265 0.334512 -0.180653 0.752695 -1.445078 0.038060 
49 -0.188341 0.460148 0.549698 -0.342424 0.499936 0.178247 -1.191219 0.670671 -1.884580 -0.119511 
379 -0.343530 0.308601 -0.057505 -0.584577 -0.113046 -0.113290 0.806665 0.624927 -1.007435 0.999861 
50 0.506359 -0.182557 0.049698 -0.561640 0.371470 0.258606 -0.163889 0.478103 -1.007536 0.049434 
404 0.427428 -0.413175 0.192571 -0.440882 0.368720 0.269128 0.267875 0.695183 -0.595445 0.805383 
51 -0.044652 1.085688 -0.020766 -0.687642 -0.102670 0.175791 0.325315 0.410463 -1.460571 0.326545 
52 -0.060401 0.159946 0.448070 -0.357779 0.079843 -0.146332 0.153094 0.867568 -0.794766 0.143976 
447 0.231655 -0.360663 0.634057 -0.053952 -0.068338 -0.050791 0.423563 1.015318 -0.891552 0.493358 
53 0.394845 -0.184013 -0.318383 -0.367744 0.004993 0.261798 -0.436288 0.493045 -1.129943 -0.169643 
456 0.586261 -0.506055 -0.999627 -0.538965 -0.079198 0.257759 -0.511859 0.913339 -1.521551 0.044067 
54 0.661875 0.366459 -0.032207 -0.498194 -0.099468 0.361887 -0.455476 0.505495 -1.322001 -0.041601 
528 -0.084564 0.496155 0.189566 -0.384451 -0.147431 0.097197 0.214485 0.497352 -1.129412 -0.209561 
55 0.332742 0.910871 0.098115 -0.815026 0.360031 0.106097 0.139349 0.635353 -0.854959 0.037349 
56 0.110408 0.504259 0.341766 -0.336329 0.378779 0.095464 -1.684480 0.617413 -2.045996 -0.032158 
809 -0.188099 0.681005 -0.419538 -0.682392 -0.117183 0.059492 0.492585 0.650747 -0.900724 0.780060 
57 0.034103 0.024036 0.246997 -0.351737 0.134099 -0.186083 0.033138 0.540918 -1.115193 0.124145 
564 -0.012221 -0.711571 0.056022 -0.348929 0.188901 0.117268 0.411072 0.708441 -1.071222 0.254664 
479 0.389845 0.900823 -0.306391 -0.641111 0.292944 0.328229 0.444317 0.819231 -0.364388 0.970221 
59 0.353553 -0.192014 -0.471229 -0.447638 -0.074103 0.245768 -0.414747 0.693803 -1.404147 -0.127259 
501 0.351347 0.127060 -0.696170 -0.357499 -0.095548 0.511776 -0.262326 0.640746 -1.443131 -0.052511 
60 0.069823 0.243880 0.236351 -0.244188 0.060829 -0.255829 0.056173 0.747608 -0.725557 0.199931 
589 0.283318 0.089658 0.165071 -0.338665 -0.009123 0.199969 0.021250 0.585052 -0.820355 0.231540 
61 0.293898 -0.116590 -0.306290 -0.341431 0.093256 0.187217 -0.126844 0.543360 -1.212033 -0.129310 
241 0.230934 -0.011598 -0.317131 -0.473171 0.117174 0.340566 -0.222864 0.434137 -1.146441 -0.065301 
62 0.399414 0.629491 0.482108 -0.579061 0.409037 0.418910 0.298756 0.623335 -0.727559 0.787376 
651 0.444947 0.529765 0.366175 -0.349773 0.145001 0.138885 0.098727 0.837239 -0.467119 0.632910 
63 0.407073 -0.150419 -0.353996 -0.424109 -0.137559 0.367663 -0.292988 0.628763 -1.554875 -0.149007 
644 0.266615 -0.105883 -0.260164 -0.313131 -0.015323 0.279819 -0.121745 0.479852 -1.108805 -0.091245 
64 0.232890 0.663099 0.599635 -0.462896 0.390623 0.314653 0.491870 0.674108 -0.899173 0.185415 
663 -0.166939 0.164043 0.050601 -0.361628 -0.111261 -0.094257 0.566470 0.720336 -1.059534 -0.179904 
1010 0.772625 0.494951 -0.415868 -0.559262 0.907750 -0.062749 1.730396 0.673957 -0.567940 0.788295 
65 -0.173367 1.145275 0.525273 -0.575491 -0.138756 0.241965 1.299576 1.404892 -1.283362 0.461155 
398 -0.201732 0.774406 0.046472 -0.591063 0.079604 0.142236 0.766377 0.596200 -0.954231 0.488336 
66 0.233022 -0.205290 -0.225626 -0.363433 0.196656 0.098824 -0.329249 0.489137 -1.050100 -0.056357 
224 0.405813 -0.293433 -0.752955 -0.421040 0.002059 0.270273 -0.201298 0.608962 -1.466140 0.000251 
67 0.184218 -0.447656 0.054618 -0.184476 0.281513 -0.047506 -0.116048 0.799582 -1.012923 0.007718 
550 0.204456 -0.449884 -0.214611 -0.352521 0.316453 0.091035 -0.083830 1.084668 -0.899781 0.010872 
68 0.366690 -0.128782 -0.364287 -0.435601 0.122624 0.193294 -0.213546 0.449955 -1.237659 -0.105121 
478 0.310811 -0.096167 -0.257335 -0.449882 0.057652 0.222742 -0.161143 0.480975 -1.061173 -0.174864 
69 0.019098 0.613851 0.247129 -0.435756 -0.096518 -0.286788 0.406826 0.918617 -0.739357 0.411365 
576 0.202009 0.763198 0.325976 -0.410776 0.340714 0.183827 0.595756 0.614938 -0.848754 0.485067 
70 0.180125 -0.068438 -0.154744 -0.695779 0.092928 -0.001224 -0.077891 0.455484 -0.859488 -0.027482 
561 0.565953 -0.089373 0.000301 -0.551005 0.297866 0.357654 -0.204235 0.568679 -0.962569 0.082734 
71 0.252758 0.061439 -0.066756 -0.378309 -0.160498 0.366891 -0.030465 0.489950 -1.058982 -0.108207 
652 -0.063126 0.536400 0.120851 -0.400949 -0.002905 0.001720 0.314617 0.645790 -0.973651 0.028382 
72 0.496392 -0.145405 -0.092893 -0.298648 0.245068 0.365021 -0.125428 0.416219 -0.752231 0.143759 
73 0.136736 0.240281 1.131357 -0.625352 0.742192 0.202182 -0.332152 0.505068 -1.471517 -0.195068 
376 -0.015082 -0.460056 -0.367979 -0.138872 -0.003798 0.230850 0.389312 0.973901 -1.381798 0.046242 
74 0.750068 0.315472 -0.329337 -0.469691 0.187979 0.643405 -0.160315 0.611794 -1.002174 -0.100982 
75 0.344507 0.395557 -0.213857 -0.548145 -0.140927 0.424604 -0.423441 0.436564 -1.637678 -0.051776 
76 0.290812 -0.161994 -0.143470 -0.314214 -0.172857 0.290238 -0.054440 0.517563 -1.152487 -0.212999 
732 -0.476230 0.358764 -0.117888 -0.537194 -0.080627 -0.050888 -0.143962 0.619433 -1.333840 -0.143568 
77 0.647899 0.181475 -0.008678 -0.688743 0.321862 0.451685 -0.098893 0.415897 -0.452643 0.145499 
449 0.654211 0.114148 0.036798 -0.674787 0.385949 0.296459 -0.034344 0.467551 -0.386916 0.235506 
78 0.346388 0.745786 0.654761 -0.924215 0.584234 0.138987 0.793014 0.837686 -0.799087 0.515107 
374 0.888104 0.109339 -0.003017 -0.838138 0.451355 0.913345 0.022618 0.695260 -0.423034 0.425648 
79 -0.986970 0.646464 0.561466 -0.519790 0.007822 0.183880 -0.038526 0.821865 -1.855127 -0.421716 
214 -0.257155 0.171280 -0.183903 -0.244723 -0.228125 0.067577 0.364049 0.498203 -1.109862 0.173269 
80 0.467300 0.460950 0.880256 -0.895283 0.650911 0.229940 0.319001 0.734798 -0.777052 -0.060253 
525 0.756754 0.129298 0.001889 -0.617791 0.262420 0.386737 0.049970 0.648129 -0.445218 0.401836 
282 -0.032393 0.744059 0.493294 -0.508939 -0.118565 -0.118667 0.802144 1.318333 -0.823579 0.695905 
82 0.274099 -0.364452 0.019604 -0.213158 0.475294 0.297039 -0.195392 0.869285 -1.150467 0.074934 
807 0.136203 -0.132724 -0.397558 -0.250116 0.005501 0.431571 -0.139085 0.791628 -1.312521 -0.124877 
83 0.832320 -0.023500 -0.058432 -0.575107 0.407636 0.430959 -0.189090 0.589455 -1.137096 0.045520 
84 0.018289 0.199190 0.452999 -0.521481 0.005436 -0.229785 0.302602 0.943502 -0.560384 0.301007 
837 -0.072118 0.158247 0.368223 -0.499318 0.033626 -0.133227 0.333100 0.892624 -0.514254 0.363936 
85 0.024607 0.542547 0.423690 -0.329475 -0.032231 0.096949 0.087657 0.939419 -0.803225 0.168385 
354 -0.091493 0.218834 -0.099371 -0.515820 -0.138939 0.158965 0.339252 0.635170 -1.226048 -0.185213 
86 0.304201 0.411860 0.338149 -0.243411 0.147274 0.039960 0.084208 0.898436 -0.525902 0.521477 
87 0.711035 0.284012 0.419825 -1.066683 0.655585 -0.119592 0.142188 0.898997 -0.454390 0.292585 
366 -0.003317 0.516521 0.223298 -0.445984 0.145263 -0.185201 0.410670 0.888717 -0.543208 0.546958 
88 0.375408 0.525275 0.604172 -0.673400 0.685646 0.337042 -0.605099 0.692851 -1.283834 -0.280287 
810 -0.168813 0.458109 -0.096694 -0.453587 -0.052578 -0.191357 0.196530 0.772772 -0.622571 0.539009 
89 0.132968 0.521729 0.055543 -0.586218 -0.264389 0.198851 0.076108 0.454816 -1.011741 -0.248782 
852 -0.516590 0.945099 -0.263233 -0.398689 -0.431607 0.322302 0.458235 0.645382 -1.391924 0.322065 
90 -0.103515 0.420593 0.339273 -0.515933 0.066156 -0.192125 0.439436 0.803626 -0.708780 0.472927 
200 0.294040 0.126027 0.566124 -0.208495 0.021961 -0.041207 0.722867 1.018519 -0.672720 0.843407 
91 0.331597 -0.185407 -0.309739 -0.391007 0.159078 0.256326 -0.193447 0.429558 -1.170199 -0.141212 
776 0.326484 -0.155755 -0.263506 -0.331619 0.041807 0.233813 -0.160697 0.506896 -1.082996 -0.179006 
92 0.043954 0.519491 -0.085446 -0.871404 0.002382 -0.126395 0.307394 0.435425 -0.892415 0.093583 
93 0.540155 0.307092 -0.415076 -0.365805 0.064193 0.691041 -0.317620 0.565561 -1.245974 -0.097609 
94 0.089311 -0.151739 0.102188 -0.099617 0.109337 0.030260 -0.183611 0.961284 -0.986438 -0.191702 
734 -0.069612 0.215509 -0.144080 -0.266655 -0.071063 0.306912 -0.127343 0.573640 -1.153078 0.012864 
95 0.079846 0.565843 -0.109514 -0.712686 -0.267917 0.122404 -0.186242 0.399693 -1.309901 -0.199752 
725 0.458798 -0.367390 -0.592561 -0.358535 -0.266447 0.464444 0.068579 0.757554 -1.413549 -0.016037 
96 0.339464 -0.361683 -0.281958 -0.402217 -0.018417 0.296181 -0.516126 0.578254 -1.436612 0.037535 
787 0.043410 -0.580861 -0.391554 -0.252564 0.252195 0.298795 -0.218732 0.968519 -1.361428 -0.109469 
97 0.229996 -0.128855 -0.400959 -0.309468 0.167300 0.206974 -0.281168 0.382828 -1.092097 -0.020416 
871 0.372739 -0.248209 -0.618947 -0.589019 -0.135956 0.374996 -0.102465 0.638774 -1.418787 -0.148158 
98 0.188909 0.371551 -0.026775 -0.484533 -0.130325 0.079821 0.030067 0.366268 -1.080586 0.011853 
99 -0.135259 0.231540 0.599239 -0.323888 -0.120674 -0.273704 0.233752 0.986420 -1.144001 -0.006156 
879 -0.041043 0.549816 0.320479 -0.308049 -0.051919 -0.079821 0.317222 0.805887 -0.846960 0.552868 
100 -0.394275 0.878143 0.822192 -0.339743 -0.264142 0.282521 1.145778 1.402404 -1.361198 0.400045 
695 -0.316679 0.216610 -0.156247 -0.426604 -0.143372 0.139924 0.046544 0.562441 -1.269075 -0.193253 
101 0.356171 -0.085049 -0.372965 -0.400239 0.167598 0.138251 -0.133204 0.483434 -1.062561 -0.164652 
883 0.566616 -0.021437 -0.452912 -0.789896 -0.101899 0.269560 -0.220279 0.532070 -1.074149 -0.021067 
102 -0.013563 0.392044 -0.083306 -0.810357 -0.267960 0.163421 -0.227079 0.446400 -1.283516 0.006901 
912 0.082013 0.474251 -0.186617 -0.485606 -0.053195 0.008627 -0.120510 0.310620 -0.954117 0.114523 
103 -0.155734 0.777843 0.328015 -0.434040 0.035583 -0.207511 0.446656 1.234922 -1.162657 0.633477 
363 -0.030500 0.547895 0.295267 -0.415684 -0.002185 -0.086550 0.384856 0.753766 -0.790736 0.439611 
104 0.193070 -0.130044 -0.286972 -0.314383 -0.046732 0.217411 -0.220713 0.490701 -1.006203 0.042215 
946 0.255239 -0.134336 -0.428179 -0.438079 0.104859 0.308178 -0.088436 0.420220 -1.103957 0.039482 
105 0.445485 0.428944 0.049841 -0.328949 0.306516 0.099635 0.381046 0.833855 -0.394485 0.099641 
106 -0.335352 0.598732 0.198012 -0.574744 -0.003081 0.096345 -0.022429 0.640556 -1.433053 -0.261539 
951 0.117664 0.030204 -0.290151 -0.342369 -0.070291 0.427460 0.055838 0.425234 -1.104419 -0.055089 
107 0.008897 0.343412 -0.028751 -0.856445 -0.063550 -0.140488 -0.865296 0.491754 -1.494607 -0.120388 
544 0.053518 0.202075 0.235569 -0.137079 -0.065357 0.225384 0.391902 0.571247 -0.857181 0.626708 
108 0.257844 0.065409 -0.267419 -0.188491 0.050206 0.217471 -0.032649 0.493473 -1.244878 -0.181988 
109 0.330974 -0.404407 -0.040616 -0.327376 0.441968 0.379301 -0.486142 0.787447 -1.403077 -0.056539 
957 -0.378919 0.136480 -0.158838 -0.193990 -0.385693 -0.137895 0.177590 0.623114 -1.206755 0.162276 
110 0.920961 -0.445180 0.629342 -1.615308 1.364017 -0.238196 -0.633726 0.846463 -0.832054 -0.012940 
459 0.734029 -0.526425 -0.789552 -0.914057 0.068255 0.407355 -0.073378 0.636284 -1.113411 0.140768 
111 0.038092 0.350770 0.037858 -0.379158 -0.005114 0.068947 -0.022884 0.322117 -0.938131 0.104472 
112 -0.180842 0.557396 0.385814 -0.384762 -0.085331 -0.044384 0.460405 0.890770 -0.838232 0.598974 
114 0.376758 -0.102649 -0.674656 -0.421927 -0.076667 0.238219 0.130249 0.462698 -1.147834 -0.071485 
115 -0.149755 0.491495 0.011036 -0.235041 -0.228619 -0.226274 0.558818 0.990711 -0.754700 0.680358 
116 0.480337 -0.117259 -0.472002 -0.728872 -0.037387 0.287043 0.012948 0.417630 -0.606964 -0.016538 
117 0.132892 -0.365153 -0.401558 -0.219851 -0.278381 0.317148 0.195060 0.591815 -1.233251 -0.091690 
121 0.011489 -0.288413 -0.038471 -0.034742 -0.094896 0.055933 0.194179 0.965758 -0.889694 -0.001204 
123 -0.026981 -0.267652 0.086258 -0.142704 -0.087502 -0.038720 0.208893 0.991179 -0.832981 0.030387 
124 0.437655 -0.227920 -0.365938 -0.499749 -0.025825 0.315483 -0.064029 0.450495 -0.978922 -0.035158 
126 0.405918 -0.393561 -0.416873 -0.346891 -0.155971 0.289386 0.060095 0.524380 -0.991459 -0.045208 
127 0.462555 -0.138413 -0.172903 -0.145108 0.143627 0.585277 -0.177791 0.607538 -0.888650 0.078625 
128 0.371702 -0.248776 -0.710625 -0.488701 -0.109804 0.247018 0.025961 0.531383 -0.973389 -0.080454 
129 0.364641 -0.132342 -0.078829 -0.021927 -0.000541 0.342338 0.068264 0.921566 -0.530275 0.160532 
130 0.723738 -0.009907 -0.211858 -0.679290 0.343318 0.459745 0.269887 0.799909 -0.136364 0.552526 
131 0.099624 -0.317892 0.259097 -0.246145 0.010938 -0.236722 -0.029599 0.893308 -0.760567 0.101065 
132 0.566205 0.480668 -0.328985 -0.579985 0.290928 0.568386 -0.027222 0.573733 -0.274716 0.493860 
133 -0.060068 -0.830748 -0.365628 -0.119890 0.206579 0.296709 0.414982 0.974658 -1.222194 0.128182 
134 0.298478 -0.334508 -0.570936 -0.450738 -0.102973 0.286699 0.000255 0.542947 -1.082766 -0.154749 
136 0.068095 -0.386413 -0.159685 -0.209798 0.034142 0.058599 0.135325 1.054281 -0.748105 -0.017506 
137 0.160883 -0.484276 -0.692564 -0.333398 0.246789 0.347667 0.224443 1.034834 -1.035605 -0.005129 
138 0.363875 -0.217611 0.169617 -0.468310 0.194242 -0.026837 -0.106583 0.844930 -0.491771 0.559844 
139 0.101409 -0.153748 -0.409112 -0.405111 -0.070470 0.347268 0.004543 0.497811 -1.026724 -0.009910 
140 0.458118 -0.034816 -0.153759 -0.242110 0.019867 0.496909 -0.124958 0.469035 -0.890891 0.114470 
141 0.333689 0.478258 0.048341 -0.438180 0.175726 0.280106 0.105317 0.384422 -0.690363 0.359758 
142 0.726670 -0.170679 -0.471937 -0.225207 0.098202 0.502734 -0.068265 0.552763 -0.741604 0.203225 
143 0.227427 -0.027247 -0.127473 -0.411087 0.011581 -0.027202 0.009382 0.816876 -0.481173 0.048006 
145 0.473405 -0.520563 0.200431 -0.026047 0.016740 0.291430 0.190142 0.936997 -0.507417 0.640711 
1017 -0.322666 1.111124 -1.762012 -1.675575 0.092379 0.544801 -0.449210 1.942976 -0.064336 -0.573587 
147 0.038678 0.537863 0.060937 -0.295719 -0.165008 -0.190803 0.247280 0.830344 -0.645367 0.622062 
148 0.598477 -0.174436 -0.227298 -0.361566 0.186500 0.514164 -0.106287 0.292212 -0.769700 0.294412 
149 0.565917 0.084486 0.316558 -0.207032 -0.037803 0.208574 0.167106 1.155785 -0.277225 0.724473 
150 0.397620 -0.308543 -0.397288 -0.501271 -0.020685 0.314207 -0.015738 0.514810 -1.061528 -0.149266 
151 0.368282 -0.300264 0.455660 -0.276025 0.066775 0.013686 0.350616 1.107922 -0.479722 0.687924 
152 -0.071898 0.162048 0.050710 -0.153239 -0.326934 -0.250835 0.347241 0.806389 -0.752643 0.361188 
153 -0.054349 -0.256346 0.044989 -0.115279 -0.144630 -0.001913 0.178962 0.931102 -0.794998 0.025095 
154 0.447503 -0.632571 -0.216123 -0.200618 0.380062 0.307735 0.023353 0.959516 -0.793630 0.376645 
155 0.167151 0.432042 -0.158109 -0.506934 -0.237604 0.132541 0.124760 0.286969 -0.981970 0.243950 
156 0.279031 0.521464 -0.320813 -0.531597 -0.311528 -0.121901 0.343444 0.336233 -1.019310 0.024840 
157 0.142936 0.391650 0.234818 -0.705987 0.091917 -0.076388 0.257662 0.962623 -0.358518 0.495881 
158 0.394306 0.092977 -0.284862 -0.670296 -0.146220 -0.007559 -0.031479 0.212089 -0.780144 0.367136 
159 0.008608 0.448303 -0.118564 -0.416307 -0.258248 -0.411287 0.513905 0.997274 -0.691028 0.767285 
160 0.424171 -0.105340 -0.592681 -0.406681 -0.237389 0.095333 0.141014 0.483139 -1.115980 -0.085714 
161 -0.035274 0.240856 -0.170916 -0.318076 -0.119719 -0.174835 0.172544 0.903027 -0.614928 0.070005 
162 0.486138 -0.279486 -0.660838 -0.521089 -0.148284 0.348255 0.071148 0.590214 -1.081303 -0.056509 
163 0.506237 -0.044726 -0.134939 -0.439458 0.041912 0.228904 0.138121 0.556053 -0.500888 0.389005 
165 0.460851 -0.411842 0.382313 -0.401440 0.163503 0.216518 0.380566 1.080100 -0.304143 0.770093 
166 0.469739 0.057439 0.177127 -0.442493 0.204133 0.443689 0.045494 0.499070 -0.612628 0.254406 
167 0.016452 0.088717 0.158503 -0.196507 -0.041100 -0.180697 0.222868 0.799561 -0.741704 0.140601 
169 0.717449 0.139579 -0.094189 -0.458709 0.161691 0.421593 0.271387 0.466680 -0.363522 0.477475 
170 0.235573 -0.138270 -0.268289 -0.421834 0.045722 0.300150 0.138291 0.502744 -0.947407 0.008539 
171 0.168277 -0.217362 -0.429739 -0.232658 -0.211368 0.370221 0.189545 0.593921 -1.093852 0.025505 
172 -0.028928 0.481580 0.155853 -0.372415 -0.108839 -0.216744 0.328451 0.851123 -0.725823 0.599953 
173 0.303883 0.464150 -0.029151 -0.836900 -0.008732 0.120844 0.158463 0.327149 -0.579106 0.345448 
174 0.495197 -0.220026 0.013040 -0.160098 0.094794 0.276434 0.056304 0.974242 -0.417945 0.377995 
176 0.773352 0.011369 -0.275465 -0.746836 0.144418 0.581637 0.049347 0.524151 -0.353803 0.585935 
178 0.428941 0.052941 0.277604 -0.468749 0.432875 0.306208 0.043781 0.861779 -0.240127 0.640179 
180 0.192300 0.416090 -0.255144 -0.506377 -0.213129 0.000970 0.176297 0.319360 -0.885779 0.111513 
181 0.566745 0.154420 -0.142608 -0.547461 -0.013061 0.430212 0.069736 0.383201 -0.632446 0.354701 
182 0.055408 -0.415604 0.015589 0.029859 -0.114667 0.140388 0.098286 1.069767 -0.950208 -0.060095 
184 0.265950 -0.039195 -0.491269 -0.405006 -0.133091 0.271632 0.138471 0.490738 -0.998692 -0.088805 
185 0.252255 -0.145746 -0.287732 -0.281640 0.034700 0.163723 -0.245788 0.445675 -0.943053 -0.038926 
186 -0.051725 -0.359651 -0.054055 0.001889 -0.022095 0.069696 0.175419 1.140437 -0.974449 -0.028649 
187 0.065327 0.453010 -0.248578 -0.870709 -0.128937 -0.006771 0.230620 0.422763 -0.773142 0.219001 
188 0.026333 -0.316424 0.268969 -0.078613 -0.003803 0.150438 0.004101 0.896115 -0.952352 -0.073264 
189 0.428890 0.263580 0.200468 -0.273463 0.139873 0.426725 0.594743 0.616054 -0.678236 1.230527 
190 0.793671 0.035683 -0.258822 -0.651733 0.295400 0.430046 0.020620 0.885457 0.006862 0.778462 
191 0.366524 -0.485861 -0.168165 -0.063860 0.033263 0.046049 0.212991 1.147454 -0.694538 0.091626 
192 0.113001 -0.549199 -0.208295 -0.085313 0.030923 0.087126 0.116342 0.954967 -0.794656 0.183455 
193 0.266363 0.277350 -0.425416 -0.593018 -0.349758 0.075569 0.137416 0.397577 -0.932073 -0.001027 
194 0.388678 -0.275322 -0.593289 -0.447091 -0.095319 0.276319 0.017383 0.625136 -1.078005 -0.130743 
195 0.163162 -0.568963 -0.104477 -0.013486 0.033655 0.176732 0.096173 1.081313 -0.911208 -0.020200 
196 0.342772 -0.013247 -0.606587 -0.400215 -0.139233 0.294458 0.146925 0.451140 -0.990973 -0.017890 
197 1.021122 0.155059 -0.410181 -0.869456 0.421738 0.514436 -0.209603 0.441345 -0.317196 0.644878 
198 0.370336 -0.374466 -0.436830 -0.483510 0.296734 0.259378 -0.103919 0.733006 -0.685879 0.006536 
199 -0.036802 0.621479 0.013702 -0.285093 -0.168233 -0.022437 0.274693 0.988090 -0.638732 0.682559 
201 0.614060 -0.121383 -0.365787 -0.598715 -0.051383 0.202725 0.106655 0.458566 -0.592349 0.095668 
202 0.448951 -0.104385 -0.064297 -0.218226 0.169869 0.478869 0.063192 0.902907 -0.347776 0.228562 
203 0.180776 -0.098187 -0.331634 -0.230891 -0.287744 0.124368 0.407302 0.435642 -0.967791 0.010886 
204 0.545940 -0.383828 -0.248261 -0.615471 0.198061 0.325270 0.481080 0.702485 -0.294689 0.560846 
205 0.276201 0.101783 -0.437928 -0.192727 -0.026991 0.431852 0.087525 0.658405 -0.575136 0.032832 
207 0.450320 -0.302584 0.401432 -0.175449 0.190769 0.043333 0.252150 1.047345 -0.540279 0.673644 
208 -0.123918 0.108263 0.009924 -0.117584 -0.000752 -0.319320 -0.001528 0.779498 -0.896721 0.064396 
209 0.448394 0.592329 -0.102185 -0.430966 -0.031907 0.246584 0.199800 0.266356 -0.659523 0.553728 
210 0.575646 -0.391995 -0.555419 -0.625042 -0.079488 0.218183 -0.186035 0.515993 -0.752925 0.097623 
211 0.493097 -0.365623 -0.452493 -0.542279 -0.056988 0.275620 -0.032716 0.537401 -1.016652 0.030350 
212 0.656330 -0.395537 -0.566938 -0.523472 0.037078 0.236087 -0.179635 0.559261 -0.872147 -0.043845 
213 0.784103 -0.132595 -0.306820 -0.641452 0.280214 0.342294 -0.202109 0.459809 -0.393958 0.447988 
215 0.134507 0.045645 0.552180 0.038149 -0.430917 -0.230748 0.439560 1.175545 -0.920097 0.733825 
218 0.302687 0.677444 -0.289504 -0.435595 -0.307295 0.146121 0.107429 0.350794 -1.018850 -0.003580 
219 0.572866 -0.487272 0.231764 -0.107270 0.089008 0.353962 0.247866 0.868209 -0.384856 0.614443 
220 0.163510 0.165971 -0.548789 -0.611015 -0.261267 0.074066 -0.033124 0.293378 -0.915574 0.272567 
221 -0.147571 0.496437 0.122127 -0.343425 -0.085856 -0.349068 0.501737 0.971006 -0.766913 0.717907 
222 0.278675 0.128125 -0.471785 -0.346336 -0.117573 0.524632 0.018970 0.457785 -1.075657 -0.020393 
223 0.395395 -0.777804 -0.029264 0.135400 0.131899 0.225088 0.309644 1.320279 -1.007144 0.363699 
225 0.380970 -0.028521 -0.455078 -0.244865 -0.166537 0.254137 0.181164 0.473776 -1.096952 -0.021168 
228 0.256300 -0.032952 -0.388760 -0.286846 0.007069 0.395137 0.071551 0.618336 -0.944575 -0.029740 
229 0.254449 0.450014 -0.150352 -0.479630 -0.248463 0.116063 0.168535 0.287772 -1.026901 0.122533 
231 0.570549 -0.349037 -0.267470 -0.602776 0.303299 -0.106583 -0.315238 0.955868 -0.130894 0.273350 
232 0.437190 -0.315864 -0.576601 -0.535494 -0.164858 0.290250 -0.038547 0.607255 -1.021956 -0.075876 
233 0.405949 -0.323220 -0.527988 -0.454194 -0.146153 0.258896 0.039259 0.647286 -1.001876 -0.191756 
234 0.584585 -0.191652 -0.181565 -0.216332 0.062935 0.453961 0.092746 0.438615 -0.637671 0.245132 
235 0.348378 -0.208680 -0.616196 -0.340234 -0.222731 0.483139 -0.019654 0.656894 -1.233230 -0.141825 
236 -0.077508 -0.346386 -0.066433 0.027244 -0.095546 -0.011770 0.141542 1.094195 -0.945033 -0.063704 
237 0.261214 -0.221527 -0.433376 -0.534145 0.070895 0.395177 -0.117809 0.572825 -1.003551 -0.031079 
238 0.453162 -0.286721 -0.447513 -0.524541 -0.110499 0.372292 -0.044365 0.420270 -0.974741 -0.032754 
239 0.145505 -0.585509 -0.191309 -0.055918 0.085139 0.066002 0.029714 1.058928 -0.870413 0.068219 
242 0.787082 -0.108086 -0.572633 -0.273978 0.121409 0.561360 -0.080515 0.436320 -0.719002 0.314020 
243 0.067038 -0.141420 -0.523415 -0.401102 -0.021929 0.248382 -0.098560 0.475743 -1.253254 -0.154304 
244 0.210489 -0.043912 -0.242266 -0.490279 0.006848 0.414265 0.061261 0.453218 -1.133640 -0.074734 
245 0.127599 0.396284 -0.275561 -0.480251 -0.129226 -0.167225 0.373952 0.317744 -0.907339 0.161070 
1008 1.246476 -0.208502 -1.050657 -0.899942 1.095762 -0.135552 0.300395 0.837345 -0.305650 0.706428 
246 0.038721 -0.071455 0.381146 -0.199703 -0.181584 0.068476 0.441255 0.664063 -0.826941 0.669671 
247 -0.138598 0.202556 0.228455 -0.427721 -0.060280 -0.293727 0.536482 0.849910 -0.731326 0.887427 
248 0.365030 -0.228582 0.470124 -0.219292 0.155263 0.034085 0.233913 1.075813 -0.460702 0.595397 
249 0.079047 -0.494027 0.239381 -0.295899 0.114067 -0.225052 0.380068 0.933011 -0.708533 0.168023 
250 0.469238 -0.302776 0.332731 -0.304923 0.033864 0.197968 0.341039 1.033932 -0.303904 0.793466 
252 0.335002 0.042179 -0.457498 -0.543166 -0.208555 0.185811 0.194766 0.481133 -0.812357 -0.029351 
255 0.638508 0.078614 -0.453066 -0.726659 0.061253 0.298036 -0.098920 0.348590 -0.396123 0.295968 
256 0.744272 0.227673 -0.414914 -0.683376 0.445684 0.428473 -0.201128 0.556313 -0.206742 0.450938 
257 0.611654 0.048175 -0.519420 -0.343246 0.232365 0.603669 -0.135560 0.514122 -0.772135 0.066094 
258 0.524425 0.277134 -0.575788 -0.482424 0.077696 0.530233 -0.002465 0.409758 -0.710145 0.023945 
259 0.401602 0.124730 -0.715277 -0.517586 0.010593 0.147926 0.023345 0.478958 -1.018650 -0.262404 
260 0.424000 -0.264034 -0.645974 -0.543195 -0.077265 0.399139 0.024860 0.561307 -1.172725 -0.204406 
261 0.717953 -0.206914 -0.364701 -0.198783 0.093585 0.567387 0.082493 0.578224 -0.661435 0.184330 
262 0.464036 -0.237161 -0.090189 -0.031076 0.136827 0.322132 0.027645 0.794809 -0.597088 0.142991 
263 0.028627 -0.433563 -0.112531 -0.196066 0.063255 0.114264 0.154987 0.972059 -0.837017 0.055834 
264 0.399715 -0.330965 0.332305 -0.163792 0.073839 -0.009182 0.435612 1.108830 -0.440192 0.584249 
269 0.347367 -0.405075 -0.506502 -0.409944 -0.063481 0.443311 0.088183 0.563098 -1.063462 0.072354 
270 0.587520 0.256091 -0.534910 -0.440783 -0.150273 0.623648 0.000077 0.344944 -0.876083 0.108291 
271 0.099515 0.309918 0.343219 0.021342 -0.106551 0.083460 0.092135 1.020694 -0.642946 0.736703 
272 -0.082489 0.555739 0.141548 -0.207501 -0.176930 -0.045345 0.305649 0.867406 -0.790815 0.532023 
273 0.093779 0.500771 -0.087879 -0.763981 -0.056074 0.056502 0.240339 0.380950 -0.715744 0.261740 
275 0.327667 -0.150434 0.329512 -0.590097 0.202778 0.135672 0.064957 0.767926 -0.444403 0.054116 
277 0.145203 -0.364763 -0.487182 -0.228141 -0.285236 0.418796 0.212441 0.637185 -1.227167 -0.069467 
278 0.190598 0.151591 -0.216748 -0.621866 -0.189444 -0.094631 0.298497 0.360084 -0.862595 0.189444 
279 0.097415 0.605789 -0.268774 -0.852944 -0.088129 0.021068 0.347095 0.357881 -0.706248 0.316854 
280 -0.021686 0.257421 -0.099175 -0.282345 -0.271881 -0.292504 0.272191 0.835413 -0.642090 0.665041 
281 -0.080361 0.608248 0.219167 -0.193157 -0.224060 -0.057120 0.300341 0.828550 -0.814767 0.513702 
284 0.028309 0.631070 0.257097 -0.320194 -0.110714 -0.093819 0.485187 0.918179 -0.617964 0.602355 
285 0.325556 0.173630 0.466701 -0.319814 0.047121 -0.007420 0.361724 1.005147 -0.378760 0.382263 
286 0.005482 0.322462 0.351951 -0.469846 0.097917 -0.275123 0.491295 1.001704 -0.581153 0.296229 
287 -0.007508 0.643677 0.031545 -0.756390 -0.131908 0.055099 0.455967 0.326699 -0.873225 0.319301 
288 0.347667 -0.079290 -0.579820 -0.334829 -0.058434 0.265861 -0.014059 0.571627 -1.128403 0.005126 
289 0.553904 -0.445802 -0.532943 -0.532219 0.008355 0.247444 -0.178631 0.536477 -0.823031 -0.059505 
290 0.423007 -0.288376 0.337184 -0.155946 0.111195 -0.026313 0.257158 1.123324 -0.476312 0.602052 
291 0.428120 -0.427061 -0.355106 -0.418341 0.226986 0.304014 0.049167 0.886696 -0.568425 -0.005811 
292 -0.131542 -0.202686 0.195760 -0.162307 -0.007493 -0.301716 0.395174 0.792937 -0.814754 0.496726 
293 0.115011 0.847852 -0.233840 -0.544011 -0.087680 0.005065 0.241438 0.271895 -0.994542 0.398785 
294 -0.013813 -0.304414 -0.018350 -0.117438 -0.119989 -0.026485 0.198836 0.994499 -0.888337 0.038504 
295 0.222466 -0.009812 0.478100 -0.198563 0.011585 -0.038672 0.456867 1.022813 -0.536121 0.879543 
296 0.227200 -0.063693 -0.583870 -0.547938 -0.310543 0.365480 0.127641 0.487681 -1.000309 -0.079704 
298 0.088115 0.603422 0.237471 -0.452595 -0.120824 -0.096631 0.448085 0.889345 -0.592761 0.477808 
299 0.071752 -0.586147 0.100090 -0.069851 0.049988 0.010775 0.321294 0.881548 -0.787879 0.131744 
300 -0.151366 -0.023887 0.300758 -0.272774 -0.046763 -0.204818 0.470621 0.855681 -0.663347 0.207456 
301 0.050293 0.006214 -0.056960 -0.224771 -0.185825 -0.297885 0.223889 0.866405 -0.609977 0.308398 
302 0.171154 0.619439 -0.675208 -0.721112 -0.118892 0.009894 0.128943 0.462671 -0.912797 -0.179129 
303 0.320855 -0.231904 0.169036 -0.140048 0.104971 0.362332 0.052597 1.026780 -0.596077 0.232854 
304 0.135945 0.438859 0.115097 -0.299419 0.082477 0.180048 0.249182 0.645810 -0.567901 0.461957 
305 0.621674 0.064692 -0.191270 -0.395943 0.318963 0.398519 0.109381 0.458522 -0.618758 0.423617 
307 0.614660 0.441649 -0.390779 -0.690478 -0.079083 0.506519 -0.000658 0.265752 -0.559796 0.250439 
308 0.401264 -0.235291 -0.611552 -0.563509 -0.096017 0.377575 -0.032169 0.537310 -1.101364 -0.098425 
309 0.301942 0.671289 -0.491477 -0.918039 -0.025461 -0.018826 0.084976 0.468781 -0.538089 0.229802 
310 0.215684 0.466735 -0.138924 -0.560999 -0.069734 0.210011 0.159569 0.311202 -0.648546 0.450137 
311 -0.172096 0.454175 0.081781 -0.246187 -0.295807 -0.293147 0.412787 0.962386 -0.917256 0.545757 
312 -0.053510 0.677143 0.246606 -0.441605 -0.103655 -0.207951 0.539719 0.995784 -0.655480 0.594869 
313 0.222233 -0.136440 -0.272858 -0.494439 0.109456 0.313247 -0.082768 0.459900 -1.011343 -0.207858 
314 0.694069 0.374981 -0.644447 -0.570465 0.049461 0.654854 -0.190573 0.468071 -0.787159 -0.008336 
315 -0.018094 -0.328864 -0.053595 -0.188649 0.123647 0.076159 -0.176278 0.992632 -0.803194 -0.037263 
317 0.402795 -0.393628 0.294827 -0.124607 0.168532 0.004146 0.462287 1.033642 -0.477195 0.595335 
318 0.217725 0.301870 -0.283672 -0.476720 -0.178165 -0.062249 0.242588 0.362973 -0.892885 0.024359 
319 -0.167729 0.511081 0.219193 -0.433244 0.033926 -0.237602 0.402498 0.825727 -0.743841 0.462435 
320 0.307179 0.248419 0.071589 -0.191319 0.163515 0.075175 0.155868 1.017359 -0.464501 0.949819 
321 0.007156 -0.368483 -0.119049 0.074037 -0.116323 0.194371 0.292453 1.027959 -0.869900 0.063175 
322 0.508018 -0.083090 0.247599 -0.328468 0.191160 0.028527 -0.021990 1.188292 -0.287388 0.534705 
323 0.415842 -0.229606 -0.580569 -0.380738 -0.068676 0.306376 0.078263 0.448244 -0.976371 -0.151856 
325 0.425484 -0.250384 -0.501300 -0.464687 0.004466 0.337421 0.186366 0.553302 -0.850268 0.040787 
327 0.007406 -0.387979 -0.067137 0.009693 -0.087667 0.097187 0.168509 1.074166 -0.897564 0.078557 
328 0.502868 0.232855 -0.511811 -0.467669 -0.158734 0.518296 -0.024890 0.299397 -0.818597 0.114525 
329 0.224571 -0.395767 -0.172235 -0.154296 0.084888 -0.022790 0.170384 1.042375 -0.739153 -0.016483 
330 0.300786 -0.250062 -0.025789 -0.189133 0.036044 -0.260551 0.180703 1.063899 -0.518635 0.081621 
331 0.652375 0.429632 -0.608514 -0.655822 0.172000 0.375680 0.026125 0.469402 -0.561731 0.151452 
332 -0.241117 0.464809 0.125784 -0.406076 -0.166987 -0.283479 0.483161 1.131067 -0.765081 0.838023 
333 -0.358119 0.364205 0.010076 -0.150040 -0.202006 -0.165837 0.483081 1.047824 -0.843756 0.639869 
334 0.521170 -0.378990 -0.417989 -0.474502 -0.078945 0.206753 0.124723 0.617815 -0.845686 0.058029 
335 0.620019 -0.237715 0.138167 -0.272334 0.223854 0.444827 -0.174583 1.071936 -0.457150 0.415038 
336 -0.143286 0.517780 0.073339 -0.229040 -0.019784 -0.157181 0.312801 0.752678 -0.751032 0.525989 
337 -0.048023 0.031011 0.227097 -0.412159 -0.059185 -0.443081 0.544367 0.978590 -0.659854 0.735312 
338 0.789002 -0.261426 -0.373020 -0.464418 0.201627 0.505225 -0.236314 0.486033 -0.610757 0.229343 
339 0.410099 0.083357 0.306162 -0.097269 -0.034276 -0.056338 0.238075 1.088573 -0.379673 0.582119 
340 0.368123 -0.306309 -0.477256 -0.336695 -0.043465 0.310001 0.163738 0.603884 -1.096893 0.034538 
341 -0.082722 0.509512 0.333670 -0.313933 -0.050957 -0.115334 0.391831 0.694962 -0.778887 0.485746 
342 0.532868 0.094089 -0.645989 -0.311947 0.236670 0.536190 -0.114467 0.586894 -0.685980 0.034391 
343 0.297651 0.088579 -0.171934 -0.610012 -0.118098 0.062688 0.125861 0.361620 -0.874067 0.016721 
344 0.374598 -0.088974 -0.654683 -0.370595 -0.085500 0.250915 -0.012480 0.554355 -1.150545 -0.104415 
345 0.271124 -0.009131 -0.301861 -0.462306 -0.184946 0.195168 0.203646 0.426260 -0.703650 0.012421 
346 0.591909 0.523626 -0.549931 -0.756640 0.165940 0.487597 -0.124450 0.413018 -0.480538 0.151284 
347 0.062834 -0.343791 -0.077899 -0.208039 0.059954 0.061761 0.072178 1.014438 -0.802581 0.012606 
348 0.097067 -0.191362 0.172287 -0.099533 -0.024160 0.158155 0.163395 0.738218 -0.961544 -0.047481 
349 0.081016 -0.334532 -0.204408 0.036387 -0.137612 0.175943 0.166198 0.961743 -0.919449 -0.002898 
350 0.750127 -0.060586 0.003280 -0.595742 0.112255 0.244727 0.020472 1.096510 -0.066082 0.841975 
351 0.443063 -0.087247 -0.045589 -0.457680 0.360356 0.258541 0.234021 0.948928 -0.127256 0.506688 
352 0.302801 -0.247046 0.236341 -0.190845 0.050451 0.105312 0.401240 1.020978 -0.379618 0.659950 
353 -0.033808 0.598680 -0.176338 -0.449566 -0.179296 -0.050232 0.408118 0.339049 -0.873441 0.564197 
356 0.092735 -0.455799 0.182033 -0.220604 0.143948 -0.244568 0.300555 1.043827 -0.737563 0.298855 
357 0.385190 0.334402 -0.338007 -0.571543 0.069747 0.615676 0.023465 0.359526 -0.634885 0.351299 
358 0.668851 0.320182 -0.632095 -0.564886 0.020204 0.543147 -0.096105 0.449368 -0.715603 0.029873 
359 0.517957 -0.550030 0.252088 -0.090150 0.089853 0.401769 0.243161 0.868042 -0.491120 0.623810 
360 0.775445 -0.113441 -0.453512 -0.310766 0.051709 0.629767 -0.101167 0.527087 -0.712441 0.288967 
361 0.601910 0.214293 -0.083773 -0.711581 0.224136 0.345941 0.121710 0.372299 -0.402168 0.283087 
362 0.854222 0.337779 -0.051549 -0.832719 0.295322 0.542383 -0.021690 0.500885 -0.310971 0.443994 
365 0.440335 0.443293 -0.454332 -0.633792 0.091408 0.299634 0.023188 0.422197 -0.458948 0.219920 
367 0.302159 0.072753 -0.807609 -0.529073 -0.066123 0.253847 0.021342 0.577124 -0.906163 -0.161992 
368 0.240205 0.047076 -0.789339 -0.608853 -0.107495 0.345678 -0.015324 0.583191 -0.881787 -0.171974 
369 0.270942 -0.002671 0.340917 -0.135422 -0.032606 -0.009268 0.398585 0.899981 -0.527809 0.972293 
370 0.256175 -0.312899 -0.485640 -0.176001 -0.272819 0.346235 0.194550 0.626591 -1.351147 -0.017123 
372 0.441420 -0.045411 0.139143 -0.174932 0.221804 0.021103 0.203064 0.983573 -0.313100 0.310886 
373 0.244304 -0.314467 -0.427169 -0.262251 -0.375607 0.381407 0.263308 0.581702 -1.220329 -0.008139 
375 -0.064705 0.525808 0.088271 -0.346568 -0.194821 -0.336393 0.493210 0.882089 -0.830961 0.630983 
380 0.329627 -0.036289 -0.546172 -0.393197 -0.190000 0.143109 0.145087 0.420642 -1.076535 -0.140463 
381 -0.083159 0.165793 0.034873 -0.409720 -0.163760 -0.567137 0.751817 1.161041 -0.833517 0.785553 
382 0.565780 0.201290 0.314154 -0.590211 0.327558 0.207479 0.085216 0.944638 -0.191800 0.505312 
384 -0.037709 -0.423191 -0.087480 0.006349 -0.083305 0.057181 0.107602 1.122243 -1.053187 0.008083 
385 -0.111113 -0.434275 -0.087429 0.018285 -0.054819 0.016985 0.204982 1.053429 -1.009069 -0.046112 
386 -0.016037 0.541149 0.133975 -0.362620 -0.187881 -0.249251 0.457031 1.009807 -0.771355 0.669188 
387 0.658582 -0.102600 -0.124690 -0.262567 0.276305 0.472172 -0.168868 0.552359 -0.789716 0.134825 
388 0.814840 0.005300 -0.321599 -0.732988 0.422853 0.546530 -0.204212 0.391139 -0.492896 0.498887 
389 0.251281 -0.264491 0.396328 -0.253351 0.051576 0.015014 0.400134 1.155522 -0.427077 0.652647 
390 0.000684 -0.628952 -0.515207 -0.111408 -0.001369 0.156897 0.180837 1.398782 -1.108047 -0.079851 
391 0.257287 -0.117738 -0.474932 -0.315532 -0.059688 0.313923 0.089714 0.497308 -1.175518 -0.042160 
393 0.184409 0.315316 0.046166 -0.133000 0.057805 0.139732 0.042126 0.850446 -0.479155 0.679712 
394 0.576304 -0.098960 -0.239904 -0.146633 0.065658 0.592984 0.003367 0.567004 -0.898200 0.199264 
395 0.280743 -0.168681 -0.428812 -0.211195 0.180178 0.265390 -0.022068 0.772888 -0.698407 -0.006427 
396 0.038960 0.565851 -0.193620 -0.577130 -0.291656 0.155247 0.208025 0.386983 -0.915368 0.514391 
397 0.254653 -0.085966 -0.436461 -0.262505 -0.016294 0.259882 0.117147 0.519859 -1.140362 -0.060849 
399 0.280550 -0.105997 -0.498973 -0.310639 -0.144552 0.365217 0.049561 0.570727 -1.126266 -0.039861 
400 0.128659 -0.243286 -0.236702 -0.077491 -0.100364 0.091493 -0.012056 0.942468 -0.885531 -0.017244 
401 0.147753 -0.181350 -0.366440 -0.225080 0.283186 0.331800 -0.077704 0.695123 -0.807323 -0.008881 
402 -0.076903 0.120984 -0.108253 -0.142436 -0.069922 -0.046197 0.118180 0.880655 -0.669207 0.103258 
403 0.301573 -0.104351 -0.428792 -0.266234 -0.300105 0.390249 0.064173 0.560941 -1.003414 -0.065331 
405 -0.004535 0.561014 0.273680 -0.327170 -0.095573 -0.169337 0.516383 1.049473 -0.680186 0.596785 
406 0.333162 -0.460719 -0.496728 -0.419301 -0.061195 0.350943 0.071545 0.592227 -1.100908 -0.009083 
407 0.721734 0.502376 -0.587330 -0.865336 0.042055 0.454537 0.000183 0.361914 -0.453162 0.249861 
411 0.644234 0.016331 -0.258471 -0.540757 0.048620 0.545081 -0.128417 0.455117 -0.407644 0.345437 
412 -0.030372 0.689806 -0.134702 -0.488775 -0.100834 -0.148249 0.456931 0.933779 -0.687068 0.683993 
413 0.124236 -0.709754 0.060462 -0.161067 0.046389 -0.023513 0.326916 1.029271 -0.878359 0.291178 
415 0.700801 0.380223 -0.428861 -0.719917 0.233007 0.419742 -0.048535 0.364391 -0.450493 0.409637 
416 -0.087392 -0.828927 0.105998 -0.109372 0.043306 0.035052 0.401138 1.022930 -0.898126 0.225491 
417 0.051303 -0.657297 0.045105 -0.162650 0.080833 0.048668 0.241370 0.882364 -0.758212 0.197430 
418 0.048111 0.636348 -0.175638 -0.467502 -0.058964 0.000740 0.152402 0.317854 -0.909761 0.373434 
419 -0.035596 -0.704789 0.010647 -0.044206 0.095527 0.015033 0.384416 0.962403 -0.863625 0.242731 
420 0.032201 -0.780103 -0.005409 -0.067672 -0.052829 0.003077 0.395602 0.933331 -0.948428 0.234173 
421 0.324096 -0.169467 -0.322220 -0.422002 -0.118148 0.395322 -0.080496 0.570526 -1.024841 -0.102619 
422 0.515163 -0.409769 -0.159302 -0.202759 0.098200 0.526489 -0.077913 0.809874 -0.528293 0.136154 
423 -0.018479 -0.031099 0.295140 -0.538955 -0.083348 -0.415389 0.545156 0.997310 -0.618662 0.657990 
424 0.257757 0.167366 -0.304795 -0.514292 -0.133964 -0.001834 0.179852 0.339831 -0.745396 0.169412 
425 0.429390 -0.165994 0.222976 -0.063952 0.096287 0.405407 -0.039834 0.956483 -0.558463 0.277751 
426 0.594692 0.229456 -0.230116 -0.351108 0.062139 0.343234 -0.047881 0.285820 -0.646398 0.128382 
427 0.650219 -0.162242 -0.253426 -0.188075 0.025688 0.512535 0.084458 0.572433 -0.687405 0.198392 
428 0.347859 -0.138912 -0.428692 -0.534239 0.030007 0.122631 0.244794 0.496609 -0.720280 0.116958 
429 -0.052657 0.798518 -0.110307 -0.671112 -0.035435 0.084267 0.263851 0.409780 -1.005684 0.266258 
430 0.064236 -0.502108 0.042352 -0.154248 0.117239 0.075626 0.035216 0.940333 -0.884174 0.008205 
432 -0.059859 0.341273 0.202205 -0.365523 -0.043759 -0.239005 0.313019 0.713107 -0.714492 0.678616 
433 0.320643 -0.329604 0.206017 -0.060706 0.158783 0.317762 -0.054390 0.947809 -0.659550 0.352929 
434 0.160603 -0.629034 0.070823 -0.078289 0.129716 0.087720 0.066414 1.009403 -1.012708 0.164002 
435 0.678434 -0.330184 -0.383906 -0.201014 0.027464 0.650725 -0.181946 0.625653 -0.801566 0.111930 
436 -0.126872 -0.168790 0.307302 -0.220777 -0.020774 -0.272554 0.480905 0.995845 -0.829249 0.353085 
437 0.435125 -0.129975 -0.419916 -0.473365 -0.155809 0.349841 0.047373 0.482319 -1.214815 -0.125672 
438 0.179044 0.318902 -0.308130 -0.593078 -0.331462 -0.065508 0.189201 0.229723 -1.030524 0.016386 
439 0.120636 0.670464 -0.273126 -0.649681 -0.137223 -0.047325 0.308050 0.377376 -0.836999 0.400028 
440 0.704856 -0.317443 -0.278505 -0.130274 0.079304 0.530130 -0.003622 0.483099 -0.867053 0.243919 
441 0.687387 -0.090732 -0.301440 -0.234985 0.131269 0.188020 0.116458 0.679904 -0.264575 0.094993 
442 0.276218 -0.230409 -0.417061 -0.491827 0.014184 0.367531 -0.160646 0.398581 -1.117174 -0.030710 
443 0.259686 -0.262159 -0.341035 -0.400552 -0.003659 0.166311 -0.121807 0.470365 -0.987690 -0.017304 
445 0.195604 0.054333 0.342931 -0.115103 0.069889 -0.041885 0.282745 0.923039 -0.577716 0.889898 
446 0.584545 0.227432 -0.547573 -0.360907 -0.083748 0.549826 0.046838 0.341841 -0.847148 0.030877 
448 0.470435 -0.351708 0.324394 -0.268379 0.117258 0.210483 0.227100 0.953727 -0.331031 0.791458 
450 0.529797 0.052921 -0.204430 -0.602737 0.071977 0.219362 -0.080883 0.383260 -0.812240 -0.030988 
451 -0.090254 -0.185711 0.284592 -0.298791 -0.203459 -0.232378 0.400958 0.798818 -0.733403 0.303067 
452 0.221148 -0.637581 0.219439 -0.018755 0.068474 0.357353 0.222880 1.062007 -0.638914 0.532637 
453 0.315270 -0.047053 -0.588465 -0.511532 -0.190251 0.269982 0.139470 0.548568 -0.938520 -0.004868 
454 0.480984 -0.470858 -0.589748 -0.308913 -0.173019 0.296384 0.105552 0.538466 -1.118024 0.022254 
455 -0.042301 0.366810 0.039960 -0.111956 -0.054176 -0.204379 -0.020794 0.819580 -0.863921 0.148057 
458 0.367902 -0.691177 0.271645 -0.069626 0.083874 0.276402 0.299371 1.176723 -0.685605 0.467345 
460 0.051201 -0.283049 -0.238934 -0.056177 0.083219 0.127795 0.033964 0.918154 -0.872756 -0.065681 
461 0.498532 -0.395259 0.351128 -0.351266 0.115469 0.158815 0.301635 0.981682 -0.319136 0.788339 
463 0.379127 -0.431106 -0.386192 -0.276492 0.381695 0.313494 -0.007414 0.774327 -0.718129 0.037383 
464 0.063009 0.565554 0.268065 -0.390089 0.072207 -0.096544 0.410565 0.795135 -0.590479 0.458400 
465 0.470054 -0.299447 -0.430291 -0.392771 -0.053262 0.327567 0.144506 0.569963 -0.954662 0.106469 
466 0.437652 -0.204059 -0.380073 -0.451677 0.174836 0.179753 -0.051920 0.466749 -1.091580 -0.135329 
467 0.410142 -0.467555 -0.457132 -0.390242 -0.133196 0.389500 0.077376 0.558552 -1.112336 -0.022250 
468 0.005842 0.676561 -0.072178 -0.479837 -0.138312 -0.201671 0.368436 0.931731 -0.606769 0.606843 
469 0.656983 0.108828 -0.100157 -0.631478 0.307085 0.426808 -0.156251 0.479889 -0.440111 0.375510 
470 0.815945 -0.239731 -0.202571 -0.213367 0.156770 0.602425 0.080089 0.662781 -0.634437 0.309088 
471 0.426191 -0.597666 0.366509 0.028815 0.088673 0.336346 0.295039 1.099707 -0.629637 0.467258 
472 0.012386 -0.263913 0.087722 -0.086184 -0.173918 -0.091551 0.242342 0.931926 -0.753127 0.023415 
473 0.111973 -0.068406 -0.365548 -0.190279 -0.206014 0.156808 0.444043 0.493681 -0.975159 0.071928 
474 -0.076448 0.453591 0.129117 -0.281673 -0.099659 -0.278389 0.461804 0.877828 -0.695110 0.642116 
476 0.454707 0.609998 -0.440338 -0.472253 0.225386 0.325817 0.159856 0.596221 -0.227523 0.382854 
477 0.544267 -0.400285 -0.570272 -0.703027 0.027732 0.361136 -0.176643 0.497497 -0.887265 -0.001121 
480 0.280156 0.018489 0.090125 -0.174378 -0.095701 0.354157 0.094023 0.980408 -0.328336 0.222710 
481 0.740463 0.074130 -0.584309 -0.352803 -0.021508 0.610512 -0.118909 0.381604 -0.864094 0.156642 
482 0.567069 -0.341969 -0.411495 -0.457501 -0.034727 0.203824 0.096434 0.530963 -0.920990 -0.022352 
484 0.620998 -0.323441 0.280010 -0.179699 -0.080118 0.188463 0.307353 1.442040 -0.564647 0.944146 
485 -0.039186 -0.182616 0.270718 -0.318138 -0.221501 -0.356450 0.474474 0.754563 -0.761590 0.368868 
486 0.234811 -0.585986 0.243189 -0.077650 0.045229 0.234825 0.197250 1.014282 -0.547030 0.503768 
487 0.398666 -0.209670 0.162047 -0.119446 -0.046051 0.353858 0.099526 1.067320 -0.473172 0.302881 
488 0.081286 -0.734224 0.089643 -0.115135 0.058077 -0.035272 0.374106 0.951859 -0.944942 0.209815 
489 -0.268027 0.603487 -0.242023 -0.182448 -0.221328 0.257454 0.112017 0.707014 -1.053579 0.098543 
490 0.193802 0.044335 -0.232644 -0.213626 -0.150891 0.452824 0.137781 0.414978 -1.001565 0.034520 
491 -0.117161 0.404540 -0.008023 -0.182266 -0.259624 -0.361676 0.462398 0.937101 -0.818398 0.537939 
492 0.065369 -0.173841 -0.322311 -0.311064 -0.242708 0.209669 0.329951 0.469843 -0.969050 0.089920 
493 0.431734 -0.386404 -0.492477 -0.288023 -0.146200 0.241846 0.086120 0.581520 -1.086181 -0.023435 
494 -0.087360 0.691533 -0.224219 -0.587702 -0.089969 -0.074024 0.531157 0.349357 -1.050077 0.563391 
495 0.357002 -0.468963 -0.050207 0.040948 0.061708 0.308691 0.030918 1.074412 -0.640129 0.313282 
496 0.539005 -0.125121 0.359033 -0.449795 0.303052 0.255470 0.222024 0.988632 -0.338454 0.994410 
497 0.420345 -0.527124 0.374073 0.093555 0.067410 0.204658 0.138712 1.077605 -0.552515 0.408267 
498 0.457082 -0.528878 0.232334 -0.110403 0.092416 0.420143 0.122524 0.920938 -0.547583 0.506193 
499 0.245073 -0.194645 -0.189122 -0.391557 0.003416 0.393989 -0.123790 0.463908 -1.076177 0.004095 
500 0.154055 0.526095 -0.335939 -0.592021 -0.245506 0.005679 0.288608 0.291433 -1.017810 0.025917 
502 0.970141 0.096546 -0.339196 -0.851343 0.303301 0.525611 -0.263318 0.454890 -0.349367 0.584623 
503 0.336832 -0.209764 -0.650480 -0.403971 -0.017288 0.401589 0.080357 0.488461 -1.035471 0.003117 
504 0.360175 -0.183008 -0.431126 -0.374692 0.068938 0.278881 0.098775 0.399696 -1.152111 -0.074537 
505 0.276837 0.618555 -0.323828 -0.458313 -0.342165 0.291812 0.078883 0.363317 -1.001516 0.006650 
506 0.319465 -0.249337 -0.690125 -0.514692 -0.030015 0.394832 0.080527 0.561319 -1.069315 -0.034209 
507 0.588913 0.100352 -0.454312 -0.303987 0.232099 0.516779 -0.110135 0.484747 -0.725434 0.099645 
508 0.321851 0.052245 -0.761579 -0.515984 -0.106726 0.313154 0.019251 0.484486 -0.909114 -0.115761 
509 0.184552 0.483517 -0.328003 -0.602843 -0.315133 0.022872 0.365695 0.406707 -0.856335 -0.000506 
510 0.353084 -0.436281 -0.414586 -0.395114 -0.125927 0.367279 0.045211 0.521671 -1.011093 0.017571 
511 0.631244 -0.069171 -0.197890 -0.334611 0.257617 0.457527 -0.169302 0.487946 -0.787739 0.158869 
512 0.347713 -0.200215 -0.652914 -0.480650 0.168353 0.249078 -0.217546 0.509361 -0.995187 -0.000625 
513 0.641759 -0.135987 -0.374955 -0.148639 0.060317 0.566767 -0.066236 0.541230 -0.762582 0.185584 
514 0.400198 -0.584760 0.305248 -0.124986 0.069675 0.364044 0.165333 1.043578 -0.599902 0.452417 
515 0.388398 -0.297812 -0.151674 -0.497788 0.107323 0.003683 0.115181 0.773521 -0.419759 0.073299 
516 0.325047 0.026953 0.351562 -0.145435 0.136253 0.009103 0.375450 0.935861 -0.599503 1.067545 
517 0.656761 -0.091186 -0.275700 -0.262713 0.127975 0.455936 -0.018628 0.519068 -0.736314 0.162245 
518 0.455802 0.023820 -0.168386 -0.491869 0.158931 0.358979 0.079155 0.437750 -0.563109 0.344614 
519 0.404497 0.777592 -0.298584 -0.577175 -0.090802 0.224410 0.033172 0.358881 -0.800281 0.381632 
520 0.071537 -0.826422 0.085478 -0.112103 0.065949 -0.007574 0.471627 1.003592 -0.923024 0.238067 
521 0.330644 -0.219686 0.526102 -0.296207 0.044737 0.028362 0.304940 0.974197 -0.466508 0.606868 
522 0.032309 0.395887 -0.100386 -0.475254 -0.032613 0.205615 0.105530 0.258880 -1.020282 -0.062645 
523 -0.023709 0.335698 0.002078 -0.415473 0.062089 -0.214432 0.295731 1.098988 -0.452108 0.447193 
524 0.274424 -0.241945 -0.460198 -0.363969 -0.231228 0.392651 -0.015592 0.611204 -1.068780 -0.087227 
526 0.280801 -0.006228 -0.473872 -0.231287 -0.008499 0.243885 -0.163333 0.559298 -0.937424 -0.083818 
527 0.304473 0.538725 -0.192167 -0.357243 0.199341 0.381535 -0.138233 0.389828 -0.604194 0.527323 
529 0.121896 -0.156909 -0.408457 -0.352953 -0.051763 0.362994 -0.156319 0.584313 -1.002596 -0.161348 
530 0.423709 0.277347 -0.027283 -0.427880 0.281140 0.206021 0.149614 0.808069 -0.171383 0.431589 
531 0.323220 0.361620 -0.141577 -0.693815 -0.249812 0.059095 0.292369 0.301266 -1.027923 -0.077460 
532 -0.091833 0.812155 -0.348684 -0.739732 -0.038828 0.007720 0.609584 0.783820 -0.886937 0.689602 
533 0.415288 0.173305 0.304981 -0.284962 0.015236 -0.001086 0.328616 0.757535 -0.430564 1.138819 
534 0.584711 0.159036 -0.251960 -0.672176 0.280324 0.490461 -0.389119 0.431390 -0.483875 0.493198 
535 0.150578 -0.342255 0.200214 -0.310687 -0.002321 -0.213260 0.049877 0.878311 -0.721736 0.106492 
536 0.362161 -0.385000 -0.176825 -0.387276 -0.045533 0.323980 0.005913 0.537236 -1.081028 -0.009542 
537 0.400724 -0.170916 -0.581000 -0.575224 -0.222430 0.345156 0.058075 0.559578 -1.206846 -0.206589 
538 0.062186 -0.631907 0.127648 -0.049966 0.051909 -0.003417 0.268175 0.974524 -0.835183 0.110973 
539 0.248180 -0.678208 0.354100 -0.046779 0.055003 0.325379 0.171756 1.069915 -0.689109 0.554294 
540 1.146274 -0.366291 -0.581791 -0.746029 0.208967 0.577929 -0.002915 0.686370 -0.632794 0.296147 
541 0.454974 -0.329669 -0.419076 -0.364024 -0.068995 0.227729 0.173372 0.519004 -0.974506 -0.011406 
543 0.842226 0.066720 -0.392071 -0.756856 0.461669 0.345221 -0.187793 0.845509 -0.016242 0.648022 
545 0.573767 -0.121194 0.213416 -0.284321 0.351079 0.301378 -0.051363 0.951913 -0.341195 0.446786 
546 0.527173 0.347396 0.008376 -0.457604 0.140316 0.240044 0.018702 0.896404 -0.151318 0.667082 
547 0.511017 0.044580 -0.732288 -0.492305 -0.225781 0.501991 0.119638 0.608674 -1.441491 -0.027239 
548 0.304185 -0.393037 -0.048736 -0.307427 0.078862 -0.040852 0.015517 0.931871 -0.517828 0.025844 
549 0.399795 -0.044631 -0.381411 -0.305788 -0.228417 0.412984 0.071587 0.493726 -1.103812 -0.051262 
552 0.202272 0.554158 -0.318095 -0.406733 -0.257419 0.196625 0.007126 0.185594 -1.170524 0.108036 
553 -0.031854 -0.033570 0.332052 -0.416803 -0.074776 -0.405460 0.506337 0.978374 -0.647985 0.615223 
554 0.224026 -0.118406 -0.400047 -0.357680 0.079567 0.252605 -0.188060 0.437680 -1.118310 -0.182030 
555 -0.041804 -0.383827 -0.061503 0.071417 -0.021659 -0.036936 0.203704 1.122207 -1.011781 -0.051515 
556 -0.001083 -0.373816 -0.107850 -0.033240 -0.002848 0.111286 0.177928 1.093941 -0.910623 0.037768 
557 -0.049419 0.318490 0.115187 -0.224350 0.048617 -0.200408 0.117643 0.814959 -0.779903 0.086329 
558 0.556793 0.502313 -0.151162 -0.767325 0.085358 0.644231 0.078913 0.390409 -0.520871 0.193724 
559 0.011945 -0.040572 0.300867 -0.441937 -0.116690 -0.315388 0.476725 0.992485 -0.484810 0.643832 
560 0.325803 0.041211 -0.358505 -0.435163 0.291277 0.276961 -0.031262 0.666795 -0.626854 0.079033 
563 0.172873 0.072230 0.515184 -0.245481 -0.048525 -0.082924 0.221296 0.941196 -0.557664 0.966893 
565 0.018560 0.182181 0.334452 -0.251323 -0.035134 -0.151803 0.047014 0.721021 -0.807429 0.144702 
566 -0.025360 0.498723 0.303932 -0.129205 -0.348218 -0.088825 0.502746 1.056392 -0.815003 0.029755 
567 0.535336 0.151786 -0.478566 -0.416943 -0.060605 0.509398 0.004201 0.283579 -0.956799 0.041255 
568 0.431387 -0.396922 -0.496398 -0.302638 -0.135308 0.269754 0.047035 0.595317 -1.091522 -0.032693 
569 0.617734 -0.083132 -0.188844 -0.247960 0.131352 0.599251 0.112006 0.544154 -0.712585 0.219193 
570 0.354912 0.004562 0.439012 -0.136086 -0.001955 -0.016047 0.357887 0.887386 -0.632630 0.881726 
572 0.452446 -0.319157 -0.553330 -0.486864 -0.114590 0.320994 -0.028866 0.560240 -1.146194 -0.142762 
573 0.685512 -0.321376 -0.306054 -0.294857 0.133412 0.550793 0.105464 0.622136 -0.641510 0.251117 
575 -0.027333 0.513570 0.081719 -0.435367 -0.067142 -0.181250 0.386561 0.817106 -0.680914 0.601106 
577 0.540418 -0.427000 -0.507238 -0.386191 -0.188086 0.374225 0.049702 0.663727 -1.263480 -0.044471 
578 0.531573 0.044339 0.133453 -0.456119 0.072693 0.098682 0.148194 1.043818 -0.170692 0.661018 
579 0.328919 -0.009125 -0.594961 -0.493231 -0.179317 0.221214 0.172824 0.403055 -1.017970 -0.058162 
580 0.827947 -0.194459 -0.324744 -0.676023 0.266658 0.345126 -0.133499 0.451603 -0.380715 0.297937 
581 0.593117 -0.245602 -0.532612 -0.496795 0.046225 0.140675 -0.135581 0.487535 -0.883458 0.007384 
582 0.394822 -0.231839 -0.418155 -0.437252 0.021367 0.170345 -0.323005 0.621544 -0.947714 -0.198943 
584 0.354660 0.075268 -0.446031 -0.789897 -0.116533 0.247472 0.121657 0.334033 -0.687868 -0.008041 
585 0.105711 -0.450645 0.095810 -0.084359 0.066556 0.127969 -0.203433 0.879544 -0.908602 -0.037740 
586 0.366285 -0.203166 0.386540 -0.230374 0.131294 0.003908 0.289391 1.041822 -0.470018 0.688465 
587 -0.205794 0.152821 0.213718 -0.346507 -0.046542 -0.428050 0.559247 0.812063 -0.791719 0.958367 
588 -0.067109 0.646816 -0.363424 -0.657721 -0.176093 0.170411 0.396501 0.366284 -0.756112 0.454885 
590 -0.091490 0.370258 -0.118672 -0.275506 -0.040828 -0.230626 0.319127 0.830673 -0.699381 0.172055 
591 0.308255 0.025671 -0.360420 -0.330108 -0.105313 0.141349 0.141431 0.437221 -0.950380 -0.003108 
592 0.410945 0.015888 0.000701 -0.088881 -0.074439 0.192207 0.159796 1.002538 -0.431205 0.239965 
593 0.319430 -0.259527 -0.575353 -0.453163 -0.174018 0.296247 -0.017793 0.594414 -0.975043 -0.032341 
594 0.616967 -0.126061 -0.482333 -0.662174 0.042005 0.306822 0.208886 0.591964 -0.463580 0.080698 
595 0.171742 0.367200 0.067577 -0.628763 0.021643 -0.189585 0.278214 0.988947 -0.295007 0.501286 
596 0.292082 -0.249848 0.395868 -0.255464 0.124223 0.064433 0.394980 1.136935 -0.444470 0.700534 
597 0.167365 -0.584595 -0.274983 -0.027509 -0.031402 0.050503 0.075034 1.070751 -0.798534 0.135819 
598 0.226083 0.410944 -0.324219 -0.572983 -0.208474 0.013968 0.172594 0.379970 -1.003903 -0.069340 
599 0.499045 0.512050 -0.249123 -0.408067 0.046637 0.341361 0.108498 0.307520 -0.674778 0.570593 
600 -0.079375 0.280917 0.047481 -0.199640 -0.182074 -0.067276 0.164791 0.852126 -0.676331 0.120905 
601 0.073364 0.310033 0.005661 -0.262357 -0.179058 -0.262949 0.259812 0.773296 -0.667305 0.496787 
602 0.571826 0.349687 -0.118547 -0.388562 0.177413 0.255081 0.173849 0.850366 -0.209983 0.806178 
603 0.207409 0.109440 0.242118 -0.127406 0.020845 -0.002701 0.101107 0.921936 -0.444442 0.661661 
604 -0.051334 -0.356196 -0.085555 0.054598 -0.021710 -0.018366 0.237794 1.126429 -1.093954 -0.132687 
605 0.533065 0.391791 -0.655212 -0.436160 0.161664 0.498420 -0.146632 0.395275 -0.751289 -0.054807 
606 0.498118 0.403476 -0.591475 -0.625778 0.075680 0.285977 0.034244 0.550406 -0.420699 0.136669 
607 0.358641 0.028508 -0.735242 -0.581797 -0.066907 0.314890 -0.086708 0.520060 -0.901693 -0.174493 
608 0.462003 0.843269 -0.570611 -0.614393 0.004349 0.308721 -0.065563 0.276062 -0.738941 0.307313 
609 0.680271 0.560235 -0.522479 -0.803988 0.066496 0.414576 -0.158049 0.430491 -0.415925 0.240613 
610 0.407607 -0.216205 -0.039592 -0.123840 0.033016 0.292394 0.081968 1.089491 -0.445765 0.212085 
611 0.706022 0.084635 -0.553129 -0.324858 0.314346 0.650871 -0.066247 0.514177 -0.721452 0.035363 
612 0.281689 0.100906 -0.774083 -0.560392 -0.031264 0.269043 -0.021250 0.555924 -0.993786 -0.107296 
613 0.860783 0.437310 -0.583797 -0.739667 0.153719 0.484458 -0.151178 0.550138 -0.306828 0.370516 
614 0.865450 0.013790 -0.270223 -0.421537 0.308936 0.506132 0.103713 0.491975 -0.429211 0.505979 
615 0.283017 0.561626 -0.124161 -0.739417 -0.081440 0.204618 0.162213 0.326478 -0.655234 0.393593 
616 0.103302 0.647888 -0.144011 -0.523517 -0.140255 0.084922 0.304998 0.305339 -0.817935 0.424989 
618 0.476425 -0.112389 -0.380803 -0.380895 -0.054863 0.230605 0.061371 0.540626 -1.132012 0.021682 
620 0.688807 0.117190 -0.523469 -0.410210 0.014277 0.569486 -0.034433 0.356534 -0.753398 0.215633 
621 0.169767 0.016916 0.022332 -0.259555 -0.100314 -0.296032 0.225606 0.871335 -0.565823 0.209062 
622 0.060202 -0.705488 0.053484 -0.066886 0.002473 -0.082112 0.250921 0.900552 -0.821953 0.149190 
623 0.021661 -0.417850 0.292498 -0.294902 0.039440 -0.304811 0.326236 0.969601 -0.667743 0.344200 
624 0.081845 0.631569 -0.414843 -0.523281 -0.177782 -0.077808 0.336297 0.347701 -0.943449 0.327951 
626 -0.115217 0.644156 0.172784 -0.322990 -0.025317 -0.159353 0.254440 0.926081 -0.800811 0.631905 
627 0.278761 -0.295145 0.375697 -0.210277 0.005396 0.055309 0.489460 1.041540 -0.458332 0.614590 
628 0.204533 0.018848 0.419480 -0.241926 0.009211 0.003180 0.422810 0.968825 -0.477534 0.836782 
629 0.254827 -0.222386 -0.352567 -0.249945 0.352512 0.333069 -0.171733 0.704154 -0.675249 -0.014332 
630 0.471278 -0.223736 -0.623540 -0.344687 -0.065434 0.208693 -0.007427 0.683521 -1.053161 -0.135249 
631 0.124218 -0.019539 0.321833 -0.250574 0.039280 0.019860 0.437248 0.964920 -0.400127 0.773180 
632 0.303076 -0.101761 0.527359 -0.180699 -0.068919 -0.032650 0.346521 1.001663 -0.602335 0.983334 
633 0.447229 -0.321398 0.335563 -0.451826 0.077428 0.160949 0.359252 1.143511 -0.277779 0.837737 
634 0.837313 0.061394 -0.246847 -0.710025 0.581347 0.413614 -0.241539 0.830870 -0.049483 0.713632 
635 0.349437 -0.115523 -0.332350 -0.284893 -0.004009 0.397435 0.019871 0.504266 -0.955985 -0.131879 
636 0.562945 -0.143484 -0.334355 -0.596337 -0.055665 0.239375 0.148397 0.432763 -0.569701 0.122823 
637 0.537912 -0.332211 -0.516505 -0.681879 0.107926 0.283143 -0.213424 0.402894 -0.849712 -0.036677 
638 0.982640 -0.037384 -0.507510 -0.819549 0.383268 0.231968 -0.069480 0.500443 -0.282918 0.429609 
639 0.597918 -0.335932 -0.549168 -0.519859 0.315766 0.197662 -0.237059 0.707838 -0.565315 0.034636 
640 0.615011 -0.402915 -0.615708 -0.612467 0.378500 0.169676 -0.293426 0.797244 -0.588979 -0.003780 
641 0.584159 -0.102462 -0.197463 -0.481430 0.238892 0.530875 -0.095278 0.786710 -0.351825 0.209099 
642 0.042152 -0.444091 0.140256 -0.206227 0.014295 -0.205186 0.432661 0.858403 -0.641870 0.352655 
643 0.527954 0.005102 -0.294210 -0.502823 -0.066574 0.384754 0.043816 0.366108 -0.671109 0.173341 
645 -0.118150 0.568568 0.372170 -0.363203 0.056830 -0.140358 0.577538 0.909668 -0.692389 0.486385 
646 -0.061742 0.595634 0.370817 -0.376207 -0.105009 -0.054389 0.524505 0.832727 -0.760108 0.453039 
647 -0.059143 0.539661 0.399340 -0.420723 -0.023808 -0.078770 0.495589 0.718710 -0.659176 0.358430 
648 -0.064694 0.610140 0.398603 -0.395746 0.007329 -0.101858 0.551034 0.860149 -0.768178 0.443801 
649 0.195779 0.304600 0.340857 -0.151418 0.080513 0.043431 0.356862 1.027469 -0.547079 0.646169 
650 0.403271 -0.117395 -0.310029 -0.445405 -0.012844 0.267680 0.131661 0.493404 -0.975489 0.062680 
653 0.772277 -0.290154 0.075980 -0.802062 0.491811 0.482039 0.397896 1.205587 -0.089039 1.144512 
655 -0.007536 0.369109 0.219525 -0.400232 -0.180260 -0.427981 0.432629 1.093251 -0.570288 0.417351 
656 0.186521 -0.161656 -0.125422 -0.136675 -0.094244 0.126646 0.084366 0.747873 -0.786523 -0.057020 
657 -0.025175 0.663068 -0.004931 -0.241915 -0.190181 -0.071505 0.411017 0.874139 -0.680989 0.628585 
658 0.089450 -0.442042 -0.139868 -0.041993 0.101555 0.058254 0.106510 0.992661 -0.856985 -0.059460 
659 0.090035 -0.316646 -0.038066 -0.229252 0.086510 0.010970 -0.003146 1.013714 -0.812726 0.006094 
661 -0.105096 0.698685 -0.037224 -0.423328 0.083573 -0.208607 0.395803 0.966837 -0.616638 0.565562 
662 0.458766 0.155689 -0.143068 -0.558890 0.009117 0.544036 0.240463 0.280960 -0.821718 0.023287 
664 0.120673 0.729863 -0.225759 -0.661956 -0.142847 -0.087826 0.332946 0.296475 -0.925142 0.407383 
665 0.335062 -0.525529 0.191440 0.021024 0.156325 0.171521 0.335419 0.992232 -0.709902 0.517632 
666 0.278308 -0.179719 -0.343962 -0.423809 -0.070808 0.217394 -0.085582 0.495840 -1.259758 -0.220704 
667 0.401281 -0.393795 -0.560568 -0.423467 -0.156230 0.411268 0.023884 0.642815 -0.953757 0.092691 
668 0.285277 0.319382 0.310609 0.047091 -0.014278 -0.024603 0.288022 1.042629 -0.624182 0.804414 
669 0.464811 0.289310 0.075073 -0.396355 0.021953 0.096163 0.103931 0.990072 -0.227842 0.568919 
670 -0.065097 0.433245 -0.024541 -0.427532 -0.091820 -0.130843 0.216148 0.908136 -0.624562 0.145307 
671 0.495529 -0.315361 0.376989 -0.334055 0.132076 0.194928 0.253039 0.965996 -0.269859 0.826016 
672 0.295244 0.177742 0.245044 -0.196288 0.016908 -0.032786 0.188823 0.988938 -0.326427 0.636514 
673 0.339372 -0.320133 0.075782 -0.035838 0.277514 0.414645 0.203478 0.713446 -0.593664 0.310927 
674 0.372355 -0.295604 -0.576233 -0.453308 -0.061081 0.336269 0.008111 0.605811 -1.119038 -0.094666 
675 0.586499 -0.111610 0.097237 -0.293119 0.063052 0.115029 0.241198 1.213830 -0.217350 0.588205 
677 0.025902 0.807774 -0.383440 -0.683486 -0.121385 -0.004651 0.492640 0.421032 -0.839825 0.404740 
678 0.153282 0.403809 0.201529 -0.557346 -0.165515 -0.133996 0.297438 1.006018 -0.326292 0.557689 
679 0.025540 0.751234 -0.373116 -0.640882 -0.160042 -0.026832 0.406285 0.399402 -0.804162 0.444363 
680 0.352601 -0.254397 -0.700912 -0.462511 -0.063289 0.365066 -0.002894 0.555549 -1.051549 0.037965 
681 0.348792 -0.109048 -0.412275 -0.461271 -0.104727 0.406263 -0.020508 0.507559 -1.004575 -0.097529 
682 0.276890 -0.181885 -0.380103 -0.400950 -0.134572 0.450565 -0.103557 0.499866 -1.081686 -0.054966 
683 0.705473 -0.179924 -0.405834 -0.815312 0.039514 0.035687 -0.180114 0.459554 -0.496579 0.023377 
684 0.332510 -0.156437 -0.021518 -0.201335 0.230587 0.073767 0.233973 0.934901 -0.272463 0.335076 
685 0.277574 -0.233416 -0.347131 -0.349082 -0.176786 0.270472 0.056343 0.575040 -0.955889 -0.143554 
686 0.494485 -0.087442 -0.090073 -0.297028 -0.051285 0.573876 0.013730 0.435079 -0.626824 0.211817 
687 0.202799 -0.114840 -0.485123 -0.336243 -0.081701 0.315023 -0.035401 0.693973 -1.063168 0.003385 
688 0.326390 -0.182689 -0.616472 -0.436635 -0.011460 0.335408 0.072764 0.483792 -1.037918 -0.001559 
690 0.216737 -0.022773 0.402036 -0.197846 0.044787 0.023169 0.419223 0.936747 -0.452882 0.881654 
691 0.653662 -0.066652 0.062580 -0.623295 0.085226 0.373961 -0.007316 0.472455 -0.444519 0.406912 
692 0.559467 0.076200 -0.218099 -0.698340 -0.048128 0.223890 0.077597 0.381904 -0.725239 0.010137 
693 0.160256 -0.301984 -0.423778 -0.199723 -0.328793 0.439329 0.219182 0.632997 -1.190765 -0.036169 
694 0.634630 0.139806 -0.372933 -0.457027 -0.036797 0.623851 -0.120989 0.433177 -0.923816 0.033109 
696 0.123864 0.464162 -0.187325 -0.704733 -0.350489 0.179426 0.139932 0.389633 -0.921437 0.016027 
697 -0.026236 0.558147 0.044228 -0.345785 -0.200706 -0.253594 0.536829 0.995926 -0.737050 0.646680 
698 0.350716 -0.002807 0.300022 -0.118954 -0.009606 0.138389 0.121651 1.075500 -0.399115 0.611468 
699 0.589247 -0.184499 -0.261274 -0.334068 0.188374 0.519415 0.051949 0.822470 -0.265182 0.386400 
700 0.748203 -0.094661 -0.443380 -0.468980 0.440442 0.401183 0.037575 0.632766 -0.350943 0.236484 
701 0.153484 0.827159 -0.311860 -0.717357 -0.095694 0.072665 0.400990 0.456984 -0.894616 0.504654 
702 0.432535 -0.362991 -0.225919 0.010967 0.071737 0.280192 -0.110683 1.047985 -0.617508 0.223243 
703 0.922234 0.058383 -0.682292 -0.300036 -0.010655 0.808308 -0.109782 0.643443 -1.030795 0.231384 
704 0.360551 -0.420568 -0.392973 -0.282118 0.363966 0.322358 0.010004 0.828394 -0.685078 0.018715 
705 0.523188 0.234863 -0.373545 -0.452655 0.141001 0.404399 -0.167510 0.338603 -0.821851 -0.051582 
706 0.345554 0.197935 -0.567706 -0.300533 -0.094595 0.545369 0.038921 0.429236 -1.160228 -0.044610 
707 0.633557 0.058295 0.027640 -0.374493 0.237879 0.171599 0.083902 1.032816 -0.179815 0.638658 
708 0.366104 -0.335764 -0.358846 -0.348562 -0.149027 0.238969 0.003473 0.549968 -1.025165 -0.118425 
709 0.464997 -0.241922 -0.632645 -0.428976 -0.144294 0.249275 0.026899 0.672679 -1.087491 -0.006261 
711 -0.129272 0.346394 0.023803 -0.140308 -0.324674 -0.247660 0.387550 0.897466 -0.853622 0.527050 
713 0.147837 0.570352 -0.332212 -0.647341 -0.152829 -0.022755 0.396286 0.335356 -0.730013 0.627935 
714 0.293543 0.792231 -0.252556 -0.660924 0.016103 0.088257 0.148662 0.245617 -0.852463 0.261882 
715 0.313122 -0.248453 0.288533 -0.184343 0.033561 0.003288 0.253092 1.073246 -0.459468 0.728862 
716 0.304632 0.626818 -0.410636 -0.645244 -0.200477 0.250024 0.067593 0.264782 -0.777401 0.514284 
717 -0.080754 0.646767 0.254151 -0.414078 0.011157 -0.110506 0.558191 1.038675 -0.658034 0.602942 
718 0.377303 -0.394733 0.501582 -0.254266 0.013642 0.028704 0.339772 1.145693 -0.479840 0.691039 
719 0.006268 -0.392295 -0.122302 -0.075336 -0.125114 0.049088 0.179712 0.917286 -1.039394 -0.089666 
720 0.248581 -0.110419 -0.338152 -0.399111 0.024670 0.212433 -0.261971 0.531250 -1.065619 -0.114959 
721 0.186996 -0.193766 -0.302612 -0.377583 -0.196119 0.189518 0.298586 0.499135 -1.089628 0.035847 
723 0.180785 -0.260699 -0.383527 -0.375151 -0.103883 0.325116 0.127523 0.482032 -1.176888 -0.019649 
724 0.164134 -0.304320 -0.425970 -0.282937 -0.170976 0.380609 0.203891 0.486934 -1.205335 -0.097921 
726 0.182757 -0.241589 -0.460406 -0.289684 -0.326705 0.244550 0.282661 0.575047 -1.197444 -0.047522 
727 0.277034 0.550480 -0.399907 -0.867779 -0.109303 0.102152 0.336389 0.441095 -0.543813 0.383736 
728 -0.098835 0.512082 0.185140 -0.338277 -0.071811 -0.254233 0.494521 1.017696 -0.705337 0.623739 
729 0.187782 -0.045159 -0.446230 -0.285684 0.052324 0.356366 -0.131495 0.606197 -1.005988 -0.102887 
730 0.485900 0.220802 -0.333803 -0.270553 0.126512 0.623273 -0.144470 0.427938 -0.785695 0.083261 
731 -0.012753 0.752777 -0.236047 -0.643472 -0.027727 0.007070 0.387211 0.404716 -0.946622 0.524669 
733 0.457577 -0.381790 0.056820 -0.205197 0.033974 0.408908 0.318907 1.282052 -0.368023 0.325370 
735 0.092739 0.650954 -0.351815 -0.442453 0.007424 0.118338 0.212904 0.711571 -0.652755 0.329468 
736 0.526469 0.386829 -0.686481 -0.482085 0.047787 0.489822 -0.100233 0.425291 -0.749651 -0.073995 
737 0.131052 0.624702 -0.607935 -0.725777 -0.051429 0.045177 0.129126 0.382320 -0.871151 -0.046353 
738 0.616522 0.505417 -0.489449 -0.847105 0.230802 0.551726 0.020105 0.397005 -0.449152 0.331566 
739 0.340816 -0.018779 -0.771459 -0.545621 -0.008165 0.297578 0.031247 0.561715 -0.951884 -0.256899 
740 0.206894 0.716215 -0.349759 -0.468861 -0.292961 0.327536 0.055139 0.235466 -1.086027 0.034846 
741 0.122329 -0.570019 -0.145856 -0.097618 0.016140 -0.012100 0.193703 0.963185 -0.892815 -0.007272 
742 0.176072 -0.308502 -0.400981 -0.312351 -0.299419 0.360532 0.164196 0.520072 -1.340963 -0.066195 
743 0.206697 -0.531454 -0.201561 -0.051940 0.023417 0.146699 0.041538 1.060147 -0.814963 0.112903 
744 0.295729 -0.184020 -0.518660 -0.488990 -0.186933 0.307788 0.054318 0.450932 -1.002066 -0.121033 
745 0.542717 0.431360 0.053958 -0.299839 0.042678 0.063649 0.169984 0.949593 -0.359531 0.911259 
746 0.148030 -0.492553 -0.115801 -0.064647 0.026139 0.154399 0.021557 1.001778 -0.798784 0.001912 
747 0.757768 -0.014891 -0.106259 -0.515014 0.390074 0.475559 0.062437 0.944103 -0.106372 0.598056 
748 0.387079 0.236083 -0.527912 -0.242462 -0.138081 0.452360 -0.023602 0.382889 -1.096691 -0.042798 
749 0.133103 -0.363025 -0.482369 -0.243497 -0.294538 0.430685 0.215168 0.665374 -1.243845 -0.021018 
751 0.084400 0.089654 0.322085 -0.307206 0.015850 -0.302213 0.696818 0.923225 -0.625233 0.647170 
752 0.800331 -0.352033 -0.288748 -0.576593 -0.079630 0.483665 0.181456 0.508900 -0.934721 0.279494 
753 0.333259 0.139588 0.431191 0.050835 -0.319162 -0.268521 0.517451 1.217363 -0.895052 1.107655 
754 0.279063 -0.179992 -0.457928 -0.392457 -0.042201 0.371335 0.176486 0.546786 -1.040652 0.091909 
755 0.387969 -0.251699 -0.434418 -0.424684 -0.120962 0.210752 0.189239 0.494807 -1.011968 -0.053406 
756 0.305078 0.542996 -0.411317 -0.492694 -0.065703 0.338035 0.079232 0.200620 -0.757369 0.457510 
757 0.088548 -0.650909 0.067277 -0.117870 0.035013 -0.032179 0.325846 0.914150 -0.868313 0.161933 
758 0.555932 0.090830 0.136612 -0.550189 0.270122 0.219844 -0.036983 1.062995 -0.212418 0.648434 
759 0.470018 0.678912 -0.396755 -0.624168 -0.092237 0.347281 0.134734 0.226128 -0.817183 0.423404 
760 0.202825 0.382645 -0.185482 -0.739461 0.041970 -0.062308 0.383670 0.382242 -0.747328 0.342520 
761 0.349407 -0.343097 -0.490333 -0.437920 -0.136365 0.399053 0.080331 0.528171 -1.098039 0.020921 
762 0.516521 -0.195461 -0.086750 -0.181595 0.090264 0.393594 0.123555 1.114497 -0.347586 0.598512 
763 0.137644 -0.173482 -0.154144 -0.071932 0.076897 0.111875 0.105783 0.903127 -0.722793 -0.018973 
764 0.234968 0.577985 -0.147772 -0.622644 -0.086246 -0.047622 0.304636 0.333604 -0.853617 0.255629 
765 0.406176 -0.464389 -0.482821 -0.385976 -0.124730 0.343544 0.049883 0.571204 -1.195648 -0.022939 
766 -0.392436 0.389303 0.102917 -0.228835 -0.263932 -0.260610 0.400184 0.987572 -0.810030 0.652247 
767 0.467710 -0.231929 -0.409594 -0.521430 -0.072186 0.132880 0.346268 0.440638 -0.669437 0.128363 
768 0.770549 0.032334 -0.196451 -0.162755 -0.014510 0.772943 -0.066066 0.498117 -0.730024 0.343380 
769 0.324081 0.008323 -0.359694 -0.317548 -0.090101 0.339467 0.080429 0.469039 -1.019863 0.030261 
770 0.380486 0.252068 -0.185870 -0.353750 0.057133 0.203896 0.162950 0.338461 -0.632528 0.575553 
771 -0.068532 0.710894 -0.055238 -0.297525 -0.022564 -0.147135 0.223710 0.903966 -0.635816 0.566200 
772 0.744617 -0.203525 -0.439007 -0.806365 0.081648 0.126457 -0.193423 0.458723 -0.482956 0.195422 
773 0.725926 -0.310858 -0.287511 -0.452264 0.519851 0.488677 -0.271452 0.791507 -0.327588 0.321448 
774 0.253920 -0.135548 0.317146 0.032496 -0.061834 0.131464 0.171311 1.242148 -0.467799 0.553615 
775 0.665633 0.137431 -0.236831 -0.161309 -0.025457 0.645569 -0.048717 0.465479 -0.723601 0.290737 
777 -0.064422 0.178153 0.187455 -0.235971 -0.286285 -0.278450 0.379010 1.158066 -0.616536 0.424537 
778 0.078025 0.248246 -0.362275 -0.589105 -0.299508 -0.076379 0.181762 0.363349 -0.882908 0.140198 
780 0.338152 -0.259226 -0.590841 -0.546341 -0.064082 0.387067 -0.031737 0.519879 -1.070050 -0.178290 
781 0.383993 -0.046010 -0.548405 -0.511348 -0.232203 0.233099 0.168111 0.503032 -1.048867 -0.056346 
782 0.295634 0.120321 -0.573468 -0.334078 -0.307798 0.597818 -0.043107 0.464690 -1.077078 -0.027228 
783 -0.023664 -0.486564 -0.012917 -0.042325 -0.165354 0.168561 0.131816 1.172567 -0.981310 -0.143767 
784 0.652103 0.087941 -0.278876 -0.510194 0.078238 0.470450 -0.057800 0.377212 -0.497460 0.441473 
785 0.536997 -0.181453 -0.409014 -0.308833 0.004352 0.477945 0.091481 0.589723 -0.706271 0.157305 
786 0.306695 0.624464 -0.224332 -0.444908 -0.301029 0.190342 0.063420 0.290092 -0.952723 -0.032794 
788 0.261053 -0.103847 0.162101 0.089159 -0.064622 0.046813 0.144312 1.133880 -0.530650 0.451500 
789 0.155295 -0.260861 -0.503370 -0.213212 -0.317252 0.283063 0.316219 0.626018 -1.262670 -0.010185 
790 0.477533 0.190745 -0.380581 -0.326806 0.097494 0.481105 -0.216008 0.360328 -0.792090 0.002353 
791 0.326862 0.347772 -0.267039 -0.414260 -0.043082 0.326045 0.075283 0.366092 -0.533875 0.495781 
792 0.282862 0.677864 -0.281236 -0.399919 -0.423115 0.080462 -0.071834 0.303390 -1.193320 0.111962 
793 0.084978 -0.341578 -0.405559 -0.268849 -0.332120 0.322086 0.193163 0.613710 -1.184746 -0.129673 
794 0.398459 -0.303237 -0.509506 -0.506145 -0.175922 0.356021 -0.086662 0.642097 -0.952862 -0.081377 
795 0.401573 0.116662 -0.527951 -0.297548 -0.294212 0.558577 -0.085578 0.561698 -1.098728 -0.052348 
796 0.688091 -0.052029 -0.290808 -0.415404 0.173373 0.343148 0.012664 0.430307 -0.581948 0.386896 
797 0.318512 0.633520 -0.210124 -0.158648 0.074546 0.258574 0.055638 0.622423 -0.483150 0.452561 
798 0.271357 -0.143739 -0.609323 -0.422204 -0.215587 0.370939 0.036733 0.565896 -1.041952 0.044369 
799 0.116555 -0.373632 -0.426246 -0.192397 -0.295479 0.352826 0.173299 0.630574 -1.307557 -0.075272 
800 0.662689 -0.197292 -0.442873 -0.327945 -0.022278 0.539741 -0.109563 0.582195 -0.764224 0.203426 
801 0.403592 0.400774 -0.122650 -0.066252 -0.031462 0.128803 0.197671 0.842863 -0.416670 0.655726 
802 0.157409 0.930428 -0.391049 -0.466249 -0.229252 0.137837 0.271551 0.352768 -1.062409 0.473469 
803 0.891928 0.315434 -0.023188 -0.763553 0.369519 0.420473 -0.029435 0.449434 -0.287310 0.396387 
804 0.484647 -0.278333 -0.586837 -0.439946 -0.076184 0.283006 0.045986 0.618718 -1.061119 -0.100579 
805 0.431275 0.693521 -0.120213 -0.477672 0.178562 0.253192 0.176424 0.628815 -0.252078 0.694948 
806 0.209665 -0.353440 -0.374494 -0.235586 -0.177375 0.323470 0.228624 0.559812 -1.221419 -0.127961 
808 0.302430 -0.284330 -0.675244 -0.483646 -0.040399 0.421218 -0.021337 0.521583 -1.100569 -0.152376 
811 -0.007925 -0.037536 0.335793 -0.420751 -0.013152 -0.376160 0.458937 0.993326 -0.581697 0.602796 
812 0.576472 -0.279690 -0.831623 -0.432033 -0.212612 0.432481 -0.049946 0.775967 -1.368142 -0.017592 
813 0.239296 0.509498 -0.282426 -0.514859 -0.354181 0.142189 -0.056944 0.234847 -1.039730 0.181069 
814 -0.216633 0.157924 0.191821 -0.269567 -0.303688 -0.187245 0.442094 1.003317 -0.714050 0.188665 
815 -0.176695 0.447361 0.088509 -0.268418 -0.290199 -0.293234 0.309489 0.934008 -0.801959 0.515742 
816 -0.040855 -0.327255 -0.052712 0.003018 -0.051324 0.121800 0.127823 1.073995 -0.950605 0.064710 
817 0.191172 0.552698 -0.574009 -0.704921 -0.083519 0.056273 0.060267 0.310170 -0.888669 -0.078361 
818 0.391358 -0.184051 -0.531722 -0.296143 -0.211390 0.388106 0.004430 0.539003 -1.084041 -0.176211 
819 0.784474 0.100465 -0.398041 -0.644289 0.158373 0.553514 -0.091214 0.456485 -0.468256 0.545311 
820 0.047406 0.791555 0.021555 -0.687365 -0.087617 0.208686 0.575760 0.400705 -0.906634 0.440581 
821 0.242977 0.002868 0.462590 -0.164012 0.109702 0.057281 0.263510 1.008521 -0.595946 0.962378 
822 0.347506 0.187254 -0.386547 -0.177142 0.153302 0.412361 -0.156772 0.709087 -0.468921 -0.019283 
823 0.709264 0.130299 -0.588571 -0.305911 0.174911 0.500609 -0.078019 0.510449 -0.604211 0.054504 
824 0.600248 0.313609 -0.697433 -0.634333 0.028104 0.582314 -0.121457 0.543850 -0.731284 -0.003831 
825 0.104463 0.549407 -0.615268 -0.708852 0.020874 0.069823 0.070170 0.420298 -0.850354 -0.067559 
826 0.594917 0.577285 -0.629647 -0.865296 0.337924 0.425606 -0.099565 0.676673 -0.126749 0.297610 
827 0.438607 0.252923 -0.382003 -0.629624 -0.058344 0.341496 0.050792 0.363002 -0.655213 0.267580 
828 0.486897 0.284934 -0.659810 -0.610002 0.016955 0.492559 -0.073603 0.503962 -0.733725 -0.010020 
829 0.258070 -0.039144 -0.113769 -0.589571 -0.060061 0.048905 0.203118 0.374516 -0.856219 0.012838 
830 0.203968 0.214315 -0.070621 -0.602665 -0.191759 0.166116 0.177734 0.367987 -0.869029 -0.089432 
831 -0.030281 0.403147 -0.052706 -0.401765 -0.107790 -0.299130 0.365061 0.946641 -0.623242 0.589708 
832 0.174174 -0.113394 0.176033 -0.126642 -0.004938 -0.080079 0.255513 0.908651 -0.627169 -0.032551 
833 -0.057216 0.611205 0.199503 -0.363258 -0.067771 -0.155513 0.481922 0.965593 -0.681161 0.543001 
834 -0.046468 0.553905 0.087927 -0.351376 -0.298388 -0.160379 0.519382 1.014020 -0.766718 0.722195 
835 0.071931 0.584581 0.254732 -0.432249 -0.099467 -0.164773 0.462589 0.933191 -0.676425 0.597677 
836 0.226172 0.519613 -0.105173 -0.346588 0.168064 0.286329 0.275235 0.650800 -0.392903 0.622966 
838 0.265441 -0.612698 0.339864 -0.068508 0.090624 0.289776 0.181016 1.097763 -0.618333 0.436890 
839 0.104379 0.070465 0.356510 -0.375694 0.015993 -0.210634 0.531560 0.958586 -0.462785 0.499404 
840 0.047451 0.815195 -0.206778 -0.626667 0.003251 0.128319 0.133560 0.296802 -1.030352 0.203434 
841 0.322305 -0.208781 -0.385722 -0.495082 0.197185 0.068175 -0.076652 0.437619 -1.234715 -0.084992 
842 0.159060 0.162152 -0.334679 -0.594796 -0.272911 0.071182 0.072613 0.313236 -0.919792 -0.028351 
843 0.137289 0.663703 0.121855 -0.537086 0.056953 0.023553 0.530226 0.795946 -0.528578 0.581730 
844 -0.052925 0.507084 0.081265 -0.288907 -0.201100 -0.270708 0.477191 0.978299 -0.779581 0.660566 
845 0.028742 0.700269 -0.187548 -0.549914 -0.157188 0.079561 0.330825 0.346230 -0.878869 0.486892 
846 0.577561 0.188906 0.081589 -0.610181 0.400299 0.400351 0.081411 0.676977 -0.181744 0.641671 
847 0.440273 -0.167658 0.277054 -0.467509 0.126262 -0.027073 0.104397 0.834062 -0.364857 0.072015 
848 0.026626 0.804103 -0.167261 -0.613169 -0.120598 0.167558 0.244915 0.288806 -1.045455 0.545911 
849 0.095911 0.664744 -0.155151 -0.536512 -0.150305 0.058534 0.298805 0.283221 -0.941250 0.440755 
850 -0.085141 0.475002 0.028324 -0.324131 -0.173358 -0.229401 0.440984 0.988832 -0.753363 0.641648 
851 0.053370 0.590319 0.178667 -0.399682 -0.199037 -0.146079 0.484826 0.964885 -0.640107 0.551785 
853 0.362040 -0.254715 0.216926 -0.122390 -0.002185 0.299271 -0.054669 1.128486 -0.598626 0.277796 
854 0.180616 0.528183 -0.600703 -0.582871 -0.134203 -0.012903 0.137986 0.421339 -0.944401 -0.106434 
855 0.270097 -0.132072 -0.496238 -0.426265 -0.122794 0.383106 0.059382 0.485481 -1.035123 -0.117004 
856 0.116813 0.753736 0.107614 -0.582143 0.158799 0.087280 0.465679 0.643390 -0.496138 0.609405 
857 0.238195 -0.017536 -0.233278 -0.227974 -0.191977 0.410197 0.128830 0.519222 -1.101269 0.008636 
858 0.321338 0.448940 0.327107 -0.314197 0.027008 0.125873 0.217738 0.928084 -0.452574 0.931335 
859 0.309225 -0.168410 -0.352329 -0.319717 0.243106 0.162381 0.025592 0.696004 -0.825121 -0.146475 
860 -0.135583 0.464332 0.176047 -0.338750 -0.229105 -0.223036 0.439391 0.955061 -0.770756 0.796098 
861 0.345555 -0.545919 0.273247 -0.049704 0.098079 0.253125 0.206151 1.036254 -0.679984 0.408548 
862 0.041045 0.137062 -0.293190 -0.290114 -0.157911 -0.162624 0.100931 0.812879 -0.619273 0.054730 
865 -0.029884 0.606452 -0.031056 -0.183103 -0.178254 0.027801 0.156549 0.738208 -0.770963 0.137570 
866 0.426402 -0.132791 -0.576843 -0.402528 0.068622 0.318971 0.028983 0.551384 -1.126236 -0.048906 
867 -0.147620 0.481640 0.233685 -0.372594 -0.044231 -0.270715 0.456008 1.054838 -0.780819 0.653994 
868 0.342963 0.360825 -0.387807 -0.713259 -0.135053 0.039834 0.113801 0.343627 -0.610902 0.218710 
869 0.373943 -0.045487 -0.460811 -0.212295 -0.052666 0.310978 -0.067480 0.567778 -0.963168 -0.135206 
870 0.180881 -0.073278 -0.178933 -0.146298 -0.143836 0.481277 0.135229 0.525449 -1.171379 -0.034683 
872 0.673541 0.033264 -0.398597 -0.306621 0.014689 0.687336 -0.135750 0.479657 -0.702982 0.290466 
873 0.384763 -0.224420 -0.479334 -0.352467 -0.140360 0.139740 0.211407 0.545667 -1.054985 -0.047990 
874 0.364257 0.590485 -0.267324 -0.888272 -0.039269 0.064660 0.315243 0.371700 -0.568581 0.302171 
875 0.296292 0.204193 0.202081 -0.236282 0.035035 0.030618 0.035058 0.829757 -0.482115 0.614981 
876 0.185418 -0.106025 0.136927 -0.215397 0.114495 0.096418 0.125153 0.924109 -0.409728 0.379188 
877 0.442252 0.118533 0.061086 -0.460632 0.299513 0.311968 0.192432 0.937202 -0.194876 0.755136 
878 0.561864 -0.202821 0.006218 -0.222057 -0.013069 0.203983 0.023774 1.017186 -0.284303 0.662164 
880 0.107416 0.478602 -0.325991 -0.336645 -0.301072 -0.001225 0.183379 0.702748 -0.909776 0.019388 
881 0.069571 0.609209 0.223670 -0.392101 -0.205209 -0.175980 0.489828 0.905240 -0.615701 0.525663 
882 0.309085 0.675614 -0.330494 -0.447017 -0.377740 0.242314 0.026301 0.419194 -0.997754 -0.077873 
884 -0.005873 0.557181 0.218113 -0.322825 -0.085091 -0.157530 0.557036 0.910847 -0.634632 0.501160 
885 -0.007009 0.603852 0.248959 -0.362642 0.009493 -0.143471 0.515741 1.069740 -0.599062 0.667055 
886 0.047666 0.594005 0.281442 -0.366916 -0.081902 -0.155637 0.455816 1.011777 -0.672625 0.610869 
887 -0.170817 0.461599 0.278029 -0.314040 -0.053831 -0.084807 0.405878 0.856191 -0.692614 0.536004 
888 0.692098 -0.084012 0.026410 -0.445212 0.335158 0.134560 0.030426 0.929217 -0.153295 0.521006 
889 -0.117175 0.598260 -0.199566 -0.312799 -0.192092 -0.203274 0.198861 0.873785 -0.719578 0.663367 
890 -0.158952 0.394144 -0.273021 -0.442204 -0.374170 0.065655 0.487017 0.328184 -1.061621 0.466758 
891 -0.095431 0.548513 0.086197 -0.308964 -0.267955 -0.349088 0.523756 1.056440 -0.806628 0.810781 
892 0.255862 -0.307398 0.379910 -0.328880 -0.019737 0.027418 0.460661 1.058336 -0.379329 0.622916 
893 0.008233 0.565662 0.010774 -0.549278 -0.184446 -0.154592 0.525636 0.807172 -0.513342 0.689639 
894 0.798622 -0.223684 -0.372423 -0.529815 0.212635 0.450242 -0.245880 0.533079 -0.523353 0.294039 
895 0.830524 -0.196924 -0.354137 -0.683367 0.330004 0.343558 -0.176357 0.499457 -0.365582 0.333721 
896 0.621381 -0.416376 -0.592419 -0.637516 -0.001147 0.287353 -0.227450 0.589957 -0.853839 -0.052178 
897 0.762578 -0.204401 -0.277539 -0.462367 0.218373 0.484198 -0.183590 0.488295 -0.623927 0.291189 
898 0.495637 -0.335828 -0.545330 -0.337171 -0.025680 0.310518 0.180686 0.634646 -0.975040 0.072019 
899 -0.003855 0.242144 0.361440 -0.243143 -0.051640 -0.036597 0.416570 0.760351 -0.718063 0.106308 
900 0.243513 -0.111557 -0.319330 -0.487560 0.031942 0.311731 0.061609 0.419725 -1.088538 -0.098394 
901 0.511216 -0.073854 -0.193147 -0.286422 0.103981 0.458762 -0.036613 0.478477 -0.728944 0.164765 
902 0.397193 0.576832 -0.092488 -0.936008 -0.088763 0.038223 0.407599 0.299803 -0.600264 0.367409 
903 0.525161 0.007724 0.132581 -0.389530 0.128208 0.150196 0.053313 1.042079 -0.224238 0.612238 
904 -0.287655 0.458753 0.078793 -0.182322 -0.454008 -0.219017 0.309910 0.981013 -0.893977 0.593085 
905 0.372826 -0.127026 -0.520744 -0.478932 0.079716 0.254524 0.008570 0.427843 -1.110023 -0.022622 
906 0.383306 0.779493 -0.234609 -0.789456 -0.143973 0.285974 0.046607 0.271218 -0.678105 0.316878 
907 0.035508 0.554934 -0.004111 -0.408868 -0.077641 -0.149931 0.425092 0.805674 -0.599240 0.648482 
908 0.647274 -0.008600 -0.251230 -0.313445 0.111334 0.628082 -0.019868 0.439305 -0.793507 0.228606 
909 0.297416 0.375920 0.012618 -0.116634 0.059643 0.140505 0.087393 0.979732 -0.489532 0.698135 
910 0.510827 -0.109721 -0.298823 -0.397189 -0.015870 0.567860 0.113810 0.514272 -0.568783 0.261060 
911 0.203424 -0.002915 -0.370514 -0.298161 0.145652 0.290552 -0.069559 0.404469 -1.124199 -0.109118 
913 0.250899 -0.267208 -0.391288 -0.208774 -0.261677 0.327050 0.230134 0.549454 -1.278495 -0.066396 
914 0.117287 -0.338128 -0.374836 -0.217635 -0.343315 0.341073 0.216039 0.563433 -1.201107 -0.037472 
915 0.161043 0.527582 -0.150655 -0.578498 0.172519 -0.147843 0.281172 0.687380 -0.427712 0.645395 
916 0.145765 0.907263 -0.259451 -0.442018 -0.186364 0.107634 0.254695 0.338912 -0.982884 0.458617 
917 0.608302 0.489514 0.062080 -0.689171 0.073821 0.621562 0.360153 0.362910 -0.364669 0.617943 
918 0.000642 0.692901 0.278416 -0.371087 -0.036426 -0.142415 0.671333 1.088541 -0.590543 0.646559 
919 0.070854 0.695240 0.187727 -0.351778 -0.210030 -0.147645 0.662489 0.946307 -0.712923 0.625261 
920 0.558312 0.237284 -0.628554 -0.568030 -0.044237 0.478581 -0.080036 0.417324 -0.730790 -0.039817 
921 0.083057 -0.417444 -0.322201 -0.211376 0.156045 0.028908 -0.036859 1.011381 -0.834385 0.046780 
922 -0.118603 -0.126674 0.286409 -0.240515 -0.054375 -0.329007 0.417134 0.876260 -0.658700 0.310125 
923 -0.196058 0.481907 0.370147 -0.262364 -0.044097 -0.088778 0.407034 0.812149 -0.791276 0.522531 
924 0.656037 -0.281278 -0.000826 -0.316876 0.147602 0.271608 -0.041365 0.950248 -0.314107 0.411169 
925 0.094424 -0.475654 -0.125603 -0.204917 0.125552 0.152344 0.111992 1.159914 -0.724125 0.040913 
926 0.712554 0.063860 -0.220524 -0.564097 0.422914 0.437067 0.125426 0.924704 -0.071940 0.713977 
927 0.450918 -0.305489 0.424060 -0.177108 0.135912 0.124581 0.326251 1.112475 -0.432097 0.720329 
928 0.268871 0.305475 -0.258560 -0.394058 -0.173131 -0.145557 0.111013 0.593696 -0.624777 -0.010985 
929 0.760325 -0.158072 -0.249170 -0.395717 0.058969 0.682420 0.060018 0.532000 -0.651621 0.356755 
930 0.247372 0.607144 -0.310836 -0.399980 -0.219488 0.204342 0.023072 0.254933 -1.097369 0.098753 
931 0.154865 0.441625 -0.248787 -0.604626 -0.174833 0.054819 0.340798 0.388077 -0.903947 -0.069573 
932 0.632732 0.485685 -0.327672 -0.526283 0.015781 0.343400 0.306861 0.413181 -0.381945 0.497562 
933 0.376924 -0.233509 -0.502579 -0.317847 0.093062 0.184563 -0.050083 0.693795 -0.683189 0.030851 
934 0.304640 -0.213186 -0.193595 -0.133871 0.171874 0.473990 -0.033968 0.919946 -0.571642 0.069525 
935 0.511861 -0.127800 0.101231 -0.261070 0.097531 0.019169 0.185886 1.256405 -0.221170 0.589881 
936 0.350597 -0.318674 -0.542554 -0.453486 -0.186339 0.313367 0.060724 0.647293 -0.976618 -0.110410 
937 0.029286 -0.479903 0.150563 -0.155864 0.115668 -0.256474 0.397825 0.971998 -0.772028 0.220693 
938 0.202174 -0.738689 -0.002631 0.127137 0.146441 0.536660 0.453762 0.897525 -1.196268 0.332715 
939 0.341696 -0.205389 -0.381978 -0.332444 -0.064314 0.239991 0.116599 0.525888 -0.979696 0.022365 
942 0.333676 0.290904 0.109569 -0.618840 0.011490 -0.277363 0.233644 1.034208 -0.263950 0.454136 
943 0.603091 0.153737 0.051807 -0.583762 0.159811 0.321001 0.234542 0.873927 -0.119492 0.788418 
944 0.467788 -0.327456 -0.468649 -0.469172 -0.139236 0.348738 0.133646 0.589742 -0.801225 0.007788 
945 0.332069 -0.082314 0.342577 0.033140 0.039688 0.109018 0.116257 1.116295 -0.528592 0.457541 
947 0.454918 -0.230621 -0.648913 -0.391294 -0.013290 0.213977 0.105002 0.468169 -1.137789 -0.048315 
948 0.361961 0.060776 -0.821589 -0.540556 -0.042855 0.159746 0.057575 0.527034 -0.950269 -0.246430 
949 0.198662 0.223263 0.073503 -0.461046 -0.077479 -0.374333 0.444265 1.087300 -0.478251 0.522809 
950 0.424114 0.203170 -0.544998 -0.300821 -0.074546 0.462237 -0.025406 0.434889 -1.149833 -0.099204 
952 0.343090 -0.079988 -0.415198 -0.287977 -0.068661 0.394321 -0.047262 0.604278 -0.993698 -0.165524 
953 0.377616 -0.096577 -0.429364 -0.335513 -0.132426 0.515229 -0.117946 0.616605 -1.146774 -0.213297 
954 0.640619 0.035106 -0.080675 -0.531093 0.063496 0.396349 0.116404 0.468534 -0.363188 0.380076 
955 0.000842 0.624407 0.211954 -0.330366 -0.059443 -0.155438 0.564834 1.014567 -0.677928 0.616516 
956 0.306151 -0.265691 -0.707478 -0.567925 0.055374 0.250656 0.152227 0.849990 -0.990649 -0.011594 
958 0.396394 0.231805 -0.463264 -0.311986 -0.251584 0.467859 0.026142 0.436676 -1.105390 -0.014415 
959 0.111859 -0.256831 -0.098411 -0.139369 0.006624 0.123104 0.301208 0.953254 -0.688982 -0.009883 
960 -0.007931 0.610539 0.233322 -0.372509 -0.023719 -0.107090 0.529929 1.012418 -0.662734 0.618267 
961 0.222344 0.193760 -0.448259 -0.524793 -0.193440 -0.002299 0.076589 0.385065 -0.873744 -0.027124 
962 0.383585 -0.344303 -0.653897 -0.513494 -0.096135 0.334683 -0.065682 0.557871 -1.165297 -0.086336 
963 0.467784 -0.309996 -0.096380 -0.237348 0.181587 0.447009 -0.125030 0.515232 -0.890327 0.171442 
964 0.391742 0.528095 -0.403296 -0.703878 -0.200161 0.370463 0.107620 0.219797 -0.834074 0.386561 
966 0.054633 -0.361312 -0.240655 -0.138246 0.109661 0.156799 -0.008949 0.918074 -0.765187 -0.034506 
967 -0.198933 0.423994 -0.202707 -0.334089 -0.471807 0.049537 0.399457 0.503341 -1.030739 0.396554 
968 -0.092090 0.461591 -0.182676 -0.359893 -0.226718 -0.069531 0.319617 0.253099 -1.048782 0.379580 
969 0.255945 0.472441 0.083945 -0.660339 0.039833 -0.148479 0.331587 0.918644 -0.314200 0.467358 
970 0.586305 -0.045749 -0.366625 -0.154476 0.136613 0.673446 -0.005322 0.504733 -0.856352 0.168142 
971 -0.202813 0.416831 0.042946 -0.136483 -0.368046 -0.272497 0.377735 0.904014 -0.828979 0.583677 
972 0.326817 -0.013956 0.069726 -0.227989 0.003177 0.272126 0.134240 1.119290 -0.272730 0.626547 
973 -0.099433 0.402941 0.033130 -0.214297 -0.193148 -0.263116 0.280717 0.885076 -0.795302 0.480344 
974 -0.027959 0.644970 0.259560 -0.264958 -0.043466 -0.125317 0.613138 1.146520 -0.694459 0.624908 
975 -0.235514 0.395447 -0.282957 -0.477401 -0.333008 -0.008723 0.325945 0.382887 -0.978208 0.436237 
976 0.642481 0.147409 -0.528711 -0.312349 0.126285 0.554703 -0.095415 0.521970 -0.630221 0.043950 
977 0.491017 0.402473 -0.438509 -0.609306 0.253758 0.497895 0.096697 0.356838 -0.424192 0.269525 
978 0.524592 0.226924 -0.627879 -0.474084 0.030050 0.517341 -0.041752 0.473126 -0.768199 0.042524 
979 0.474873 0.371061 -0.670647 -0.469326 0.063665 0.626779 -0.178804 0.438252 -0.799103 -0.043272 
980 0.666130 0.307364 -0.607543 -0.558027 -0.025727 0.606534 -0.097507 0.457357 -0.764649 0.058446 
981 0.462243 0.329012 -0.302010 -0.501952 0.284152 0.435118 0.317719 0.562813 -0.239680 0.179722 
982 0.686958 0.405543 -0.747545 -0.610415 0.068143 0.550813 -0.022394 0.361176 -0.728078 0.083004 
983 0.681135 0.406252 -0.704987 -0.533535 -0.006710 0.532693 -0.118472 0.489934 -0.716029 -0.110928 
984 0.546929 0.160659 -0.599859 -0.470100 0.116662 0.539528 -0.139068 0.445462 -0.616044 0.117314 
985 0.535230 0.194188 -0.559613 -0.509834 0.038071 0.651975 -0.128962 0.491316 -0.610667 0.149302 
986 0.724923 0.277254 -0.726532 -0.543481 0.210455 0.567725 -0.077285 0.445178 -0.624327 0.274110 
987 0.465502 -0.412045 0.023771 -0.121977 0.028929 0.304494 0.065538 1.134614 -0.470183 0.367758 
