1022 10
1 -3.257106 -0.964279 -0.313460 1.179831 2.183144 1.018754 0.796425 0.635204 0.726590 0.923802 
863 -0.230945 0.650716 0.111438 0.472194 0.254284 0.651022 0.143344 0.388610 1.073751 0.715852 
1007 -1.080973 1.682187 -1.311049 0.695298 -0.332230 0.437079 1.728741 0.773859 -0.529132 1.392985 
1014 -0.835496 1.089095 -2.286329 1.588728 1.216509 0.485411 -1.906383 1.327749 -0.719872 1.199419 
1020 1.080964 1.516442 0.581511 2.370972 0.301361 1.108529 0.488361 -0.640791 0.304165 1.036335 
2 0.140514 0.306218 0.870951 0.759771 -0.098686 0.056897 -0.247990 1.425892 -0.350212 0.017602 
118 0.197837 0.261037 0.604722 0.543573 -0.206753 0.146987 -0.152503 1.198906 -0.309802 0.044600 
1006 0.572849 0.562766 1.161677 -0.026205 -2.215576 -0.251530 0.043631 2.456291 0.198284 0.784288 
1013 1.505445 0.255668 0.518616 0.332846 -0.548649 0.039931 -2.393305 3.447685 0.053615 0.088335 
1022 0.734500 1.299447 1.244611 1.347051 -0.455695 -0.401585 -0.562297 1.072290 0.825326 -0.497920 
3 -0.540053 0.227195 1.700008 1.144673 0.712945 1.448929 0.034217 0.589800 -0.892505 1.145617 
625 0.253936 1.211032 0.767683 0.415898 -0.371487 0.250079 -0.351806 1.289611 0.397336 0.255381 
4 -0.164516 0.312545 0.518108 0.282401 0.174181 0.333177 -0.263524 0.655757 0.515402 0.477762 
119 -0.157121 -0.148166 0.419074 0.570554 -0.150631 0.632338 -0.407867 0.729980 0.601697 0.358881 
1015 2.096434 0.400947 1.038010 0.100490 0.036374 0.977752 -0.196569 1.979678 0.186801 0.432679 
5 -0.903904 0.004928 -0.137062 0.721433 1.108686 -0.089409 0.523659 1.178865 0.059661 0.662037 
120 -0.400290 0.041660 0.022292 0.776840 0.387841 -0.322239 0.296955 0.722106 0.120541 0.484751 
1021 -1.537790 0.423436 0.051288 0.860128 0.242859 -1.084014 -0.290980 1.325649 2.725961 -1.271483 
6 -1.258895 -0.683998 0.702941 0.842230 0.891653 1.161252 0.197197 0.325813 0.513048 1.032760 
571 -0.482783 0.350798 0.237777 0.297752 0.171091 0.584462 -0.276359 0.550752 0.639616 0.554507 
1019 1.354768 -1.775003 -0.102605 -0.195979 0.727102 1.528022 1.056958 1.439749 3.000889 1.179099 
7 0.462824 1.982192 2.530700 0.736936 0.781737 0.608411 0.867834 2.566112 -1.945048 0.394766 
574 0.008517 0.891065 0.248447 0.432962 0.436075 0.098819 0.124026 0.866226 0.281874 0.750162 
1009 0.058863 0.524235 0.583224 -0.623130 -1.390560 -0.126979 1.840962 2.362874 0.799360 -0.010102 
8 -1.740028 -1.786537 1.205412 0.561707 0.698101 0.910302 0.158839 1.289825 1.584943 0.494123 
316 -0.229817 -0.181348 -0.222583 0.892203 -0.250206 0.690835 0.134391 0.972043 0.766837 0.098979 
1012 -0.697548 -1.780251 0.599931 0.805975 -2.121665 0.227360 -1.183640 0.986173 2.288747 2.173942 
9 -0.951152 0.483063 0.215962 0.602615 1.073785 0.702343 0.433678 0.594912 0.040117 0.750162 
689 -0.888865 -0.069596 -0.159322 0.309208 0.574705 0.608442 0.692565 0.542778 0.828571 0.423786 
10 -0.864509 0.144712 0.618788 1.017415 0.631763 0.868400 -0.151164 0.335896 -0.391663 1.097794 
135 -0.196073 0.268146 0.303016 0.467563 0.248213 0.534122 0.172564 0.487726 0.568588 0.648800 
11 0.242909 0.026585 0.499721 0.593455 -0.022906 0.211834 0.069682 1.119838 -0.090352 -0.125561 
125 0.172826 0.103192 0.580557 0.518651 -0.156807 0.163700 0.104182 1.024628 -0.158348 0.040645 
12 -1.167936 1.587048 1.343477 1.414198 1.397136 1.151802 0.447525 1.217655 -1.930273 0.806576 
941 -0.103834 0.682359 0.151800 0.510725 0.557128 -0.177254 0.162581 0.773821 0.545962 0.918407 
13 -0.896671 -0.090305 1.719874 0.286962 0.738189 0.399713 0.269746 1.791298 -0.394178 -0.151675 
619 -0.216679 0.247595 0.093959 0.320236 -0.200203 0.800084 -0.050862 0.875888 0.568778 0.326305 
14 -0.138297 0.131128 0.340177 0.248730 0.081937 0.784188 0.116811 0.723002 0.390084 0.173821 
113 -0.180092 0.095361 0.369416 0.249068 0.128079 0.779135 0.039794 0.806020 0.354878 0.269408 
15 -2.260329 0.733640 0.205374 0.878524 1.874195 0.437501 0.870117 1.473623 -1.186639 0.204686 
457 -0.109578 0.336141 -0.041925 0.773370 0.536736 -0.323119 0.247123 0.887375 0.398583 1.131923 
16 -1.255411 -0.188561 0.229779 0.813531 1.071976 0.203320 0.674232 0.959495 0.112915 0.163712 
431 -0.169900 0.001602 0.039381 0.586224 0.564343 -0.315115 0.242747 0.797099 0.196767 0.543913 
17 -0.111064 0.239505 0.804054 0.308479 0.380111 0.528261 0.284269 0.723457 0.550718 0.478301 
122 -0.307764 0.197434 0.515870 0.451042 0.068019 0.730116 -0.121024 0.638049 0.703995 0.440503 
1016 1.786532 0.690884 -0.219584 -0.900244 1.584249 0.350854 2.156248 3.091072 0.716022 -0.644533 
18 -0.355516 0.392521 0.393013 0.399728 0.544856 -0.061425 0.093316 0.686634 0.331852 0.740970 
164 -0.255211 0.381602 0.256054 0.570893 0.493117 0.019882 0.147120 0.990245 -0.072631 0.720090 
19 -0.417008 0.504460 0.929252 0.636291 0.606537 0.387750 0.314695 1.169755 -0.602359 0.695334 
175 -0.062683 0.176613 0.226906 0.346651 -0.137333 0.292665 -0.134261 1.252446 0.295570 0.069147 
20 -0.405130 -0.532242 1.166957 0.264378 0.774450 1.412332 1.268991 0.685442 0.823787 0.726100 
462 -0.224280 0.325962 0.118177 0.315154 -0.027612 0.658773 0.043060 0.743690 0.514993 0.186520 
21 -0.623487 -0.446543 0.193191 0.900536 0.331757 0.286806 0.341669 0.624530 0.512255 0.295407 
377 -0.405374 -0.212705 0.034094 0.700439 -0.141221 0.701297 0.112972 0.904235 0.525758 0.019228 
22 0.419253 -1.253583 3.205280 0.454410 -0.097472 1.908061 0.191064 1.337475 0.852301 1.121868 
654 -0.004419 -0.147018 -0.063252 0.792368 -0.358117 0.854981 0.225393 0.882606 0.542382 0.199750 
23 -0.726763 -0.157789 0.593158 0.404824 0.606877 0.841677 0.634703 0.737442 0.345053 0.421143 
146 -0.113876 0.393004 0.355862 0.662104 0.014689 0.544520 -0.521735 0.791878 -0.101389 0.614275 
24 -0.900058 0.221311 2.259952 0.402237 0.904939 0.642818 0.589835 2.029312 -0.928996 -0.175962 
226 -0.448581 0.911305 0.238926 0.824818 0.314875 0.263324 -0.203250 0.496798 0.360035 0.946482 
25 -0.267365 0.438335 0.186136 0.387360 0.346666 0.150935 -0.005533 0.499281 0.189347 0.676706 
177 -0.294349 0.770752 0.223793 0.431707 0.468313 0.170437 0.048582 0.864817 0.656527 1.002672 
26 -0.144099 0.064884 0.774226 0.920324 0.261664 -0.230866 0.209849 1.189572 -0.153201 0.150860 
179 -0.140745 0.208190 0.268261 0.464016 0.327685 -0.214501 -0.018382 1.169025 0.193076 0.703376 
27 -0.375915 0.248049 1.268587 0.591301 0.518686 0.706285 0.108139 0.887780 -0.497088 0.469566 
617 0.273494 0.142745 0.062798 0.794643 -0.568097 0.941995 -0.153830 1.091364 0.324507 0.270854 
28 -2.934656 -0.841976 0.869078 1.315002 1.207085 -1.110009 0.258834 2.872155 1.016253 -1.487008 
660 -0.324419 -0.107700 -0.158529 0.591580 0.156833 -0.002837 0.417266 0.813368 0.493172 0.104431 
29 -0.733759 -0.219560 0.274103 0.402118 0.438675 0.552554 0.276935 0.665639 0.359767 0.513237 
227 -0.274425 -0.270427 -0.067394 1.365285 -0.074810 0.345230 0.533858 0.926854 0.608107 0.042352 
30 -0.458459 0.276542 0.398503 0.434912 0.400192 0.667213 0.189847 0.369676 0.509408 0.515001 
183 -0.393206 0.760947 0.407282 0.647899 0.470501 0.559597 0.077669 0.320107 1.058861 0.724795 
31 0.285463 0.527965 1.457095 0.311651 -0.435506 0.584503 -0.619668 2.022583 -0.286613 -0.093103 
750 0.279073 0.192869 0.685058 0.768944 -0.354137 0.092698 -0.129316 0.998044 -0.019406 -0.033920 
32 -0.314956 1.218788 0.705795 0.885324 0.654163 0.524147 -0.046784 0.855550 -0.401710 0.978264 
710 -0.230482 0.684735 0.072563 0.672203 0.483331 -0.051067 0.058148 0.740430 0.540074 1.140440 
33 -0.809443 -0.697897 0.951574 1.470015 1.037640 2.257775 0.145105 -0.392904 0.678137 2.318532 
144 0.220033 0.116769 1.010797 0.072399 -0.013928 0.835032 0.675966 1.093735 0.552480 0.207679 
34 -0.062706 0.340918 0.692904 0.152906 -0.005290 0.319196 0.524700 0.863455 0.346854 0.300561 
35 -0.197138 0.305960 0.417995 0.387973 0.281286 0.110648 -0.082746 0.586263 0.133049 0.457078 
168 -0.327391 0.774778 0.521899 0.418192 0.087375 0.655925 -0.283592 0.630277 0.599059 0.365376 
1011 -0.332466 0.331596 0.154881 0.318337 -1.187680 -0.559804 -0.246124 1.801602 -0.034192 0.471737 
36 -0.299432 0.402557 0.234577 0.474343 0.580412 0.100123 0.163789 0.568424 0.231381 0.735047 
230 -0.356657 0.562833 -0.092132 0.630572 0.592033 -0.141684 0.146540 0.789849 0.716718 1.172341 
37 0.152874 0.029052 0.521260 0.695519 -0.166513 0.065020 0.041368 1.243042 -0.063933 -0.193057 
254 -0.090294 -0.031393 0.501617 0.618183 -0.229605 0.066872 0.014704 1.175184 -0.089520 -0.061907 
38 0.851948 1.055304 2.850359 1.475953 -0.009223 1.783299 -0.737478 0.964467 -0.918818 1.589399 
240 0.333195 0.645966 0.447780 0.265915 -0.207011 0.361005 0.141342 0.754233 0.266950 0.576136 
39 0.000235 -0.006861 0.925161 0.917961 -0.110010 0.165290 0.301719 1.159226 0.079246 -0.115398 
542 -0.059104 0.080654 0.415640 0.300693 -0.217321 0.568839 -0.141242 0.933823 0.415976 0.331578 
40 -0.314419 0.496975 0.248933 0.489530 0.585065 0.010021 0.073541 0.590492 0.259342 0.791485 
253 -0.299687 0.372421 0.230614 0.409582 0.567024 0.207745 0.034285 0.638133 0.312095 0.768443 
41 -0.247672 0.279418 0.439181 0.381337 0.203838 -0.062313 -0.125867 0.750673 0.177560 0.427515 
276 -0.126006 0.249014 0.261457 0.361364 0.296693 0.034720 -0.159525 0.791952 0.183742 0.430559 
1018 0.689194 0.313085 0.071644 -0.256021 0.261479 -0.265339 -0.238561 3.149580 0.600011 -0.817192 
42 -0.431752 0.573522 0.326456 0.523429 0.622892 0.228342 0.291583 0.776585 0.319479 1.262469 
43 -0.507597 -1.000352 0.627672 0.418226 -0.099820 0.840710 0.491581 1.484572 1.348251 0.122437 
283 -0.184506 -0.524929 0.064142 0.963151 -0.239973 0.809176 0.192633 1.169542 0.886271 0.128497 
44 -0.047676 0.282713 0.547028 0.143724 0.176606 0.314647 0.237987 0.954917 0.199376 0.160280 
378 -0.107484 0.255221 0.578178 0.321835 0.064828 0.246919 0.422870 0.989240 0.164270 0.066712 
45 0.198382 0.312598 1.116737 0.347802 -0.349977 0.260810 -0.287462 1.773308 -0.234175 -0.178157 
383 0.178640 0.177819 0.594684 0.656946 -0.136188 0.130176 -0.058861 1.110234 0.004939 -0.177392 
46 -0.211438 0.527783 0.936907 0.364785 0.593590 0.349440 0.491141 1.197101 -0.193750 0.383748 
414 -0.123501 0.484690 0.252480 0.347448 0.276991 0.065270 0.346126 0.667116 0.269366 0.424009 
47 -0.318626 0.148560 0.245773 0.335271 -0.138027 0.922119 -0.030439 0.763752 0.657003 0.278003 
274 -0.331227 0.023241 0.406994 0.366861 -0.160639 0.830862 -0.027379 1.064565 0.323214 0.187237 
48 -0.417302 0.428852 0.364056 0.392392 0.549992 0.086978 0.117010 0.552177 0.313101 0.884536 
392 -0.286590 0.567822 0.106402 0.673416 0.648309 0.178757 0.057033 0.724149 0.540377 1.099226 
49 -1.382419 -0.121611 0.396189 1.079059 1.021309 1.039783 0.070602 0.274114 -0.135924 1.168298 
379 -0.423864 0.149665 -0.444596 0.439182 -0.189409 0.751813 0.130860 1.215351 0.746571 0.106682 
50 -0.333877 0.384184 0.579188 0.298470 0.480642 0.147063 0.355944 1.016179 0.204800 0.327625 
404 -0.142104 0.155718 0.129310 0.411419 0.040398 -0.145165 0.666003 1.380082 0.265662 -0.105773 
51 -0.607328 -0.005651 0.267805 0.348302 -0.015251 1.362021 -0.041818 0.873853 0.946721 0.768153 
355 -0.692823 -0.116392 -0.066510 0.668622 0.433557 0.811559 0.064389 0.248224 0.688917 0.807854 
52 -0.382412 -0.331152 -0.010319 0.698803 0.359360 0.281128 0.163262 0.758039 0.345224 0.101613 
447 -0.526577 -0.225117 -0.000744 0.975943 0.185569 -0.202644 0.233878 0.969447 0.589286 -0.050609 
53 -0.250584 0.544673 0.354161 0.529230 0.686742 0.112507 0.018438 0.624320 0.079780 0.676971 
456 -0.205678 1.185856 0.154913 0.866533 0.513052 0.007211 0.170866 0.883839 0.332066 1.354939 
54 -0.509633 0.676972 0.629602 0.624562 0.555786 0.633235 0.045867 0.521985 0.493682 0.614890 
528 -0.585563 -0.314544 0.236984 0.477119 0.298665 0.693365 0.091598 0.557074 0.424279 0.574324 
55 -0.377849 -0.104447 0.788539 0.408369 -0.024668 0.916249 0.034905 0.880944 0.395208 0.425133 
56 -1.427051 0.537348 0.344338 1.129990 1.210819 1.089408 0.226136 0.381488 -0.384600 1.170763 
809 -0.271835 0.078860 -0.178894 0.409165 -0.216013 1.181005 -0.020939 1.154271 0.774286 0.515185 
57 -0.738939 -0.115153 0.196563 0.458934 0.388379 0.269064 0.476886 0.845785 0.285137 0.284589 
564 -0.521790 0.020808 -0.136357 0.485927 0.466075 -0.438416 0.528251 1.089616 0.397020 0.504493 
58 -0.589132 -0.588452 1.821782 0.448197 0.187416 0.680412 -0.019841 1.466090 0.139364 0.148455 
479 0.146855 0.017800 0.289179 0.614152 -0.621920 0.817441 -0.081108 1.094262 0.350052 0.287887 
59 -0.486792 0.623134 0.386405 0.589428 0.739014 0.187215 0.049218 0.698534 0.320717 1.118752 
501 -0.311648 0.669035 0.246899 0.725759 0.625235 0.216908 -0.007042 0.514997 0.675269 1.159891 
60 -0.350929 -0.068594 0.193696 0.670839 0.152923 0.316682 0.235987 0.620273 0.259206 0.098492 
589 -0.102390 0.030573 0.175056 0.457365 0.161635 0.196814 -0.076125 0.833742 0.456619 0.275248 
61 -0.228904 0.361262 0.291106 0.422842 0.494627 0.133019 0.050966 0.563411 0.248024 0.771608 
241 -0.292037 0.360769 0.349571 0.516943 0.544282 0.068418 0.087288 0.564211 0.274983 0.795059 
62 -0.183360 -0.178317 0.656850 0.376949 -0.219676 0.535614 0.068525 1.126585 0.480592 -0.000057 
651 -0.027869 -0.036491 0.368052 0.716588 -0.129176 0.430744 -0.035255 0.931789 0.292537 -0.137581 
63 -0.480600 0.512669 0.250956 0.549943 0.727406 0.138807 0.028061 0.687310 0.469165 1.071233 
644 -0.244160 0.431965 0.207414 0.308158 0.488461 0.242034 0.086698 0.697464 0.185647 0.848378 
64 -0.241558 -0.503416 0.759094 0.628956 0.055444 0.613571 0.086038 1.065091 0.580399 0.143427 
663 -0.496718 -0.229128 0.265260 0.491860 0.114351 0.295346 0.233154 0.663850 0.641393 0.469780 
1010 0.142474 0.324895 0.357731 -0.138575 -1.543746 0.177129 0.546352 2.142555 0.716084 0.158361 
65 -0.506702 -1.194991 0.151901 1.056004 -0.236668 1.010991 0.192543 1.353804 1.674682 0.519311 
398 -0.285570 -0.226846 0.029749 0.454953 -0.251268 0.871375 0.125708 1.008580 0.764930 0.290500 
66 -0.301784 0.546387 0.316321 0.428079 0.420934 0.083463 -0.004477 0.546539 0.134981 0.782530 
224 -0.247168 0.838220 0.275532 0.512685 0.673125 0.022683 -0.002834 0.874599 0.595193 1.157810 
67 -0.298055 0.046247 0.039673 0.702152 0.410339 -0.178268 0.228763 0.750392 0.094586 0.458497 
550 -0.184308 -0.109958 0.230281 0.800777 0.368634 -0.140072 0.379695 1.072933 -0.102189 0.988159 
68 -0.252448 0.358608 0.274247 0.271594 0.437958 0.209285 0.066545 0.758358 0.233948 0.859763 
478 -0.321057 0.400993 0.230620 0.449030 0.477863 0.206656 0.068443 0.582237 0.349077 0.717127 
69 -0.297792 -0.178312 0.118995 0.788786 -0.156741 0.733378 0.085739 0.760536 0.583717 0.093596 
576 -0.381904 -0.328163 0.526588 0.410895 -0.130560 0.716197 0.101648 1.042460 0.613598 0.151828 
70 -0.196671 0.375199 0.404216 0.312195 0.443468 0.135634 0.341733 0.717876 0.324129 0.324386 
561 -0.167736 0.520714 0.575667 0.415062 0.505403 0.332339 0.329778 0.844973 0.317035 0.498453 
71 -0.258976 0.238649 0.269661 0.429499 0.537747 0.152804 0.082816 0.659703 0.536371 0.760764 
652 -0.582694 -0.256774 0.124266 0.574417 0.295117 0.603955 0.068017 0.498957 0.565252 0.493083 
72 -0.240096 0.430678 0.501939 0.339331 0.328607 -0.017541 0.300703 0.709935 0.144016 0.504188 
73 -1.407781 -0.103019 0.907520 0.746782 0.734164 0.316327 0.021946 1.034629 -0.372521 0.199326 
376 -0.291625 0.111001 -0.102899 0.666725 0.586457 -0.279964 0.260364 0.890939 0.549110 1.026268 
74 -0.068446 0.712213 0.854433 0.431895 0.298048 0.442780 -0.059338 0.810977 0.340859 0.718849 
75 -0.549580 0.701043 0.611099 0.672249 0.525854 0.728552 -0.139543 0.410067 0.698202 0.898260 
265 -0.519153 -0.383243 0.205909 0.391498 0.204448 0.629610 0.153646 0.581636 0.490246 0.714416 
76 -0.366749 0.330425 0.297804 0.477680 0.545371 0.070881 0.120743 0.579331 0.368796 0.844874 
732 -0.583150 0.042358 -0.061838 0.508731 0.478610 0.645347 0.209009 0.493174 0.442122 0.669458 
77 -0.004886 0.292754 0.646366 0.274987 0.137895 0.198422 0.000533 0.906104 0.141434 0.261607 
449 -0.057446 0.328962 0.797111 0.324540 0.135280 0.141033 0.097714 0.861619 0.148225 0.211009 
78 -0.224708 -0.282709 0.782842 0.320972 -0.321862 0.651674 0.031926 1.529510 0.609474 -0.184342 
374 0.347800 0.438957 0.995897 0.423121 -0.139960 0.087640 -0.368040 1.223675 0.056138 0.126933 
79 -1.259761 -0.909313 0.354229 0.788320 0.840392 1.001366 0.229766 0.364653 0.725291 0.983173 
214 -0.590092 0.051591 -0.193572 0.681571 0.285259 0.416993 0.155698 0.362700 0.764298 0.470378 
80 -0.500246 -0.381471 1.122681 0.534111 0.243281 0.612939 0.009904 1.245644 0.080562 0.161618 
525 -0.004290 0.267593 0.472101 0.277636 -0.152283 0.128928 -0.022548 1.111583 0.296472 0.339063 
81 -0.734474 -2.248187 1.281835 0.637910 -0.311849 1.251069 -0.392428 1.741113 2.362304 0.941263 
282 -0.154326 -0.536845 0.061542 0.990701 -0.279378 0.805592 0.205346 1.185246 1.023744 0.138227 
82 -0.443348 0.052296 0.249115 0.645745 0.548772 0.023285 0.383966 0.987593 0.023053 0.763777 
807 -0.226458 0.202024 0.008503 0.613611 0.703021 0.087245 0.236285 0.728108 0.343330 1.068707 
83 -0.098271 0.551946 0.964436 0.325555 0.426479 0.220113 0.576724 0.915786 0.333542 0.579463 
84 -0.218960 -0.235361 0.163961 0.712201 -0.031833 0.512998 0.324483 0.949071 0.312185 -0.058921 
837 -0.268127 -0.275472 0.201230 0.754123 -0.165356 0.408019 0.296161 0.819012 0.470237 -0.076403 
85 -0.319326 -0.294279 0.285085 0.850910 0.238899 0.620697 -0.018681 0.676156 0.409953 0.252159 
354 -0.743276 -0.093076 0.140711 0.558555 0.467520 0.406096 -0.001855 0.420212 0.604001 0.781385 
86 -0.076400 -0.188372 0.295433 0.594980 -0.051815 0.361264 0.352774 0.735594 0.229213 0.062804 
87 -0.246383 -0.132720 0.914737 0.853268 -0.221660 0.239443 0.002801 1.277862 0.020565 -0.063026 
366 -0.238157 -0.158638 0.148140 0.702726 -0.185671 0.586618 0.014286 0.919387 0.398775 -0.030759 
88 -0.801097 0.051116 0.942208 0.667119 0.770103 0.729449 0.235537 0.834029 -0.401168 0.615909 
810 -0.134083 -0.016406 -0.137356 0.803971 -0.109921 0.692029 0.123290 0.920426 0.489569 0.113621 
89 -0.483554 0.130358 0.435110 0.460027 0.130080 0.692663 -0.115475 0.420974 0.580898 0.485218 
852 -0.497831 -0.083766 -0.438333 0.677739 -0.043570 1.267338 -0.054417 0.634371 0.913808 0.876850 
90 -0.384871 -0.335276 0.113148 0.700599 -0.157571 0.603052 0.169552 0.971715 0.481334 0.016919 
200 -0.384784 -0.280800 -0.104336 0.951066 -0.096562 0.134176 0.520114 1.339870 0.701559 -0.253344 
91 -0.241989 0.452493 0.207815 0.315821 0.432381 0.096015 0.009015 0.622492 0.224367 0.707360 
776 -0.352295 0.367624 0.361266 0.480735 0.517854 0.023045 0.074245 0.523364 0.286189 0.775108 
92 -0.212225 0.184776 0.400773 0.275233 -0.086900 0.808521 0.192690 0.750666 0.565127 0.118696 
93 -0.395028 0.581633 0.414121 0.531818 0.339535 0.414870 -0.259519 0.654196 0.364839 1.005842 
94 -0.427150 -0.100429 0.110146 0.746238 0.428482 -0.004239 0.228526 0.612056 0.168375 0.579463 
734 -0.380141 -0.019043 -0.005813 0.515682 0.504244 0.406525 0.253747 0.444172 0.590922 0.846818 
95 -0.658529 0.271948 0.492787 0.540256 0.671982 0.864558 0.135413 0.308619 0.660786 0.613780 
725 -0.279800 0.637015 0.129776 0.662932 0.576719 -0.159813 0.179383 0.864284 0.654318 1.200571 
96 -0.599562 0.674133 0.240424 0.618500 0.782777 0.097414 0.096849 0.731291 0.267911 1.053520 
787 -0.292843 0.347387 -0.089956 0.685494 0.657538 -0.220619 0.292661 0.862507 0.129790 1.179528 
97 -0.302227 0.420902 0.369399 0.458182 0.557747 0.066274 0.109240 0.485889 0.233767 0.724143 
871 -0.253909 0.619891 0.325242 0.640921 0.521782 0.056576 0.181919 0.730874 0.535235 1.045776 
98 -0.459209 0.153268 0.201374 0.487154 0.369830 0.646589 -0.090000 0.425736 0.409933 0.457608 
99 -0.901544 -0.442181 0.165766 0.928540 0.425411 0.344304 0.386679 0.547461 0.494497 0.255886 
879 -0.352151 -0.285593 -0.094306 0.689777 -0.014108 0.594953 0.079703 0.769444 0.487472 0.113835 
100 -0.690461 -1.087387 0.063829 1.046866 0.051073 0.963085 0.201623 1.040994 1.404511 0.500598 
695 -0.628008 -0.056486 -0.002706 0.423907 0.475716 0.440014 0.309414 0.343221 0.727409 0.739230 
101 -0.343457 0.510778 0.472777 0.496441 0.414623 0.077678 0.066545 0.581278 0.287487 0.844894 
883 -0.133881 0.644115 0.300836 0.585457 0.550857 0.127970 -0.025547 0.698097 0.364242 0.973193 
102 -0.484780 0.462450 0.359987 0.594392 0.824557 0.535465 0.095228 0.431968 0.558787 0.759792 
912 -0.353979 0.276312 0.202497 0.378356 0.363407 0.538688 0.108300 0.368530 0.421257 0.493066 
103 -0.388075 -0.556109 0.029753 0.928618 -0.155296 0.858035 0.230666 1.036397 0.675848 0.295575 
363 -0.348169 -0.421462 0.021179 0.710074 -0.069217 0.664597 0.138843 0.902951 0.576811 0.100541 
104 -0.301369 0.414066 0.160805 0.409843 0.498107 0.206875 0.054801 0.610152 0.136395 0.755705 
946 -0.321274 0.457726 0.282806 0.355318 0.616648 0.189835 0.008161 0.566359 0.243860 0.816237 
105 0.162018 -0.079754 0.566095 0.610486 -0.166333 0.367351 0.147091 0.881513 0.194470 0.002731 
106 -0.758848 -0.201033 0.450793 0.594120 0.498443 0.870448 0.098630 0.504817 0.491105 0.676326 
951 -0.262822 0.315801 0.227996 0.456281 0.368112 0.082218 0.162769 0.577923 0.517162 0.808796 
107 -0.896136 0.480593 0.525835 0.864303 0.966612 1.122019 0.301060 0.194032 0.283613 0.897286 
544 -0.442783 -0.112326 -0.224667 0.383304 -0.035878 0.229540 0.100818 0.921287 0.640054 0.185093 
108 -0.348341 0.191229 0.268608 0.490242 0.510984 0.182571 0.155030 0.457410 0.509104 0.846431 
109 -0.580478 0.294536 0.249626 0.607234 0.847320 -0.050837 0.311050 0.948492 0.116743 1.001115 
957 -0.534343 0.195085 -0.295998 0.625227 0.418899 0.360488 0.202286 0.487438 0.504299 0.493941 
110 -0.469063 0.585835 1.605319 0.391955 0.535568 0.038285 0.071254 2.138243 -0.965357 -0.245900 
459 0.028119 1.217131 0.381128 0.538905 0.156207 -0.387273 -0.050937 1.091880 0.382233 0.856100 
111 -0.587312 0.197758 0.339977 0.428184 0.343705 0.459438 -0.050297 0.396928 0.552765 0.454947 
112 -0.327620 -0.406376 -0.065783 0.654197 -0.119049 0.651495 0.190915 0.771867 0.688669 0.127518 
114 -0.030843 0.673156 0.270665 0.520514 0.460953 0.146683 -0.142057 0.646670 0.740703 0.835654 
115 -0.250495 -0.137732 -0.256891 0.908063 -0.236825 0.628671 0.156924 0.878738 0.630921 0.105805 
116 0.135418 0.701855 0.330671 0.331213 0.266023 0.029781 0.034440 0.870841 0.509146 0.701057 
117 -0.250788 0.316561 0.016238 0.464811 0.401090 -0.043669 0.077489 0.702244 0.589117 0.839094 
121 -0.132473 -0.110428 -0.049020 0.802295 0.279875 -0.213367 0.282523 0.674907 0.392502 0.632193 
123 -0.109914 -0.158227 -0.010321 0.754792 0.257765 -0.151242 0.265516 0.626159 0.489895 0.552950 
124 -0.265254 0.696315 0.277159 0.315587 0.516686 0.016826 -0.015737 0.786179 0.356825 0.757828 
126 -0.147145 0.427441 0.089821 0.460446 0.405301 -0.172045 0.046942 0.702193 0.386436 0.780981 
127 -0.167635 0.331707 0.342515 0.423224 0.379238 0.055017 0.047244 0.777282 0.283660 0.634737 
128 -0.052574 0.591823 0.163119 0.354653 0.492970 0.001154 0.030782 0.777246 0.474671 0.923525 
129 0.081428 0.113856 0.096943 0.653300 0.040880 0.066245 0.189052 0.746176 0.302444 0.294722 
130 0.084740 0.535943 0.454100 0.511729 -0.502396 -0.018567 -0.504236 1.244827 0.077233 0.150374 
131 -0.304693 0.096169 0.049459 0.677103 0.278816 -0.154751 0.406762 0.715577 0.179194 0.147589 
132 0.099841 0.329338 0.372759 0.430701 -0.293967 0.374436 -0.322338 0.691268 0.110628 0.487845 
133 -0.270928 -0.039757 -0.326705 0.530502 0.573941 -0.614951 0.369385 1.175134 0.515945 0.995878 
134 -0.146900 0.528759 0.283110 0.475694 0.478415 -0.149797 0.103973 0.630341 0.516288 0.811095 
136 0.012555 0.048782 0.080056 0.794491 0.265607 -0.240429 0.335161 0.809937 0.276384 0.514345 
137 -0.030263 0.271670 -0.044851 0.466805 0.288432 -0.169949 0.091991 1.062684 0.417067 1.087301 
138 -0.059182 0.106547 0.127753 0.859932 0.201571 0.006342 0.628620 1.001849 0.083432 0.079822 
139 -0.214674 0.464869 0.232083 0.499567 0.524396 -0.010970 0.023715 0.536484 0.435323 0.792971 
140 -0.160142 0.445303 0.358592 0.426387 0.384940 -0.043559 0.019559 0.651864 0.292590 0.610526 
141 -0.197363 0.236652 0.438208 0.237220 0.107992 0.537999 0.139431 0.656463 0.390120 0.269916 
142 0.056295 0.607844 0.279107 0.390996 0.249682 -0.105043 0.131161 0.792084 0.418619 0.735273 
143 0.066790 0.125904 0.292615 0.547760 0.017764 0.021022 0.168518 0.652441 0.321581 0.517664 
145 -0.128399 -0.052058 -0.055577 0.596669 0.135464 -0.358012 0.066365 1.081865 0.230132 0.046610 
1017 1.798816 0.810329 0.586130 0.898024 0.337743 1.424646 -0.683957 1.344385 -0.451382 1.310109 
147 -0.199446 -0.174481 -0.158896 0.817607 -0.154034 0.783599 0.162301 0.840572 0.515563 0.149808 
148 -0.084439 0.586522 0.314338 0.385062 0.356525 -0.055015 -0.041328 0.945495 0.241193 0.516685 
149 0.093001 -0.104005 0.264696 0.900969 -0.190460 -0.051907 0.224942 0.976428 0.330160 0.045080 
150 -0.204280 0.605348 0.215916 0.374374 0.507821 -0.009286 -0.041056 0.862233 0.352339 0.688285 
151 -0.219957 -0.097568 -0.038098 0.833682 -0.069844 -0.214836 0.527257 1.124847 0.347679 -0.078220 
152 -0.289881 -0.159994 -0.037880 0.781467 0.098686 0.284988 0.469879 0.561338 0.689128 0.129069 
153 -0.123200 -0.177020 -0.074421 0.770362 0.255883 -0.191535 0.223339 0.651415 0.521064 0.526823 
154 -0.116628 0.402497 0.131971 0.537619 0.368932 -0.155826 0.416790 1.045061 0.102425 0.517015 
155 -0.151178 0.281323 0.185760 0.270638 0.230413 0.461711 0.117576 0.544352 0.607411 0.380272 
156 -0.113756 0.429250 0.275436 0.295846 0.114170 0.558420 0.238369 0.456405 0.710981 0.400818 
157 -0.081496 -0.086991 0.149678 0.798533 -0.217928 0.394769 0.068752 0.951920 0.371947 0.043178 
158 -0.319183 0.407604 0.358713 0.307761 0.170745 0.307175 0.075346 0.615324 0.455854 0.369579 
159 -0.082645 -0.061904 -0.099193 0.791803 -0.299514 0.717162 0.162705 0.998782 0.570977 0.072445 
160 -0.072858 0.679318 0.241725 0.350496 0.343745 0.117298 -0.037707 0.643441 0.646695 0.861535 
161 -0.199143 0.037380 0.041788 0.597829 0.092038 0.462416 -0.078343 0.616926 0.382393 0.368551 
162 -0.075683 0.672533 0.261020 0.381989 0.467217 -0.161344 0.154325 0.729517 0.610466 0.907225 
163 0.001356 0.355568 0.329782 0.302826 -0.091441 0.126468 0.233178 0.844102 0.345531 0.293328 
165 0.038478 -0.139177 0.121801 0.730323 -0.035765 -0.166468 0.228825 1.036762 0.227283 -0.048175 
166 -0.312567 0.182235 0.419130 0.191232 0.159601 0.264129 0.353891 0.909298 0.312323 0.321653 
167 -0.219828 -0.156723 -0.038710 0.601875 0.194163 0.421186 0.208201 0.727612 0.310692 0.211517 
169 0.045801 0.431142 0.453071 0.287227 -0.173919 0.233162 -0.168943 0.900524 0.297698 0.209848 
170 -0.332014 0.397083 0.246889 0.385260 0.346496 -0.132537 0.123265 0.690383 0.520785 0.783475 
171 -0.200445 0.361692 -0.032979 0.462202 0.423480 -0.014574 0.026894 0.712033 0.593570 0.804313 
172 -0.282219 -0.121187 -0.101092 0.839871 -0.224166 0.624017 0.146083 0.888972 0.376200 0.057657 
173 -0.230771 0.280780 0.257885 0.349881 0.028766 0.537580 -0.148079 0.744834 0.331258 0.257624 
174 0.091732 0.180203 0.254978 0.799972 -0.020457 -0.089594 0.067888 0.999130 0.035700 0.191729 
176 0.180526 0.580682 0.393580 0.322892 -0.383037 0.084945 -0.316884 1.065065 0.320840 0.217902 
178 -0.064350 0.237139 0.506859 0.707061 -0.144399 0.016821 -0.047326 1.140671 -0.151606 -0.061318 
180 -0.178026 0.397531 0.346141 0.273633 0.220166 0.548510 0.170380 0.519629 0.667384 0.331171 
181 0.053394 0.556140 0.266488 0.336413 0.007179 0.327154 0.099111 0.735182 0.554073 0.287740 
182 -0.106205 -0.087535 -0.130999 0.879803 0.491172 -0.204959 0.230048 0.691838 0.428286 0.672780 
184 -0.142119 0.718609 0.286831 0.354620 0.486134 0.217271 -0.159373 0.731937 0.741642 0.943848 
185 -0.270647 0.443693 0.285255 0.493195 0.584742 0.098467 0.090165 0.526431 0.257374 0.745181 
186 -0.176105 -0.085680 0.030993 0.765590 0.391414 -0.207158 0.342633 0.692183 0.340827 0.572488 
187 -0.307100 0.562100 0.106281 0.333501 -0.154886 0.745956 -0.142536 0.760405 0.643310 0.307146 
188 -0.458636 -0.228990 0.175462 0.590125 0.383914 -0.112821 0.311377 0.651509 0.297091 0.624204 
189 -0.343841 0.102631 0.000824 0.509193 -0.499295 0.092609 -0.040418 1.361192 0.560438 -0.115145 
190 0.476337 0.271876 0.412866 0.648229 -0.373093 -0.048006 -0.180643 1.085067 -0.047763 0.120889 
191 0.008604 -0.037831 0.032454 0.800811 0.335063 -0.337946 0.300728 0.811457 0.220746 0.526911 
192 -0.113570 0.078355 -0.048420 0.788833 0.417739 -0.307413 0.282821 0.876765 0.228819 0.741032 
193 -0.248207 0.595840 0.218424 0.316069 0.086965 0.585450 -0.336213 0.530957 0.706837 0.503946 
194 0.007339 0.701301 0.152360 0.274976 0.401964 -0.005936 0.050222 0.791597 0.469170 0.895687 
195 -0.057333 0.110981 -0.021243 0.856633 0.387937 -0.438616 0.275667 0.873330 0.203065 0.748258 
196 -0.192790 0.705395 0.190132 0.404500 0.290600 0.133116 -0.007929 0.690739 0.727569 0.905759 
197 0.202971 0.865236 0.467959 0.315481 -0.190789 0.130231 -0.264829 0.934691 0.042771 0.149682 
198 -0.046228 0.299799 0.279639 0.683395 0.372721 -0.145314 0.057257 0.887820 -0.094102 0.589810 
199 -0.230577 -0.184910 -0.190152 0.760085 -0.195986 0.782941 0.116760 0.885002 0.511242 0.204616 
201 0.055295 0.516723 0.318455 0.328621 0.045195 -0.063682 -0.085970 0.792554 0.474461 0.494804 
202 0.126839 0.037763 0.201807 0.702228 0.094924 -0.076946 -0.144754 0.740161 0.140736 0.381801 
203 -0.227655 0.253320 -0.082758 0.355533 0.191220 0.021375 0.002793 0.571393 0.757959 0.684814 
204 0.040408 0.639796 0.133424 0.209985 -0.299789 -0.067206 -0.071861 1.184464 0.290535 0.054726 
205 -0.087312 0.227197 0.127260 0.394522 -0.005438 0.276517 -0.131841 0.650688 0.153558 0.477909 
206 0.142480 0.139862 0.100058 0.574525 -0.033925 0.060328 0.082353 0.725669 0.291971 0.472235 
207 -0.126715 -0.172694 -0.020483 0.763685 -0.072113 -0.228962 0.478765 1.198792 0.341213 -0.049190 
208 -0.242936 -0.043466 0.013140 0.673528 0.277441 0.408400 0.321338 0.454316 0.377593 0.217952 
209 -0.102969 0.314816 0.396180 0.254189 -0.078529 0.556620 0.092901 0.642484 0.649108 0.250750 
210 0.044726 0.813276 0.359410 0.516178 0.440486 -0.188606 -0.022154 0.772694 0.287036 0.687804 
211 -0.164712 0.660861 0.298248 0.468510 0.371145 -0.099828 0.047779 0.756264 0.367378 0.708257 
212 0.063541 0.756373 0.348734 0.376279 0.398277 -0.180108 0.013575 0.798591 0.165465 0.699742 
213 0.081935 0.816099 0.488925 0.286046 0.016739 -0.010825 0.158168 0.872977 0.020257 0.236958 
215 -0.440439 -0.325171 -0.269675 1.259352 0.023021 0.118415 0.336190 0.950715 0.687645 0.003823 
216 -0.114019 -0.131049 0.091763 0.731320 -0.120752 -0.270552 0.420102 1.200243 0.227880 -0.037670 
217 -0.197776 -0.146431 -0.035042 0.722789 0.118482 -0.490730 0.379402 1.120864 0.330609 0.196174 
218 -0.234016 0.365737 0.132766 0.447727 0.221206 0.631356 -0.282841 0.398272 0.701552 0.699065 
219 -0.123210 -0.010513 -0.019638 0.611293 0.035231 -0.276192 0.087663 1.147320 0.198494 0.083315 
220 0.049326 0.707270 0.085983 0.338100 0.228276 0.376972 0.090062 0.603618 0.641186 0.377496 
221 -0.179972 -0.276338 -0.164760 0.903121 -0.336931 0.670382 0.105886 0.875697 0.613420 0.109364 
222 -0.161516 0.413464 0.266509 0.480858 0.374515 0.258496 0.039983 0.489171 0.551212 0.866607 
223 -0.049210 0.029542 -0.160030 0.716612 0.348025 -0.453078 0.309789 1.100974 0.542061 0.602242 
225 -0.189155 0.404717 0.014213 0.466015 0.332654 0.091478 0.032215 0.600206 0.602142 0.841926 
228 -0.172520 0.407917 0.171673 0.305043 0.306065 0.124902 0.050431 0.683059 0.355478 0.783629 
229 -0.210150 0.320616 0.250692 0.320976 0.308192 0.644761 0.265358 0.521349 0.724706 0.370018 
231 0.229529 0.421658 0.440422 0.724479 0.096791 -0.225800 0.195138 0.924351 -0.203039 0.333841 
232 -0.034711 0.707198 0.084675 0.345023 0.444322 0.020924 -0.025492 0.846205 0.536423 0.928894 
233 -0.064654 0.552676 0.147506 0.290375 0.564924 0.008091 0.085768 0.726130 0.525133 0.850301 
234 -0.103683 0.388068 0.230471 0.309561 0.202109 -0.056441 -0.006216 0.716306 0.364590 0.478123 
235 -0.065911 0.513083 0.056957 0.567179 0.414681 0.038856 0.026019 0.588994 0.510771 0.944057 
236 -0.133917 -0.124260 -0.179413 0.842113 0.373775 -0.218782 0.307345 0.673834 0.423817 0.576018 
237 -0.183415 0.482557 0.285005 0.325359 0.435239 0.059263 0.107253 0.735490 0.337831 0.715461 
238 -0.154202 0.615960 0.182461 0.487841 0.481864 -0.075319 0.003833 0.726718 0.307072 0.600678 
239 -0.100585 0.055161 -0.049205 0.819334 0.478912 -0.359255 0.280792 0.750753 0.223698 0.694750 
242 0.065806 0.740540 0.295742 0.335682 0.198883 0.037908 -0.178388 0.808684 0.340538 0.496403 
243 -0.128292 0.496026 0.178743 0.369174 0.575305 0.092541 0.010090 0.695963 0.415440 0.850155 
244 -0.328874 0.256969 0.252524 0.404803 0.382093 -0.000977 0.128959 0.584642 0.502032 0.691088 
245 -0.209466 0.380597 0.071145 0.258732 0.003590 0.464174 0.042629 0.599897 0.487741 0.237180 
1008 0.293296 1.216527 0.684787 0.328020 -1.323885 -0.497321 -0.287990 2.091221 -0.521593 0.597953 
246 -0.545814 -0.164865 -0.400201 0.455228 -0.003390 0.227497 -0.094977 1.006681 0.644125 0.205073 
247 -0.360370 -0.215270 -0.397054 0.721636 -0.232432 0.426752 0.243557 1.157480 0.569414 -0.023802 
248 -0.029028 -0.065927 -0.006059 0.854094 -0.111587 -0.207483 0.530563 1.131416 0.321079 -0.150010 
249 -0.270763 -0.167670 -0.147863 0.606671 0.156981 -0.246842 0.624638 0.992348 0.376907 0.126049 
250 -0.068963 -0.084508 0.049132 0.724976 -0.078915 -0.352828 0.316820 1.172488 0.296666 -0.054401 
251 -0.316408 -0.183203 -0.180195 0.722121 0.129105 -0.012683 0.014575 0.778119 0.479223 0.066562 
252 -0.038969 0.399556 0.269871 0.301910 0.239216 0.196245 0.039939 0.618549 0.603946 0.711628 
255 0.054053 0.901302 0.376112 0.336561 -0.115394 0.215436 -0.184326 0.870397 0.153743 0.183911 
256 0.303182 0.642463 0.427620 0.457256 -0.214671 0.046192 -0.445128 0.934535 -0.249703 0.401853 
257 0.121462 0.586516 0.461236 0.267012 0.191084 0.161140 0.195715 0.726063 0.280948 0.717276 
258 0.021651 0.813522 0.557364 0.289383 0.150484 0.249869 -0.204272 0.681370 0.381914 0.626061 
259 0.083561 0.742026 0.332131 0.312798 0.359696 0.253657 0.091130 0.645963 0.445888 0.890176 
260 -0.063636 0.683043 0.122370 0.416249 0.415693 -0.132092 0.105026 0.701317 0.416264 0.875661 
261 -0.051741 0.546825 0.182365 0.438272 0.065616 -0.253278 -0.215483 0.854580 0.408551 0.567229 
262 -0.088644 0.244576 0.013668 0.701872 0.066787 -0.230050 -0.073119 0.710123 0.206812 0.487651 
263 -0.058943 -0.029850 0.033651 0.774132 0.417027 -0.193817 0.243891 0.748673 0.230454 0.577180 
264 -0.268140 -0.073523 -0.105156 0.792726 -0.308166 -0.430796 0.106353 1.282422 0.241521 -0.042753 
266 -0.081144 -0.045757 -0.059040 0.785142 0.006062 -0.183706 0.491651 1.277835 0.328596 -0.157471 
267 -0.215398 -0.398042 0.129230 0.675477 -0.115223 0.652031 0.183544 0.955005 0.592142 0.041866 
268 -0.021206 0.043307 0.195381 0.764737 -0.079010 -0.333821 0.235090 1.205612 0.295505 -0.094789 
269 -0.195788 0.549200 0.128419 0.535237 0.371877 -0.265260 0.082364 0.749782 0.471378 0.870968 
270 -0.123111 0.769042 0.382441 0.399550 0.054884 0.289442 -0.396784 0.541597 0.497037 0.598600 
271 -0.100621 -0.161310 -0.246551 0.981020 -0.000659 0.244820 0.400040 0.797909 0.495767 0.066947 
272 -0.405985 -0.258188 -0.160332 0.804947 0.036549 0.788614 0.126075 0.741687 0.654438 0.123878 
273 -0.266879 0.215175 0.152918 0.334846 -0.080931 0.805836 0.071387 0.729396 0.505612 0.296238 
275 -0.051450 -0.002491 0.405057 0.497376 0.150195 -0.104958 0.147097 0.921890 0.109904 0.112862 
277 -0.233100 0.409718 -0.024922 0.460459 0.411267 -0.123444 0.040096 0.705776 0.598548 0.824251 
278 -0.252201 0.392103 0.028341 0.286789 0.021485 0.522959 -0.031879 0.739445 0.532840 0.241409 
279 -0.007537 0.298795 0.139295 0.413976 -0.188358 0.753845 0.038869 0.765934 0.587615 0.133416 
280 -0.180840 -0.196957 -0.196185 0.824869 -0.131272 0.411650 0.176607 0.884035 0.391377 0.148354 
281 -0.370950 -0.244778 -0.135083 0.910470 -0.063710 0.724179 0.103116 0.655038 0.640649 0.218658 
284 -0.138642 -0.306738 -0.018842 0.871604 -0.213335 0.766820 0.006316 0.859941 0.836251 0.055152 
285 0.017582 -0.285338 0.357390 0.910785 0.051849 0.088259 0.478271 0.893426 0.305349 0.014219 
286 -0.159324 -0.143907 0.202155 0.780896 -0.171682 0.548291 0.317932 0.791986 0.554815 -0.095004 
287 -0.357269 0.060671 0.229429 0.252605 -0.076404 0.862568 -0.006292 0.793549 0.727534 0.259607 
288 -0.136175 0.459123 0.090581 0.426015 0.346388 0.101391 -0.063576 0.646450 0.454008 0.858668 
289 0.059019 0.861935 0.337354 0.448754 0.272077 -0.171323 0.015824 0.838926 0.254132 0.640643 
290 -0.211475 -0.060324 0.043473 0.705815 -0.167424 -0.270744 0.368516 1.107389 0.202711 0.036554 
291 0.153245 0.197496 0.246560 0.642591 0.245848 -0.241091 -0.023125 0.806042 0.164079 0.596184 
292 -0.357617 -0.138506 -0.156099 0.634860 0.187584 0.052243 0.431389 0.784898 0.498704 0.016019 
293 -0.287618 0.299533 -0.011716 0.425817 -0.109213 1.073799 -0.167678 0.617799 0.706648 0.534589 
294 -0.124329 -0.162685 -0.097716 0.743453 0.275816 -0.151995 0.262092 0.565965 0.511007 0.442923 
295 -0.272349 -0.234192 -0.142039 0.799348 -0.164553 0.131594 0.125580 1.080230 0.404217 -0.135945 
296 -0.132978 0.632175 0.270963 0.257532 0.384429 0.102330 -0.044373 0.688670 0.603696 0.880404 
297 -0.143119 0.570037 0.271699 0.439321 0.321714 -0.072994 -0.135227 0.812282 0.392244 0.674009 
298 -0.044697 -0.209121 0.163350 0.676089 -0.199778 0.580224 0.104175 0.877326 0.511211 -0.065325 
299 -0.261890 -0.137661 -0.200859 0.714722 0.396744 -0.517031 0.432361 1.110342 0.388326 0.434026 
300 -0.365687 -0.145438 -0.224838 0.651951 0.116993 0.104581 0.062783 0.929279 0.382744 -0.005804 
301 -0.063208 0.020953 0.079942 0.816752 -0.058966 0.164475 0.299374 0.645634 0.405108 0.148199 
302 0.111883 0.598149 0.272932 0.378222 0.167185 0.534012 -0.134133 0.518788 0.448797 0.440532 
303 -0.023208 -0.099364 0.410276 0.745450 0.283476 -0.180888 0.256916 0.896840 0.302881 0.231086 
304 -0.281012 -0.063644 0.240369 0.568295 -0.178516 0.518844 -0.004985 0.746898 0.226077 0.044337 
305 0.036990 0.303728 0.287168 0.267756 0.093357 0.290680 0.279330 0.877987 0.225947 0.255275 
306 -0.132396 -0.031390 -0.155935 0.904246 -0.143223 0.724958 0.061663 0.873805 0.537310 0.006002 
307 0.057368 0.736648 0.481408 0.283425 -0.079938 0.483476 -0.392019 0.700425 0.387843 0.476212 
308 -0.103666 0.696725 0.249424 0.412232 0.485791 -0.095744 0.112714 0.752760 0.529546 0.901223 
309 0.196409 0.587376 0.389329 0.295848 -0.139024 0.785766 -0.148560 0.726145 0.304800 0.338539 
310 -0.275523 0.455522 0.166551 0.338644 -0.276601 0.462874 -0.228323 0.711844 0.598260 0.191141 
311 -0.169610 -0.202967 -0.331875 0.990414 -0.126189 0.551056 0.220147 0.836502 0.720859 0.156557 
312 -0.196178 -0.318851 0.009483 0.742580 -0.285779 0.665452 0.102288 0.835918 0.574388 0.108561 
313 -0.087186 0.503608 0.252373 0.377910 0.440536 0.073539 0.134459 0.689668 0.246619 0.645771 
314 -0.010754 0.763138 0.447254 0.345413 0.166607 0.372214 -0.221514 0.569966 0.283918 0.814704 
315 -0.306809 0.142825 0.076449 0.760899 0.425207 -0.178311 0.346540 0.652235 0.017925 0.513720 
317 -0.167953 -0.058485 0.010540 0.868679 -0.184210 -0.359113 0.123235 1.218805 0.202164 -0.093168 
318 -0.386230 0.431932 0.232005 0.455083 0.048078 0.503402 -0.137845 0.512473 0.498304 0.387782 
319 -0.257276 -0.134578 0.074009 0.761137 -0.071748 0.652572 0.180182 0.822940 0.557476 0.032766 
320 0.223347 0.174293 -0.017790 0.837867 -0.293826 0.252725 0.082069 1.011303 0.315132 -0.091086 
321 -0.120960 -0.130560 0.014297 0.793043 0.438664 -0.128650 0.296989 0.628345 0.329924 0.606728 
322 0.092533 0.156080 0.204409 0.904842 -0.046944 -0.096286 0.316985 0.995714 0.095807 -0.148254 
323 -0.051285 0.605436 0.133880 0.437291 0.568217 -0.154008 0.078821 0.786010 0.521325 0.799814 
324 -0.340216 0.527185 0.238403 0.341156 0.393291 0.039228 0.154512 0.626084 0.508556 0.982353 
325 0.002341 0.495640 0.210090 0.410630 0.229395 -0.141501 0.002357 0.872081 0.505332 0.820476 
326 -0.099236 0.460078 0.051854 0.504881 0.548198 0.063254 0.055979 0.556444 0.511148 0.797165 
327 -0.222514 -0.031360 -0.061362 0.882847 0.441594 -0.282987 0.395249 0.666727 0.343026 0.640707 
328 -0.083359 0.816295 0.249513 0.319879 0.133114 0.354560 -0.314153 0.597394 0.657789 0.614968 
329 0.086421 0.107088 0.021199 0.845957 0.138958 -0.419446 0.259382 0.864985 0.298290 0.673016 
330 0.049381 0.073812 0.047720 1.041413 -0.051579 -0.196141 0.453479 0.764847 0.234732 0.366913 
331 0.045257 0.774338 0.541633 0.129034 -0.038971 0.448141 -0.100332 0.863388 0.177376 0.373768 
332 -0.163547 -0.139553 -0.308685 0.876007 -0.269540 0.605902 0.101208 0.890239 0.755953 0.025581 
333 -0.170950 -0.221178 -0.368979 0.902936 -0.104551 0.455385 0.270802 0.808130 0.621635 0.098112 
334 -0.158153 0.505879 0.247998 0.291892 0.264456 -0.094047 -0.086475 0.830652 0.318532 0.623549 
335 0.081746 0.139399 0.317852 0.785860 0.180078 -0.147340 -0.166769 1.015459 0.011180 0.135202 
336 -0.309916 -0.167606 -0.106029 0.787288 0.006353 0.732691 0.085781 0.698279 0.585329 0.101660 
337 -0.152624 -0.202505 -0.224367 0.919526 -0.172414 0.272452 0.288026 1.239920 0.464828 -0.172356 
338 -0.007412 0.785907 0.471119 0.417202 0.135111 -0.240564 0.052758 0.807214 0.161876 0.622577 
339 0.037977 -0.171621 0.050669 1.022506 -0.180444 0.042792 0.438034 0.928165 0.417783 -0.045832 
340 -0.096577 0.461596 0.155692 0.362644 0.489573 -0.219351 -0.056823 0.804176 0.467574 0.951054 
341 -0.275378 -0.311609 -0.014922 0.606626 -0.082096 0.641214 0.171627 0.749357 0.662769 0.086328 
342 0.008719 0.527148 0.549956 0.344405 0.131921 0.077577 0.137399 0.694659 0.349174 0.663882 
343 -0.055819 0.346204 0.194108 0.284168 0.251016 0.223580 0.309307 0.626250 0.516807 0.438590 
344 -0.173456 0.497013 0.139798 0.342587 0.340887 0.080728 -0.010359 0.702732 0.478686 0.966089 
345 -0.199992 0.373308 0.048738 0.384707 0.052470 0.328906 -0.232432 0.675235 0.535664 0.434481 
346 0.311953 0.888193 0.610706 0.279664 -0.212409 0.634667 -0.192058 0.775823 0.257395 0.666312 
347 -0.055110 -0.001362 0.122197 0.761470 0.357962 -0.215727 0.282075 0.834302 0.239743 0.604539 
348 -0.269960 -0.142762 -0.004348 0.621658 0.533598 -0.114650 0.178981 0.712934 0.332172 0.506753 
349 -0.186182 -0.072546 -0.063355 0.883743 0.318954 -0.220779 0.403350 0.591523 0.448592 0.649330 
350 0.062382 0.235072 0.382976 0.700351 -0.202873 -0.042215 -0.052631 1.019328 -0.004442 -0.025644 
351 0.205837 0.097919 0.202447 0.841215 -0.315599 -0.201959 0.024420 0.939750 0.074370 0.112050 
352 -0.020566 -0.212524 0.190282 0.790297 -0.199969 -0.200195 0.390377 1.138998 0.431455 -0.119845 
353 -0.220618 0.175529 -0.204988 0.378514 -0.261918 0.744073 -0.058851 0.822361 0.869799 0.191838 
356 -0.259347 -0.157792 -0.132617 0.742602 0.127744 -0.284278 0.635789 0.884667 0.356144 0.140187 
357 -0.163457 0.457976 0.352642 0.338701 0.018880 0.390190 -0.173014 0.710510 0.294812 0.293633 
358 0.144875 0.775291 0.523085 0.291526 0.059381 0.353172 -0.238183 0.574264 0.395360 0.647904 
359 -0.053426 -0.167155 -0.022018 0.736007 0.121722 -0.303806 0.150689 1.223511 0.199734 0.031811 
360 0.032241 0.777574 0.365006 0.321108 0.129072 -0.019045 -0.057081 0.860230 0.251662 0.474071 
361 -0.138309 0.572865 0.628764 0.264947 -0.131736 0.420775 -0.282505 0.927916 0.310495 0.114663 
362 0.130724 0.441727 0.762311 0.363035 -0.021002 0.318940 -0.413848 0.974228 0.192729 0.079336 
364 -0.326361 0.347741 0.196190 0.296232 0.239297 0.733718 0.105630 0.409418 0.437003 0.505169 
365 0.287691 0.737896 0.269602 0.180172 -0.027695 0.611437 -0.045711 0.792171 0.380240 0.463190 
367 0.200697 0.737988 0.337289 0.345144 0.437490 0.179878 0.064933 0.677042 0.503185 1.007566 
368 0.154055 0.716798 0.222135 0.335027 0.238971 0.182766 0.177611 0.591916 0.476710 0.835570 
369 -0.220461 -0.156828 -0.059395 0.803296 -0.076183 0.088689 0.450571 1.046615 0.382174 -0.210885 
370 -0.261318 0.433006 0.007401 0.529313 0.461150 -0.107410 0.090062 0.625555 0.659402 0.852521 
371 -0.171707 -0.174550 -0.052670 0.787157 0.021320 -0.443263 0.060245 1.036748 0.256372 0.063561 
372 -0.068518 -0.036443 0.198136 0.772667 -0.140643 -0.189972 0.128312 0.963242 0.038196 0.090732 
373 -0.284644 0.383540 0.048360 0.483674 0.477882 -0.161026 0.152020 0.696047 0.611660 0.887236 
375 -0.129565 -0.153636 -0.200565 0.804462 -0.226701 0.697154 0.103460 0.853894 0.700113 0.095584 
380 -0.091346 0.739025 0.297898 0.345909 0.385902 0.131492 -0.133846 0.708636 0.721630 0.854275 
381 -0.241265 -0.033161 -0.422901 1.074685 -0.314733 0.612692 0.362451 1.311404 0.707743 0.013894 
382 0.133949 0.093559 0.585189 0.744948 -0.197815 0.068727 0.010672 1.136887 -0.003731 -0.113390 
384 -0.092013 -0.140249 -0.110078 0.856743 0.380965 -0.245315 0.285512 0.790896 0.351351 0.754309 
385 -0.120697 -0.063215 -0.126560 0.781753 0.339912 -0.245494 0.283373 0.736511 0.412592 0.703326 
386 -0.218128 -0.091125 -0.121975 0.789615 -0.182374 0.632477 0.100374 0.827427 0.613237 0.075891 
387 -0.129308 0.457814 0.427714 0.345195 0.220541 0.019980 0.077892 0.825099 0.240148 0.570571 
388 0.115671 0.642322 0.538933 0.286456 0.045502 -0.086312 -0.079129 0.926972 0.060541 0.265068 
389 -0.062562 -0.069359 -0.109296 0.779851 -0.046661 -0.095509 0.267364 1.222826 0.314847 -0.203981 
390 -0.012975 0.179730 -0.189462 0.930798 0.356784 -0.271033 0.314060 0.932310 0.383005 0.965983 
391 -0.161582 0.477673 0.031169 0.392846 0.396721 0.112373 0.070260 0.621451 0.611048 0.781246 
393 0.010859 0.065561 -0.078539 0.717620 -0.047387 0.528354 0.205490 0.747472 0.405149 0.027334 
394 -0.105104 0.422253 0.187804 0.424953 0.256575 0.080758 0.074567 0.613718 0.484049 0.684772 
395 0.097417 0.249271 0.038037 0.656411 0.235374 -0.084074 0.156235 0.617347 0.302283 0.870722 
396 -0.248578 0.404150 -0.031201 0.351689 0.006778 0.944361 -0.102532 0.653811 0.623371 0.420301 
397 -0.072203 0.365022 0.101381 0.458680 0.598915 0.010836 0.019201 0.650936 0.572681 0.796334 
399 -0.162053 0.408853 0.045917 0.458815 0.342163 0.086245 0.025055 0.646418 0.504919 0.835839 
400 -0.053529 -0.024015 -0.108952 0.672158 0.349336 -0.100285 0.342322 0.522196 0.289179 0.713658 
401 0.037915 0.126229 0.220400 0.574886 0.419774 -0.043098 0.135925 0.659534 0.163059 0.897876 
402 -0.223659 -0.048191 -0.202136 0.871063 0.001982 0.376433 0.125522 0.522264 0.426386 0.382862 
403 -0.162531 0.434801 0.115718 0.420595 0.386693 -0.000976 0.114420 0.601003 0.567925 0.858581 
405 -0.193382 -0.300106 -0.010158 0.918372 -0.212722 0.743227 0.054206 0.849232 0.727601 0.121544 
406 -0.186590 0.471997 0.038232 0.401985 0.438575 -0.180208 0.008583 0.834045 0.441223 0.801509 
407 0.305735 0.733288 0.501079 0.200197 -0.056869 0.550913 -0.242586 0.875407 0.258278 0.499184 
408 -0.165226 0.031435 -0.095790 0.691677 -0.058446 -0.355416 0.205741 1.168403 0.184681 0.023665 
409 -0.264833 -0.173925 -0.123598 0.550184 0.356024 -0.395754 0.347263 0.955925 0.364615 0.503327 
410 -0.315176 -0.184750 -0.062241 0.619030 0.334402 -0.372021 0.319540 0.952921 0.276423 0.364003 
411 0.218438 0.627984 0.471938 0.282400 0.236042 -0.080424 -0.030046 0.865979 0.366899 0.420986 
412 0.035981 -0.109375 -0.060107 0.753237 -0.303148 0.843080 0.227333 0.896387 0.627071 0.098742 
413 -0.245941 -0.137910 -0.126836 0.630013 0.432018 -0.412237 0.342551 0.997314 0.338639 0.423517 
415 0.296680 0.588034 0.354625 0.215269 -0.168434 0.418382 0.089722 0.871837 0.149891 0.256783 
416 -0.196149 -0.107464 -0.283689 0.666887 0.409082 -0.516873 0.325001 1.044958 0.394015 0.390360 
417 -0.300102 -0.093923 -0.088527 0.616235 0.267869 -0.430444 0.355451 0.879341 0.339267 0.485666 
418 -0.376464 0.347035 0.016095 0.369082 -0.068702 0.783265 -0.035939 0.560669 0.570393 0.344662 
419 -0.240340 -0.080566 -0.097172 0.623674 0.399911 -0.458661 0.266166 0.972231 0.402665 0.384052 
420 -0.271745 -0.107959 -0.082676 0.670664 0.314714 -0.463041 0.365679 0.988039 0.400394 0.444615 
421 -0.261076 0.491754 0.301611 0.388555 0.517460 0.070578 0.003636 0.665125 0.470955 0.941280 
422 0.153937 0.185965 0.450795 0.737447 0.277584 -0.362169 0.081301 0.921754 0.000643 0.528133 
423 -0.222113 -0.107714 -0.254616 0.768538 -0.205406 0.162655 0.275744 1.092804 0.444137 -0.163620 
424 0.030394 0.408126 0.036203 0.321087 0.091275 0.317527 0.086221 0.559899 0.647967 0.273005 
425 -0.038812 -0.077211 0.226333 0.806289 0.279635 -0.117674 0.295926 0.723564 0.245262 0.397095 
426 -0.202636 0.477767 0.355564 0.346530 -0.105085 0.209986 -0.236609 0.610143 0.146048 0.334270 
427 -0.079701 0.395252 0.324539 0.298666 0.131513 -0.122572 0.030250 0.782806 0.470867 0.521392 
428 0.085240 0.456830 0.197436 0.442997 0.133508 -0.067479 0.222567 0.701651 0.536611 0.412685 
429 -0.340289 0.004627 0.200637 0.353396 -0.075909 1.009780 -0.062653 0.603396 0.654085 0.424853 
430 -0.205705 -0.195181 -0.020263 0.732200 0.355940 -0.193392 0.358943 0.866298 0.059449 0.532096 
432 -0.411473 -0.140891 -0.161521 0.836159 -0.173375 0.598306 0.146936 0.916734 0.390640 0.115207 
433 -0.200449 -0.105320 0.102449 0.748826 0.355552 -0.215773 0.267325 0.856896 0.144213 0.349424 
434 -0.299039 -0.041620 0.016075 0.677609 0.359958 -0.241542 0.289072 0.791168 0.304077 0.481088 
435 0.016522 0.559990 0.179370 0.314668 0.227467 -0.032199 0.088079 0.833311 0.353834 0.729593 
436 -0.462907 -0.268887 -0.262049 0.789112 0.090982 0.123805 0.153638 0.993999 0.429823 -0.016332 
437 -0.140415 0.515588 0.223084 0.358202 0.352679 0.087748 0.184692 0.618092 0.653269 0.879608 
438 -0.256245 0.625787 0.163404 0.209508 0.217997 0.635264 0.034389 0.609021 0.822025 0.528432 
439 -0.132333 0.262248 0.160673 0.332578 -0.234870 1.092682 -0.104522 0.887297 0.807061 0.461688 
440 -0.111643 0.391723 0.173628 0.395683 0.136550 -0.265074 0.060740 0.861822 0.376001 0.620159 
441 0.314176 0.357036 0.280888 0.526768 -0.159872 -0.209644 -0.055839 0.805807 -0.088397 0.405027 
442 -0.264421 0.604708 0.190121 0.425175 0.608802 -0.025064 0.058754 0.647198 0.333400 0.628246 
443 -0.266488 0.636125 0.249273 0.511318 0.553233 -0.150543 0.052830 0.589252 0.308893 0.632512 
444 -0.072364 0.372357 0.531063 0.253202 -0.251675 0.628539 -0.190414 0.963281 0.279924 0.095154 
445 -0.207051 -0.131898 -0.235524 0.749845 -0.091278 0.149247 0.458434 1.163070 0.466620 -0.207656 
446 -0.177383 0.692114 0.343166 0.321569 0.176001 0.308254 -0.324842 0.606395 0.454436 0.798257 
448 0.050861 -0.094861 0.111170 0.769905 -0.098623 -0.262482 0.262274 1.182592 0.243189 -0.002480 
450 -0.142585 0.459091 0.340992 0.380045 0.157996 0.218717 -0.029292 0.542455 0.335588 0.744289 
451 -0.340366 -0.286911 -0.177501 0.688802 0.098941 0.075458 0.113447 0.868631 0.419667 0.031680 
452 -0.140145 -0.202216 0.035756 0.760689 0.363371 -0.409294 0.359374 1.079249 0.256461 0.225030 
453 -0.112809 0.675994 0.197734 0.317219 0.233744 0.192178 -0.080628 0.643676 0.662412 0.874664 
454 -0.116720 0.607599 0.145991 0.428175 0.342926 -0.221225 -0.062036 0.808617 0.492646 0.771655 
455 -0.130235 -0.082264 -0.018239 0.677898 0.114929 0.488322 0.319515 0.407869 0.410202 0.398674 
458 -0.209492 -0.130604 -0.058082 0.837183 0.202218 -0.466737 0.402217 1.082760 0.282341 0.228751 
460 -0.089927 -0.004715 0.062995 0.698041 0.399978 -0.041185 0.147494 0.642257 0.166673 0.628710 
461 -0.121580 -0.170873 0.151726 0.697663 -0.139971 -0.203859 0.368045 1.234989 0.224386 0.059968 
463 0.016875 0.208640 0.117357 0.644960 0.333805 -0.258824 0.042112 0.887402 0.126057 0.855664 
464 -0.164833 -0.218279 0.143732 0.708418 -0.112788 0.628072 0.145384 0.907287 0.548292 -0.020244 
465 -0.137762 0.569130 0.225938 0.520788 0.284815 -0.229696 0.029379 0.711360 0.579096 0.840795 
466 -0.209185 0.521788 0.367952 0.354307 0.354543 -0.042693 0.195920 0.681724 0.376903 0.763879 
467 -0.219586 0.518303 0.192009 0.469409 0.480187 -0.281278 0.005255 0.765755 0.475018 0.778504 
468 0.017985 -0.101062 -0.051914 0.829035 -0.304305 0.773810 0.102193 0.943893 0.524190 0.123615 
469 -0.062922 0.474511 0.592196 0.373081 0.057119 0.022826 0.155353 0.827542 0.182734 0.169290 
470 0.029169 0.398668 0.316345 0.323854 0.104392 -0.270244 -0.056879 0.897996 0.433483 0.607970 
471 -0.182298 -0.177476 -0.084276 0.696231 0.124129 -0.441299 0.325972 1.099800 0.283155 0.166902 
472 -0.097113 -0.207694 -0.106293 0.774781 0.301621 -0.175611 0.268003 0.659036 0.448364 0.490268 
473 -0.199793 0.243752 -0.048069 0.473657 0.215798 -0.016833 0.061547 0.506377 0.883486 0.592370 
474 -0.142454 -0.256799 -0.235014 0.854101 -0.171498 0.685593 0.050821 0.889944 0.712074 0.110176 
475 -0.197649 0.450910 0.209116 0.448409 0.340743 -0.104724 0.163361 0.654088 0.510475 0.821999 
476 0.142546 0.255112 0.507518 0.480244 -0.169387 0.503856 -0.061373 0.629656 0.164212 0.259614 
477 -0.046636 0.779555 0.405737 0.520194 0.399362 -0.204409 0.004592 0.773527 0.242883 0.764036 
480 0.201866 -0.093852 0.290445 0.805962 0.206574 0.018251 0.251155 0.713098 0.348835 0.267162 
481 -0.001650 0.899118 0.145506 0.318512 0.187629 0.088388 -0.171858 0.637459 0.452804 0.819541 
482 -0.219701 0.537326 0.374162 0.441372 0.386253 -0.143369 0.002988 0.761839 0.381310 0.633324 
483 -0.003154 0.735671 0.269042 0.530462 0.532195 -0.114870 0.124900 0.746210 0.608804 0.848597 
484 -0.071141 -0.157421 0.039879 1.165397 0.153467 -0.332057 0.396651 1.271193 0.547462 -0.209213 
485 -0.417524 -0.232958 -0.121271 0.669186 0.169867 -0.051329 0.090724 0.888262 0.540325 -0.034291 
486 -0.098600 -0.237532 0.034225 0.724571 0.314621 -0.389244 0.377084 0.954532 0.273310 0.238422 
487 0.059828 -0.088373 0.306299 0.763542 0.210235 -0.223348 0.240179 0.951695 0.263924 0.376412 
488 -0.242759 -0.156513 -0.104762 0.724407 0.343850 -0.470317 0.469620 0.941934 0.291228 0.434717 
489 -0.339758 -0.013133 -0.105892 0.556734 0.253896 0.781978 0.019905 0.373005 0.674791 0.844862 
490 -0.286160 0.223358 0.075780 0.438745 0.480892 0.037329 0.037378 0.484359 0.721150 0.760797 
491 -0.145675 -0.154973 -0.315233 0.958455 -0.061447 0.683930 0.157844 0.789174 0.628013 0.104372 
492 -0.121411 0.347591 0.013211 0.340053 0.211853 0.038134 -0.037054 0.572780 0.776966 0.683557 
493 -0.209807 0.650437 0.078453 0.484216 0.526103 -0.284325 0.093489 0.803713 0.506816 0.877119 
494 -0.451167 0.243136 -0.012937 0.310150 -0.115855 0.896897 -0.109917 0.770999 0.837434 0.320657 
495 0.018774 0.094208 0.129464 0.909659 0.231777 -0.378680 0.310949 0.885391 0.164753 0.402955 
496 -0.131193 0.051325 0.165368 0.736528 -0.258951 -0.187077 0.082488 1.387650 0.070563 -0.215488 
497 -0.130228 -0.225612 -0.183365 0.678975 0.303035 -0.343073 0.267553 1.092660 0.275628 0.242825 
498 -0.158345 0.067818 0.053927 0.716438 0.062018 -0.337627 0.119328 1.071543 0.194075 0.018119 
499 -0.501533 0.377337 0.133941 0.345559 0.417767 -0.099206 0.007307 0.695951 0.413477 0.564554 
500 -0.128573 0.247664 0.305743 0.331227 0.017939 0.562240 -0.162154 0.536580 0.671085 0.465703 
502 0.223780 0.900266 0.570627 0.330250 -0.058511 0.107365 -0.303656 1.119730 0.015810 0.175114 
503 -0.026015 0.579381 0.185162 0.388087 0.535055 -0.030992 0.035641 0.775326 0.489843 0.801959 
504 -0.137675 0.571814 0.100096 0.542130 0.427376 -0.285678 0.118158 0.817199 0.537479 0.955850 
505 -0.393239 0.393689 0.080076 0.423017 0.083442 0.624961 -0.265770 0.379418 0.656783 0.573642 
506 -0.022169 0.701271 0.123391 0.323881 0.475814 -0.075157 0.063105 0.883124 0.495136 0.895010 
507 0.197999 0.676653 0.371673 0.198008 0.254274 0.242046 0.070157 0.807161 0.314808 0.768510 
508 0.073326 0.666231 0.233105 0.261871 0.385879 0.227601 0.067095 0.683952 0.416345 0.855334 
509 -0.231722 0.353814 0.317191 0.424629 0.048710 0.695955 -0.241132 0.536279 0.740819 0.466727 
510 -0.178600 0.616234 0.055419 0.323288 0.350465 -0.106276 0.055474 0.843007 0.426996 0.976221 
511 -0.187347 0.327450 0.383826 0.414545 0.290515 0.054081 0.145389 0.689208 0.183457 0.496829 
512 -0.178611 0.600263 0.315796 0.397599 0.411756 0.177673 -0.011871 0.735156 0.167293 0.962264 
513 0.038965 0.640616 0.249626 0.349663 0.198935 -0.000442 0.105363 0.780824 0.370413 0.667194 
514 -0.135465 -0.134608 0.030170 0.698892 0.139509 -0.403268 0.364151 1.024911 0.205360 0.327036 
515 0.319605 0.164601 0.193446 0.591006 -0.027103 -0.029792 0.136960 0.803533 0.083627 0.265390 
516 -0.190428 -0.214751 -0.073160 0.709016 -0.084563 0.162143 0.358667 1.092533 0.367650 -0.083261 
517 -0.132494 0.414857 0.462353 0.403638 0.295784 -0.000616 0.066570 0.828962 0.335649 0.591487 
518 -0.094955 0.385061 0.407176 0.232674 -0.106952 0.138380 0.366567 0.865061 0.267017 0.295070 
519 -0.101836 0.358870 0.207867 0.326318 -0.037723 0.656986 -0.287881 0.592664 0.467652 0.389605 
520 -0.316727 -0.237383 -0.137520 0.602904 0.305455 -0.493317 0.350512 1.040851 0.303797 0.523563 
521 -0.022338 -0.054233 -0.001250 0.815818 -0.013217 -0.145474 0.469985 1.118190 0.227749 -0.157238 
522 -0.527451 0.197133 0.333589 0.363673 0.333842 0.587486 -0.193829 0.398119 0.558264 0.525086 
523 -0.105717 -0.021418 -0.032326 0.919357 -0.103731 0.529166 0.291559 0.857247 0.331669 0.081066 
524 -0.088065 0.497548 0.134505 0.443498 0.445426 0.148865 0.057227 0.542027 0.397533 0.949612 
526 -0.229928 0.410085 0.217798 0.438199 0.318779 0.055318 0.024867 0.580627 0.215818 0.844253 
527 -0.138361 0.289732 0.272777 0.325768 -0.001076 0.643192 -0.181256 0.790435 0.228112 0.296696 
529 -0.126097 0.471316 0.226507 0.384203 0.264259 0.193010 -0.072373 0.593302 0.181844 0.859782 
530 0.351065 0.080110 0.303068 0.613782 -0.260832 0.278604 0.244203 0.810326 0.233773 0.199847 
531 -0.226563 0.375487 0.212987 0.409110 0.090941 0.425693 -0.231287 0.548326 0.618004 0.381264 
532 -0.089895 0.103089 0.006844 0.537098 -0.311827 1.076507 0.122358 1.140627 0.720896 0.369158 
533 -0.214825 -0.120406 -0.152611 0.687900 -0.139383 0.248482 0.214345 1.215987 0.327684 -0.153816 
534 -0.030457 0.642414 0.628943 0.342313 0.022842 0.312888 -0.286332 0.915244 0.018723 0.271470 
535 -0.189131 0.015331 0.046882 0.671199 0.329247 -0.176482 0.441015 0.780455 0.253544 0.222730 
536 -0.372888 0.360602 0.119311 0.390241 0.499658 -0.230916 0.142517 0.686565 0.491430 0.671143 
537 -0.209193 0.697768 0.261283 0.343058 0.328929 0.168449 -0.122576 0.776750 0.735784 0.929472 
538 -0.295362 -0.141297 -0.256599 0.631535 0.379743 -0.578094 0.371261 1.144806 0.326925 0.410580 
539 -0.203455 -0.153497 -0.085328 0.776084 0.094031 -0.430104 0.380561 1.226514 0.345893 0.179161 
540 0.264693 1.050734 0.540552 0.452899 0.043811 -0.315798 -0.181625 1.298473 0.238221 0.625094 
541 -0.108140 0.527681 0.182331 0.471031 0.208819 -0.225785 0.013158 0.856279 0.546581 0.793780 
543 0.395059 0.507828 0.537247 0.638217 -0.234918 0.001058 -0.268451 1.062217 -0.356186 0.163117 
545 -0.056989 0.079493 0.450658 0.683079 0.109368 -0.096009 -0.050377 0.879664 -0.018797 0.141446 
546 0.362937 0.138190 0.317929 0.794670 -0.414805 0.311016 -0.040089 1.023640 0.240181 -0.051115 
547 -0.117255 0.729147 0.162585 0.581527 0.360400 0.228013 -0.006903 0.762152 0.857239 1.182011 
548 0.049255 0.071263 0.213291 0.834546 0.246447 -0.272403 0.317154 0.891258 0.129479 0.383009 
549 -0.190674 0.374971 0.111156 0.459782 0.330142 0.153896 0.047276 0.579272 0.516115 0.775323 
551 0.196630 0.842167 0.566892 0.320959 -0.129578 0.596933 -0.276568 0.783116 0.231155 0.559574 
552 -0.356680 0.414691 0.211104 0.520087 0.240185 0.803988 0.083118 0.259924 0.825788 0.551981 
553 -0.191820 -0.155210 -0.243149 0.894099 -0.118963 0.313407 0.321805 1.115074 0.445391 -0.119469 
554 -0.300397 0.382551 0.211602 0.456201 0.469752 0.137114 0.067620 0.607109 0.202173 0.722222 
555 -0.156175 -0.080512 -0.068212 0.778691 0.357319 -0.187804 0.324729 0.629150 0.322486 0.501923 
556 -0.117485 -0.088527 -0.281010 0.945855 0.427667 -0.253710 0.369473 0.660183 0.449007 0.574312 
557 -0.069159 -0.166506 0.244842 0.738359 0.062370 0.388068 0.189318 0.502052 0.363943 0.312986 
558 -0.076409 0.418771 0.621976 0.383885 -0.206462 0.422091 -0.328098 0.751597 0.241169 0.425766 
559 -0.236876 -0.197995 -0.283006 0.839728 -0.299181 0.383259 0.336708 1.229310 0.376324 -0.069330 
560 -0.004303 0.292365 0.346795 0.573961 0.162557 0.101205 0.215861 0.711479 0.256867 0.511547 
562 -0.136511 -0.241942 0.123415 1.106328 -0.362794 0.038679 0.489122 1.341084 0.717993 -0.297709 
563 -0.267416 -0.136384 -0.122226 0.772880 0.000408 0.234655 0.373307 1.101945 0.411760 -0.166573 
565 -0.380566 -0.195484 0.182568 0.687588 0.247551 0.421209 0.323315 0.576241 0.257109 0.198025 
566 -0.120212 -0.373095 0.011493 0.895107 -0.063445 0.518325 0.051044 0.511258 0.848047 0.365070 
567 0.002344 0.738481 0.276030 0.335725 0.134542 0.271394 -0.293405 0.563878 0.591504 0.593871 
568 -0.209215 0.581049 0.111017 0.520448 0.533798 -0.291516 0.019576 0.727623 0.461734 0.866707 
569 -0.016123 0.410408 0.318992 0.291321 0.197463 -0.050914 0.088857 0.825703 0.292007 0.507589 
570 -0.231469 -0.160812 -0.087226 0.702693 -0.102929 0.082954 0.401212 1.037909 0.411251 -0.210698 
572 0.004312 0.736477 0.202957 0.463875 0.408919 -0.198405 0.141826 0.734361 0.526937 0.887032 
573 0.168748 0.470273 0.151038 0.303713 0.041948 -0.221969 -0.122531 0.875675 0.467119 0.623782 
575 -0.225870 -0.100854 0.012563 0.765908 -0.160168 0.691716 0.210000 0.929544 0.566840 0.052942 
577 -0.173027 0.581782 0.071407 0.456177 0.423454 -0.285390 0.052967 0.707686 0.547208 0.821175 
578 0.334697 0.120356 0.155096 1.085746 -0.254036 -0.036431 0.219373 1.180464 0.112668 -0.167877 
579 -0.164786 0.715967 0.208889 0.371019 0.400507 0.145710 -0.104451 0.626049 0.694525 0.851105 
580 0.119452 0.807247 0.510777 0.298004 -0.029179 -0.000811 0.146722 0.876723 -0.006804 0.327399 
581 0.024369 0.877572 0.422634 0.346546 0.386385 -0.114903 -0.018608 0.841247 0.190787 0.780502 
582 -0.192696 0.531334 0.327256 0.481193 0.284951 0.028689 0.104830 0.539593 0.204089 0.761896 
583 -0.129179 -0.124894 -0.070046 0.632554 0.067824 -0.299059 0.350853 1.195353 0.265110 0.116157 
584 -0.081899 0.738378 0.495431 0.311509 0.227638 0.214476 -0.112066 0.713482 0.605586 0.611021 
585 -0.374821 0.023796 0.090456 0.775950 0.392349 -0.240391 0.318610 0.743183 0.096285 0.488713 
586 0.026432 -0.197128 -0.016653 0.898840 0.092721 -0.085490 0.546599 1.283782 0.319828 -0.182587 
587 -0.370970 -0.246278 -0.310420 0.669197 -0.213362 0.520194 0.265022 1.098910 0.522273 0.008895 
588 -0.176370 0.223966 0.134355 0.283232 -0.136876 0.913550 -0.017724 0.731238 0.684590 0.301412 
590 -0.081086 0.174474 -0.057410 0.508980 0.006284 0.482895 -0.086503 0.610942 0.362381 0.356606 
591 -0.118303 0.297047 0.189330 0.281289 0.287719 0.297985 0.225115 0.616062 0.488288 0.425490 
592 0.245383 -0.066169 0.305231 0.883915 0.127508 0.012090 0.222773 0.761208 0.377750 0.260619 
593 -0.011099 0.693306 0.258643 0.363510 0.461047 -0.049324 0.066621 0.730327 0.471346 0.990575 
594 -0.015448 0.425071 0.307697 0.342476 0.112841 -0.037174 -0.040811 0.780269 0.501315 0.565077 
595 -0.014436 0.064014 0.102289 0.869106 -0.323191 0.439426 -0.028005 0.909736 0.328030 0.034564 
596 -0.093687 -0.098823 0.001193 0.898602 -0.094084 -0.170262 0.262368 1.157256 0.288273 -0.188212 
597 -0.037590 0.133353 -0.049536 0.804886 0.308480 -0.385023 0.289533 0.905499 0.221998 0.644214 
598 -0.362518 0.589677 0.207486 0.362203 0.054080 0.690777 -0.291451 0.556175 0.657793 0.516177 
599 -0.115757 0.515682 0.193194 0.283394 -0.011971 0.605246 0.080481 0.741681 0.648327 0.271030 
600 -0.235280 -0.141289 -0.067544 0.755158 0.066084 0.359700 -0.011256 0.541878 0.414249 0.339293 
601 -0.179551 0.070880 -0.249639 0.799731 -0.114577 0.298235 0.065252 0.794330 0.401464 0.088986 
602 0.295675 0.106718 0.117540 0.624365 -0.119230 0.268694 0.084455 0.894834 0.239235 0.084768 
603 -0.202521 0.001903 0.051957 0.975794 -0.168128 0.108389 0.047162 0.822401 0.252539 -0.145515 
604 -0.198261 -0.099578 -0.165531 0.902931 0.543120 -0.214419 0.242005 0.677242 0.346457 0.670294 
605 0.171384 0.823533 0.409667 0.332765 0.193912 0.393719 -0.245424 0.706293 0.321703 0.816657 
606 0.076879 0.635101 0.286037 0.166012 -0.164357 0.385445 -0.094144 0.747801 0.258653 0.472514 
607 0.123511 0.758838 0.249336 0.237496 0.246738 0.202327 0.156502 0.740958 0.452569 0.973764 
608 0.118961 0.750218 0.293518 0.230918 -0.139021 0.931865 -0.132213 0.619770 0.435519 0.466189 
609 0.178866 0.795182 0.526129 0.252259 -0.110645 0.572851 -0.303049 0.722245 0.277433 0.475445 
610 0.092961 -0.008123 0.218695 0.815104 0.191548 -0.260422 0.252694 0.848678 0.235058 0.397406 
611 0.186543 0.642227 0.457575 0.256734 0.171565 0.183489 0.095489 0.719358 0.316397 0.634873 
612 0.063611 0.721524 0.271826 0.231101 0.261531 0.187619 0.200736 0.741182 0.384891 0.921891 
613 0.201456 0.655543 0.454583 0.186172 -0.146703 0.433640 -0.135650 0.942253 0.163534 0.356631 
614 0.120288 0.438790 0.362108 0.256443 -0.094143 -0.003287 -0.121482 0.982998 0.351509 0.442585 
615 -0.041916 0.353302 0.202596 0.312062 -0.067944 0.631183 -0.081509 0.707768 0.516801 0.290335 
616 -0.317740 0.224694 0.059317 0.357117 -0.156410 0.831147 0.060161 0.678256 0.639255 0.321786 
618 -0.169279 0.421616 0.376077 0.391801 0.467215 0.012663 0.201377 0.656273 0.578113 0.779206 
620 -0.012440 0.679728 0.311351 0.240103 0.129383 0.319695 -0.283422 0.834315 0.480353 0.500489 
621 -0.015617 -0.021907 -0.038884 0.818588 -0.044173 0.159593 0.304493 0.574841 0.483741 0.207238 
622 -0.262083 -0.166264 -0.140560 0.583408 0.399220 -0.448037 0.328514 0.997316 0.395702 0.389784 
623 -0.240057 -0.066250 -0.121187 0.710865 0.163801 -0.250304 0.608728 1.006250 0.364902 0.057187 
624 -0.346129 0.479313 0.110035 0.219933 -0.056721 0.833741 -0.089060 0.750890 0.646371 0.505438 
626 -0.296902 -0.246422 -0.150116 0.841192 -0.170773 0.651272 0.216297 0.706092 0.436895 0.285573 
627 -0.171159 -0.231171 -0.115159 0.797386 -0.115028 -0.194016 0.222085 1.259561 0.260871 -0.105003 
628 -0.244361 -0.189254 -0.209229 0.845219 -0.154909 0.069357 0.079128 1.137439 0.470912 -0.254460 
629 0.006139 0.159831 0.267510 0.465906 0.296929 -0.035953 0.089841 0.750427 0.026381 0.736034 
630 -0.088779 0.700386 0.227852 0.389902 0.469671 -0.054063 0.029582 0.690790 0.542414 1.022071 
631 -0.235399 -0.193366 -0.144962 0.853295 -0.172659 0.066449 0.153127 1.168905 0.415151 -0.199626 
632 -0.260576 -0.144235 -0.034727 0.763602 -0.111875 0.124122 0.381559 1.105492 0.446710 -0.176686 
633 -0.024481 -0.139005 0.019416 0.752303 -0.179833 -0.214658 -0.012351 1.149642 0.268602 -0.104687 
634 0.349146 0.712517 0.608038 0.667157 -0.164711 0.014725 -0.224956 0.999054 -0.304657 0.055005 
635 -0.133708 0.364908 0.257577 0.439370 0.370383 0.031200 -0.002454 0.536987 0.425454 0.813317 
636 0.079456 0.462169 0.250101 0.329583 0.098960 -0.105824 -0.005458 0.824633 0.484539 0.625722 
637 -0.012442 0.807901 0.380328 0.383888 0.447450 -0.207219 0.013402 0.796153 0.192447 0.803518 
638 0.198148 0.966052 0.585779 0.269190 -0.105759 0.133072 -0.066203 0.984235 -0.113707 0.100451 
639 0.191999 0.471860 0.371714 0.629573 0.261689 -0.314574 -0.022013 0.858475 -0.116511 0.630470 
640 0.214328 0.504548 0.377494 0.562553 0.292131 -0.254080 0.005941 0.723922 -0.018949 0.617545 
641 0.353889 0.292217 0.500421 0.581163 0.111438 0.063189 -0.077701 0.932861 -0.086349 0.405544 
642 -0.152889 -0.072378 -0.169798 0.684156 0.071355 -0.295557 0.640187 1.090213 0.417762 0.145626 
643 -0.110491 0.521523 0.150726 0.301828 0.056654 0.144978 -0.084938 0.818699 0.349353 0.276482 
645 -0.379436 -0.411747 0.143844 0.617800 -0.161055 0.566624 0.135270 0.672589 0.720256 0.066656 
646 -0.336119 -0.496629 0.049201 0.654423 -0.188022 0.491195 0.186300 0.776842 0.647478 0.068679 
647 -0.439670 -0.525185 0.014333 0.671892 -0.209387 0.695736 0.147379 0.863161 0.719275 0.139546 
648 -0.381658 -0.423392 0.061256 0.661890 -0.136345 0.715036 0.114215 0.806606 0.724460 0.039343 
649 -0.110846 -0.104971 0.151829 0.692507 0.033813 0.303148 0.405074 0.747735 0.480452 -0.005496 
650 -0.218823 0.410544 0.257972 0.231411 0.231540 0.071215 0.022822 0.689244 0.580460 0.666478 
653 0.239102 0.207637 0.379031 0.913377 -0.303207 -0.365455 -0.349334 1.678371 0.015359 -0.244854 
655 -0.035294 -0.062167 -0.134703 0.919347 -0.218656 0.589941 0.211223 0.843212 0.711517 0.027848 
656 -0.138266 -0.104819 0.040543 0.748143 0.296193 -0.027016 0.237125 0.570681 0.323112 0.636018 
657 -0.210988 -0.158867 -0.131712 0.721441 -0.132438 0.719053 0.112774 0.739822 0.563206 0.233305 
658 -0.059474 0.051559 0.052622 0.860301 0.381826 -0.373142 0.299092 0.824247 0.212508 0.657894 
659 -0.037104 0.056107 0.090179 0.681334 0.359822 -0.108745 0.362046 0.743262 0.188542 0.675985 
661 0.026495 -0.116007 0.005138 0.842177 -0.334381 0.772856 0.155888 0.870175 0.570719 0.164666 
662 -0.152864 0.429113 0.542489 0.309020 0.121846 0.222459 -0.216257 0.613605 0.530385 0.405937 
664 -0.219075 0.182164 0.120764 0.295652 -0.050328 0.950424 -0.072212 0.834303 0.758470 0.274236 
665 -0.133910 -0.145200 0.036435 0.627711 0.327836 -0.460629 0.300923 1.065680 0.301828 0.275834 
666 -0.214031 0.447303 0.199786 0.447254 0.496046 0.023484 0.100747 0.557443 0.447661 0.752059 
667 -0.193774 0.485992 0.071810 0.404123 0.490084 -0.222980 0.036597 0.861744 0.517799 0.879511 
668 -0.036809 -0.224806 0.010588 0.924145 -0.085417 0.302057 0.285106 0.862557 0.473684 -0.014682 
669 0.156668 0.108053 0.139232 0.763068 -0.290127 0.393607 0.217975 0.915904 0.303770 -0.019217 
670 -0.009181 -0.094184 0.152701 0.653968 0.014081 0.488034 -0.006214 0.636592 0.294754 0.261580 
671 -0.001536 -0.079047 0.159991 0.791563 -0.097534 -0.301821 0.289211 1.149731 0.326196 -0.071124 
672 -0.045901 0.026230 0.146549 0.894882 -0.247775 0.109859 0.026127 0.895715 0.226245 -0.044979 
673 -0.269259 0.068353 -0.066183 0.499980 -0.058092 -0.234718 -0.004122 0.822550 0.145015 0.324753 
674 -0.159795 0.661491 0.279662 0.314417 0.535683 -0.035821 0.101592 0.732751 0.547974 0.970200 
675 0.131006 0.019180 0.136722 1.015689 -0.227040 -0.119653 0.367356 1.027536 0.151855 0.083107 
676 -0.188794 0.486683 0.087002 0.445556 0.494610 -0.282563 -0.002405 0.757321 0.582255 0.774149 
677 -0.280145 0.266789 0.130742 0.389469 -0.255148 1.090117 -0.062471 0.872448 0.819325 0.433369 
678 0.046683 -0.026992 0.111795 0.761346 -0.096131 0.444072 -0.105178 0.814728 0.362494 -0.101699 
679 -0.233119 0.253304 0.141313 0.345818 -0.110028 1.067818 -0.115209 0.805045 0.748286 0.240862 
680 -0.075094 0.751221 0.165261 0.378740 0.422449 -0.070648 0.096815 0.778974 0.563488 0.910229 
681 -0.221203 0.442186 0.310034 0.492151 0.450315 -0.046048 0.018263 0.574199 0.384590 0.724137 
682 -0.216537 0.485129 0.305716 0.364232 0.493658 0.100160 -0.001437 0.751241 0.471888 0.908574 
683 0.076797 0.785161 0.467107 0.318139 0.130446 0.001695 -0.047909 0.793754 0.206726 0.336991 
684 -0.013665 0.115104 0.031571 0.818831 -0.202440 -0.246680 0.121926 0.879981 0.170051 0.111692 
685 -0.205344 0.374109 0.115876 0.366242 0.472763 0.022277 -0.024333 0.779172 0.498285 0.716054 
686 -0.076998 0.449612 0.223598 0.357371 0.161971 0.023718 -0.170944 0.801656 0.310528 0.409113 
687 -0.061798 0.465917 0.083802 0.355343 0.428972 0.144839 0.067215 0.614726 0.465195 0.973980 
688 -0.054026 0.635860 0.153186 0.436157 0.531590 -0.147497 0.163065 0.770585 0.586009 0.955686 
690 -0.303737 -0.183314 -0.186706 0.774120 -0.091037 0.032647 0.158751 1.147811 0.443314 -0.309230 
691 -0.084786 0.437182 0.366463 0.281064 -0.022801 0.054171 0.188328 0.960950 0.156281 0.216465 
692 -0.065336 0.432425 0.439645 0.312447 0.122426 0.078483 0.049626 0.731581 0.516078 0.426015 
693 -0.350631 0.367198 0.127468 0.472443 0.403153 -0.085092 0.149136 0.547344 0.587131 0.814632 
694 -0.205602 0.582144 0.378055 0.397074 0.096714 0.138310 -0.320807 0.630805 0.429048 0.665407 
696 -0.036763 0.313608 0.213640 0.376657 -0.016538 0.528569 -0.140470 0.511373 0.671848 0.366951 
697 -0.214890 -0.267459 -0.270143 0.890113 -0.313189 0.678661 0.134382 0.948091 0.684448 0.122001 
698 0.029915 -0.071078 0.044538 0.914474 0.043199 0.126186 0.341391 0.932251 0.212785 0.013683 
699 0.357148 0.397451 0.194290 0.697167 -0.096333 -0.218921 -0.205326 1.001816 0.043845 0.331151 
700 0.171374 0.386584 0.239801 0.407573 -0.168356 -0.128760 -0.040559 0.813928 -0.082392 0.493853 
701 -0.350501 0.240251 0.147169 0.349777 -0.243661 1.004744 -0.056961 0.796933 0.724120 0.299618 
702 0.157888 0.113044 0.136266 0.732219 0.311240 -0.269435 0.338948 0.819788 0.150570 0.553398 
703 -0.062382 0.969571 0.500278 0.493872 0.194768 0.196128 -0.278054 0.862719 0.591232 0.906945 
704 0.024741 0.249602 0.214099 0.625558 0.267451 -0.246024 0.125142 0.788073 0.183517 0.758946 
705 -0.136725 0.637541 0.453855 0.283235 0.169620 0.404714 -0.161453 0.552510 0.167744 0.561112 
706 -0.115563 0.384017 0.203061 0.435167 0.412757 0.198144 0.008029 0.514991 0.587941 0.886668 
707 0.292286 0.028560 0.233597 0.740075 -0.218724 0.146772 0.029142 1.135236 0.038724 -0.028172 
708 -0.283266 0.413157 0.120447 0.264280 0.419898 -0.061779 -0.028116 0.812087 0.513654 0.884670 
709 -0.061300 0.696635 0.227791 0.355106 0.586878 -0.123120 0.047297 0.805111 0.469714 0.938342 
711 -0.234416 -0.103527 -0.288970 0.945668 -0.148025 0.589404 0.131519 0.713213 0.653060 0.076799 
712 -0.132458 0.591686 0.415001 0.264913 0.146946 0.039834 0.215267 0.797428 0.055137 0.284605 
713 -0.142008 0.364976 -0.006989 0.322816 -0.226837 0.736831 -0.146698 0.789066 0.610580 0.258614 
714 -0.094712 0.346019 0.201149 0.361028 -0.040258 0.767199 -0.279371 0.596041 0.548499 0.437664 
715 -0.044201 -0.144082 -0.054850 0.827502 -0.062784 -0.143898 0.427613 1.097880 0.288875 -0.092307 
716 -0.237944 0.692038 0.177937 0.231771 -0.096421 0.819330 -0.337073 0.742371 0.701523 0.393477 
717 -0.156801 -0.254854 0.044904 0.745342 -0.132866 0.736681 0.011740 0.817337 0.639633 0.028369 
718 -0.103582 -0.177863 0.066590 0.756220 -0.003767 -0.101853 0.456768 1.091180 0.192050 -0.058677 
719 -0.112702 -0.093751 -0.201897 0.848627 0.518984 -0.317304 0.313734 0.688821 0.484375 0.792311 
720 -0.263085 0.460511 0.269329 0.429643 0.517964 -0.008208 0.071073 0.561856 0.330825 0.809517 
721 -0.133361 0.288195 -0.125816 0.367967 0.284254 0.043889 0.002515 0.593435 0.713898 0.619028 
722 -0.220687 0.064859 -0.025222 0.750519 0.398178 -0.333592 0.371026 0.786515 0.168748 0.702129 
723 -0.305625 0.373452 -0.119399 0.455003 0.374684 -0.117878 0.182224 0.664866 0.751464 0.905332 
724 -0.225288 0.365026 -0.002927 0.484867 0.522369 -0.192222 0.039596 0.657183 0.700440 0.873634 
726 -0.221856 0.357626 -0.011645 0.480705 0.431449 -0.154286 0.088417 0.622122 0.716784 0.877404 
727 -0.004265 0.338901 0.321825 0.312205 -0.266873 0.716890 -0.140164 0.749373 0.633121 0.301812 
728 -0.138411 -0.150206 -0.226099 0.901689 -0.213480 0.639590 0.100165 0.878502 0.693834 0.118411 
729 -0.132077 0.333739 0.253170 0.472000 0.433917 0.110049 -0.023055 0.636895 0.299416 0.877106 
730 -0.127850 0.499610 0.402781 0.352648 0.158656 0.324328 -0.263168 0.502169 0.297255 0.645525 
731 -0.220915 0.247919 0.078922 0.356433 -0.199526 1.040695 -0.022293 0.894507 0.769561 0.335506 
733 0.064259 -0.063639 0.203676 0.976400 0.072306 -0.368999 -0.101576 0.923215 0.080938 0.196419 
735 0.118251 0.177715 -0.037666 0.310539 -0.100554 0.809493 0.145541 0.874594 0.611588 0.479970 
736 0.154427 0.848683 0.302480 0.309519 0.212552 0.469250 -0.255883 0.627508 0.350561 0.733787 
737 -0.048490 0.541617 0.241555 0.281235 0.065518 0.677188 -0.098987 0.581902 0.496351 0.656968 
738 0.126625 0.766263 0.503864 0.207135 -0.188169 0.510951 -0.141019 0.798677 0.305739 0.555259 
739 0.018931 0.645481 0.304882 0.263161 0.411846 0.253595 -0.034499 0.672150 0.402269 0.835266 
740 -0.321475 0.356911 0.308104 0.415354 0.316069 0.563640 -0.391016 0.407831 0.597093 0.636510 
741 -0.133761 0.016552 0.015821 0.876499 0.456927 -0.387003 0.240924 0.804970 0.232277 0.732283 
742 -0.227036 0.439517 0.002265 0.466303 0.459035 -0.068071 0.147848 0.592068 0.624258 0.788550 
743 -0.158707 0.083070 -0.067878 0.938987 0.529524 -0.353082 0.362730 0.866689 0.147231 0.712208 
744 -0.179314 0.733354 0.275287 0.407436 0.275070 0.121255 -0.059983 0.663018 0.830098 0.812151 
745 0.052834 0.044126 0.168130 0.787434 -0.336167 0.323284 0.242803 0.969175 0.225938 -0.090804 
746 -0.125292 0.084668 -0.094718 0.916836 0.342957 -0.330211 0.288897 0.834855 0.196681 0.674675 
747 0.363122 0.072638 0.428850 0.685947 -0.192829 -0.097327 0.026132 0.962634 -0.040490 0.272432 
748 -0.157662 0.497787 0.207178 0.366436 0.399534 0.259619 -0.037719 0.598934 0.573604 0.995179 
749 -0.195622 0.411215 -0.105482 0.418716 0.408901 -0.038996 0.067093 0.695363 0.684992 0.840662 
751 -0.212412 -0.187968 -0.074476 0.747138 -0.321264 0.084734 0.230320 1.070230 0.440464 -0.074323 
752 -0.100053 0.556470 0.224515 0.290499 0.308307 -0.104620 0.176272 0.968225 0.666850 0.465062 
753 -0.351120 -0.237592 -0.226014 1.139098 -0.092175 0.354814 0.509666 1.347417 0.787434 -0.220601 
754 -0.267387 0.410006 0.230370 0.382624 0.343867 -0.013113 0.044000 0.759201 0.449386 0.661289 
755 -0.061405 0.610468 0.246946 0.451580 0.259456 -0.085881 0.077576 0.806278 0.548221 0.825949 
756 -0.192423 0.672558 0.200337 0.214039 -0.125767 0.716094 -0.274706 0.614841 0.550899 0.422854 
757 -0.280552 -0.120940 -0.225574 0.544167 0.337513 -0.519081 0.317838 1.025235 0.484121 0.299977 
758 0.195992 0.225868 0.379473 0.813066 -0.181915 -0.018564 -0.063775 1.179289 -0.092938 -0.068590 
759 -0.234804 0.604538 0.365353 0.318548 -0.059560 0.633047 -0.265058 0.637355 0.610282 0.294509 
760 -0.117584 0.434674 0.040520 0.468762 -0.282247 0.471585 -0.051125 0.842044 0.518494 0.163603 
761 -0.213199 0.557199 0.156822 0.432583 0.461123 -0.236165 0.084083 0.825948 0.479884 0.909201 
762 0.221597 0.146178 0.172250 0.807439 0.116714 -0.120288 -0.099573 0.930492 0.041763 0.201559 
763 0.007723 -0.016932 0.056524 0.687042 0.279567 -0.122984 0.301411 0.681633 0.286935 0.555652 
764 -0.204088 0.262437 0.150661 0.305138 -0.005292 0.726327 0.042417 0.733050 0.533414 0.287613 
765 -0.158978 0.522752 0.159532 0.498957 0.477899 -0.236381 0.014058 0.727519 0.514788 0.819704 
766 -0.213874 -0.287797 -0.324140 0.916495 -0.079027 0.721907 0.206270 0.878531 0.508936 0.153590 
767 -0.004308 0.450579 0.184552 0.261489 0.127671 0.007233 0.124070 0.751141 0.450816 0.484320 
768 -0.051640 0.448149 0.171751 0.337556 0.175917 0.154560 -0.212875 0.685646 0.475018 0.578276 
769 -0.212088 0.442543 0.201975 0.481316 0.344343 0.024357 0.060180 0.594232 0.571701 0.861858 
770 -0.064703 0.309962 0.264900 0.415912 -0.077056 0.383090 0.126729 0.744558 0.549496 0.065488 
771 -0.205495 -0.040441 -0.083146 0.782244 -0.179389 0.748574 0.084611 0.672519 0.425958 0.181742 
772 0.111538 0.870574 0.345529 0.436598 0.100142 -0.019699 -0.048514 0.812587 0.160702 0.578851 
773 0.326274 0.541028 0.492672 0.644909 0.097465 -0.229607 0.018871 0.983051 -0.257958 0.440949 
774 -0.051530 -0.094082 -0.051001 1.063119 0.071171 -0.077652 0.532402 0.852874 0.362463 0.041097 
775 -0.135687 0.439393 0.310991 0.365768 0.144277 0.184493 -0.134662 0.651149 0.395367 0.493915 
777 -0.220617 -0.217575 -0.261636 1.034896 -0.079512 0.392893 0.345601 0.747861 0.499935 0.074047 
778 -0.160570 0.376479 0.154470 0.265208 0.166416 0.364525 0.074277 0.583022 0.602928 0.402404 
779 0.088308 0.658382 0.441936 0.267536 -0.175329 0.580321 0.130165 0.789550 0.812891 0.248151 
780 -0.077921 0.719592 0.145971 0.343213 0.463325 -0.089434 0.097685 0.754806 0.581757 0.946273 
781 -0.133946 0.715611 0.205062 0.333916 0.248793 0.158892 -0.025004 0.622462 0.812891 0.894280 
782 -0.244531 0.458160 0.267639 0.348502 0.287853 0.148977 0.116625 0.469311 0.509738 0.875702 
783 -0.128473 -0.072797 -0.159230 0.822708 0.377343 -0.244294 0.270264 0.657007 0.482287 0.564802 
784 0.049038 0.713896 0.295990 0.300719 0.066855 0.319572 0.064651 0.853490 0.307772 0.244050 
785 0.056806 0.431343 0.232795 0.313466 0.098457 -0.116296 0.067033 0.870683 0.403323 0.636614 
786 -0.270578 0.398251 0.105971 0.529832 0.027925 0.684712 -0.306907 0.415831 0.694708 0.606359 
788 0.097682 -0.061345 0.041131 1.125048 0.052179 -0.096471 0.545432 0.854713 0.473946 -0.022388 
789 -0.245423 0.368334 -0.087958 0.486373 0.316003 -0.103772 0.136320 0.612772 0.632632 0.830012 
790 -0.239095 0.613821 0.461001 0.387832 0.233748 0.369766 -0.261894 0.483932 0.143769 0.713602 
791 0.030876 0.435397 0.017970 0.272954 0.024352 0.303235 -0.120182 0.603082 0.421811 0.270032 
792 -0.259311 0.402606 0.145314 0.407771 0.238792 0.769527 0.146913 0.263181 0.751617 0.583385 
793 -0.314939 0.335743 0.043279 0.453686 0.544004 -0.087319 0.095375 0.729759 0.653949 0.840772 
794 -0.008165 0.612253 0.179928 0.423914 0.488994 -0.178939 0.090472 0.794417 0.529732 0.798502 
795 -0.109806 0.522022 0.131500 0.510229 0.291155 0.181696 -0.040640 0.468978 0.634005 0.962574 
796 0.209026 0.591981 0.212836 0.200917 0.165434 0.032253 0.208271 0.833324 0.283971 0.371199 
797 0.039671 0.277704 0.025379 0.484723 -0.185144 0.565635 -0.107675 0.667021 0.397508 0.277882 
798 -0.196597 0.469695 0.111793 0.386874 0.318242 0.046572 0.144563 0.658687 0.416480 0.928704 
799 -0.275693 0.334321 -0.001082 0.513234 0.474244 -0.172403 0.081454 0.611586 0.734406 0.922410 
800 0.084613 0.628833 0.216521 0.427984 0.331238 -0.089974 0.016037 0.812389 0.491713 0.680591 
801 0.136108 0.021714 -0.037930 0.588880 -0.047717 0.554263 0.208554 0.757580 0.428760 0.086356 
802 -0.277020 0.293380 -0.032319 0.394276 -0.123542 1.026288 -0.138328 0.560197 0.655919 0.610619 
803 0.161806 0.391419 0.727445 0.277772 -0.108151 0.293990 -0.397467 1.009276 0.102948 0.152775 
804 -0.112592 0.685334 0.227362 0.301531 0.358253 0.018691 0.128391 0.737924 0.485375 0.905438 
805 0.292190 0.194845 0.316851 0.595382 -0.425989 0.605547 0.032119 0.900824 0.249970 0.019273 
806 -0.222101 0.328990 -0.002929 0.468133 0.349684 -0.076671 0.153899 0.642166 0.612494 0.954581 
808 -0.074318 0.682194 0.217874 0.441907 0.565682 -0.029354 0.103166 0.718861 0.597213 0.981694 
811 -0.299443 -0.127821 -0.267395 0.791587 -0.189800 0.369573 0.299445 1.271802 0.465219 -0.112077 
812 -0.144425 0.737204 0.175750 0.600092 0.585321 -0.019412 0.075390 0.789934 0.712674 1.202876 
813 -0.334659 0.432213 0.165478 0.311561 0.178636 0.644166 0.077231 0.368795 0.843793 0.724232 
814 -0.176271 -0.170742 -0.081207 0.840129 0.064492 0.276888 -0.074812 0.625340 0.551285 0.218988 
815 -0.245395 -0.188478 -0.268493 0.922256 -0.097459 0.677908 0.206577 0.826858 0.581241 0.116931 
816 -0.125801 -0.092253 -0.162734 0.837943 0.414860 -0.208571 0.282908 0.646346 0.424281 0.624831 
817 -0.164756 0.597422 0.280200 0.277123 0.079172 0.661034 -0.222591 0.469368 0.468475 0.543897 
818 -0.172622 0.519327 0.172659 0.344806 0.470114 0.023544 -0.008043 0.634628 0.458205 0.910738 
819 0.262143 0.766375 0.388667 0.321350 0.034423 0.114362 -0.161634 0.948150 0.344508 0.374568 
820 -0.186151 -0.051085 0.095031 0.355486 -0.126916 0.885674 -0.177487 0.695254 0.949346 0.271321 
821 -0.184284 -0.196051 -0.132435 0.753368 -0.033021 0.248524 0.486512 1.124397 0.368398 -0.129132 
822 0.226472 0.307442 0.137620 0.368783 -0.088942 0.332173 0.009590 0.665801 -0.027063 0.669087 
823 0.108116 0.482646 0.432377 0.341015 0.162959 0.102545 0.141217 0.686993 0.272892 0.598567 
824 0.110219 0.754687 0.477090 0.255001 0.110449 0.364265 -0.240146 0.671540 0.328714 0.689068 
825 -0.010579 0.560515 0.305371 0.206160 0.165800 0.714371 -0.154082 0.611563 0.476837 0.579496 
826 0.587564 0.462898 0.490485 0.317925 -0.237158 0.372363 -0.173799 0.940395 -0.060699 0.451262 
827 0.055407 0.555959 0.237993 0.197367 -0.029191 0.471479 -0.104328 0.760445 0.514489 0.330332 
828 0.098323 0.845343 0.559625 0.335695 0.032874 0.374579 -0.169822 0.625703 0.402429 0.727976 
829 -0.068179 0.318922 0.260570 0.192303 0.228694 0.195398 0.187199 0.713991 0.448148 0.409227 
830 -0.360403 0.274172 0.274450 0.365801 0.016562 0.448583 -0.177252 0.589320 0.713708 0.315074 
831 -0.139638 -0.024462 -0.064377 0.864407 -0.194142 0.696529 0.127686 0.909517 0.511084 0.072927 
832 -0.133302 -0.367060 0.257224 0.769143 0.221519 -0.051727 0.203808 0.507668 0.609263 0.353873 
833 -0.181365 -0.376526 0.004203 0.791149 -0.228860 0.787675 0.070139 0.921682 0.585105 -0.019220 
834 -0.195790 -0.103260 -0.195918 0.885138 -0.237601 0.653619 0.095194 0.946692 0.755451 -0.020003 
835 -0.141312 -0.262360 0.062825 0.794099 -0.219764 0.688913 0.018590 0.848625 0.631609 0.010880 
836 -0.065891 0.026306 0.030382 0.517897 -0.306733 0.532544 -0.131709 0.849962 0.354214 0.161208 
838 -0.192303 -0.146442 0.001041 0.685563 0.188391 -0.454369 0.358804 1.049990 0.319968 0.256109 
839 -0.228619 -0.260529 -0.088564 0.748969 -0.216605 0.116465 0.227584 0.979151 0.465892 -0.099752 
840 -0.467454 0.159133 0.149735 0.366759 0.036865 0.925033 -0.044281 0.622944 0.504705 0.549569 
841 -0.294726 0.544717 0.322041 0.288117 0.466264 0.088902 0.200254 0.831853 0.279186 0.900280 
842 -0.207779 0.538624 0.164067 0.309249 0.282003 0.422332 -0.220735 0.564088 0.534052 0.592681 
843 -0.015319 -0.311343 0.200314 0.598457 -0.291589 0.760326 -0.171354 0.933421 0.544888 0.185002 
844 -0.171379 -0.176906 -0.236565 0.806791 -0.257798 0.657406 0.114760 0.865055 0.616435 0.045549 
845 -0.315656 0.274548 -0.024945 0.383644 -0.107443 0.855080 -0.079520 0.706620 0.588553 0.455316 
846 0.193018 0.030694 0.665060 0.536051 -0.204901 0.214212 -0.201729 1.049929 -0.059713 0.027124 
847 -0.107892 -0.091695 0.564025 0.652839 0.020354 -0.141312 0.152788 0.830161 0.153944 0.276776 
848 -0.347316 0.233829 0.059554 0.326697 -0.066462 0.919334 -0.073173 0.696517 0.735294 0.311620 
849 -0.339789 0.273659 0.050556 0.377533 -0.008885 0.778434 -0.084887 0.622795 0.666542 0.372989 
850 -0.156291 -0.138345 -0.300495 0.787293 -0.191438 0.612177 0.118325 0.854753 0.605448 0.045085 
851 -0.215914 -0.234101 -0.006716 0.749457 -0.090884 0.739822 0.034984 0.813266 0.659222 0.023314 
853 -0.084607 -0.105460 0.148181 0.815119 0.188461 -0.210767 0.324250 0.876843 0.162037 0.400682 
854 0.010048 0.713816 0.304611 0.343578 -0.033274 0.815198 -0.159843 0.500260 0.530820 0.489949 
855 -0.202269 0.521385 0.192762 0.485552 0.418790 -0.089991 0.005555 0.506852 0.466602 0.876410 
856 -0.089037 -0.322868 0.203563 0.730704 -0.271832 0.722393 -0.009624 0.868800 0.362935 0.118155 
857 -0.361772 0.263927 0.022741 0.454325 0.450110 0.068128 0.051787 0.437735 0.701097 0.742259 
858 -0.131695 0.022077 0.146916 0.784223 -0.397820 0.388328 0.185580 0.899043 0.492329 -0.154959 
859 0.007178 0.196967 0.266780 0.645863 0.271820 -0.207261 0.262903 0.642976 0.046504 0.789821 
860 -0.149787 -0.108963 -0.114508 0.790986 -0.228387 0.685047 0.092157 0.898103 0.661267 0.079728 
861 -0.119809 -0.154603 0.045901 0.700527 0.295243 -0.502178 0.304182 1.045395 0.297799 0.287091 
862 0.003199 0.214489 -0.096491 0.684156 0.062992 0.293892 0.045861 0.599227 0.197099 0.360119 
864 -0.125654 0.576191 0.337488 0.277539 0.200172 0.198243 -0.235111 0.738203 0.320378 0.679967 
865 -0.144534 0.025913 -0.025502 0.773358 0.054415 0.513470 -0.142134 0.403758 0.392954 0.468678 
866 -0.158733 0.546257 0.163368 0.472171 0.359926 -0.041472 0.161801 0.586039 0.488526 0.887895 
867 -0.197216 -0.154793 -0.217385 0.883252 -0.208533 0.639646 0.154547 0.895697 0.726713 0.062791 
868 0.049219 0.697151 0.169427 0.303341 -0.046365 0.502598 -0.168924 0.677333 0.501616 0.278155 
869 -0.225348 0.453408 0.327108 0.537647 0.436376 0.011341 0.103970 0.550450 0.507379 0.930103 
870 -0.431172 0.271925 0.093598 0.323773 0.398979 0.132695 0.013305 0.636867 0.649892 0.946732 
872 -0.114117 0.520556 0.337124 0.262089 0.157716 0.155227 -0.198014 0.761523 0.293829 0.522323 
873 -0.036661 0.496504 0.276079 0.415358 0.411744 -0.143905 0.123120 0.785860 0.484786 0.810828 
874 0.085411 0.346736 0.344765 0.331264 -0.159033 0.856989 -0.282347 0.796567 0.603441 0.251768 
875 -0.035200 -0.103593 0.264358 0.882245 -0.026011 0.283247 0.379313 0.821460 0.281706 -0.062656 
876 0.134648 -0.026638 0.192975 0.838056 0.119850 0.041284 0.473907 0.966602 0.087498 0.023309 
877 0.090766 0.002126 0.355942 0.675706 -0.242327 0.181245 0.053255 0.954849 0.109891 0.003158 
878 0.123409 0.152448 0.130682 0.923373 -0.182168 -0.025252 0.276018 1.038472 0.009182 -0.049574 
880 -0.206537 0.012331 -0.008718 0.656298 0.201781 0.582382 0.066946 0.488428 0.676847 0.611453 
881 -0.144841 -0.274875 -0.008107 0.848622 -0.220872 0.692627 0.031016 0.839090 0.792960 0.154459 
882 -0.350956 0.423628 0.178217 0.433095 0.109172 0.728742 -0.337449 0.454179 0.739793 0.641165 
884 -0.169052 -0.238829 0.058918 0.762797 -0.236213 0.642017 0.018567 0.829331 0.695458 0.108632 
885 -0.174504 -0.318919 -0.006354 0.857400 -0.276616 0.702260 0.056059 0.929356 0.528461 0.095989 
886 -0.170710 -0.344751 -0.014314 0.800061 -0.181503 0.678657 0.140941 0.883823 0.483107 0.037689 
887 -0.425873 -0.423001 -0.080054 0.660106 -0.098387 0.718404 0.245368 0.801162 0.540156 0.108769 
888 0.157135 0.343435 0.377105 0.682466 -0.248313 0.018677 0.023447 1.037483 -0.069474 -0.088671 
889 -0.104985 -0.007398 -0.169291 0.756050 -0.190236 0.653894 0.079818 0.666733 0.329146 0.321619 
890 -0.429680 0.228907 -0.210585 0.343729 -0.106032 0.715094 -0.012721 0.674994 0.826746 0.372071 
891 -0.195007 -0.195097 -0.236418 0.675902 -0.236311 0.631840 0.083847 0.842420 0.473332 0.102569 
892 -0.248866 -0.185010 -0.034348 0.892702 -0.231657 -0.207225 0.339386 1.298122 0.235268 -0.058511 
893 -0.179459 -0.071324 -0.009825 0.774064 -0.223156 0.660460 0.076609 0.890579 0.499515 0.078039 
894 0.147760 0.785384 0.453194 0.355668 0.087729 -0.105899 0.003747 0.946193 0.133133 0.550779 
895 0.043963 0.855391 0.651959 0.252314 -0.069520 0.012736 0.162548 0.952394 -0.051934 0.310570 
896 0.013264 0.818244 0.373357 0.337447 0.389519 -0.169403 -0.095698 0.855198 0.219769 0.798746 
897 0.118728 0.742594 0.313794 0.321109 0.152225 -0.079246 -0.039355 0.867113 0.101771 0.529924 
898 -0.001167 0.559601 0.205396 0.547753 0.258075 -0.239570 -0.011669 0.759540 0.612660 0.746926 
899 -0.336671 -0.366991 0.145693 0.715740 0.153243 0.366618 0.102021 0.577129 0.612064 0.147973 
900 -0.066702 0.446513 0.220371 0.434690 0.280380 0.031050 0.058736 0.713434 0.476847 0.751732 
901 -0.136346 0.481665 0.493946 0.345854 0.241653 -0.108751 0.161211 0.752714 0.348308 0.653201 
902 -0.155553 0.277624 0.292268 0.324907 -0.032444 0.515707 -0.214935 0.761399 0.436046 0.231124 
903 0.195263 0.170542 0.070845 0.858203 -0.098883 0.099946 0.137733 0.985407 0.210743 -0.049103 
904 -0.197595 -0.198685 -0.236465 0.935643 -0.079670 0.681356 0.142089 0.842799 0.605696 0.138146 
905 -0.110146 0.468848 0.249601 0.427756 0.450402 -0.170446 0.088738 0.703940 0.431157 0.725335 
906 -0.130034 0.371535 0.209308 0.449874 -0.156724 0.797801 -0.265386 0.600779 0.569925 0.430544 
907 -0.135061 -0.129417 -0.097195 0.715498 -0.277306 0.646432 0.109728 0.958015 0.477017 0.087759 
908 -0.060960 0.526451 0.292977 0.322063 0.232456 0.122792 -0.042288 0.686995 0.589392 0.625303 
909 0.115175 0.211638 -0.011484 0.604383 -0.218936 0.460834 0.204173 0.841184 0.431564 0.095684 
910 0.047750 0.580308 0.416710 0.411462 0.076220 -0.061613 -0.167322 0.896999 0.425730 0.354688 
911 -0.268940 0.347044 0.234766 0.542204 0.375583 0.032189 0.088267 0.470164 0.316617 0.904675 
913 -0.194559 0.392268 -0.054311 0.411194 0.364401 -0.085130 0.087056 0.580295 0.631443 0.771281 
914 -0.273619 0.334211 -0.029010 0.436169 0.453750 -0.161017 0.122887 0.637261 0.697924 0.904082 
915 0.216163 0.074475 -0.009966 0.649058 -0.233984 0.615304 -0.158809 0.946751 0.338939 0.035126 
916 -0.342215 0.319900 -0.034338 0.446893 -0.054983 1.177827 -0.194086 0.675810 0.802847 0.417282 
917 -0.036825 0.170425 0.532921 0.207024 -0.200135 0.442951 -0.398601 0.947729 0.470137 0.044750 
918 -0.144611 -0.392236 -0.021898 0.895648 -0.194813 0.751964 0.061281 0.932738 0.653861 0.090936 
919 -0.158780 -0.345462 0.044421 0.822766 -0.290679 0.691961 0.060249 0.872400 0.888400 0.104919 
920 0.098724 0.672470 0.374874 0.240227 0.211344 0.323579 -0.077355 0.682407 0.339146 0.754433 
921 -0.098074 0.120484 0.146368 0.683357 0.452049 -0.280214 0.308007 0.756089 0.171257 0.842917 
922 -0.407735 -0.242912 -0.245315 0.793109 0.122219 0.071645 0.122550 0.835817 0.386928 0.038046 
923 -0.366534 -0.292934 -0.015737 0.643790 -0.053519 0.655012 0.199084 0.755822 0.600588 0.095571 
924 0.218444 0.075974 0.157271 0.722569 -0.059152 -0.104401 0.237386 0.966148 -0.032148 0.278086 
925 0.016652 0.039964 0.067890 0.895097 0.197266 -0.359615 0.238868 0.871276 0.235601 0.625791 
926 0.516605 0.213803 0.414786 0.654991 -0.324365 -0.044890 -0.239343 1.186066 -0.119682 0.112322 
927 -0.109656 -0.074889 0.051197 0.856715 -0.107845 -0.144177 0.475958 1.198900 0.350313 -0.165390 
928 -0.019859 0.316780 0.190783 0.543082 0.066529 0.260173 -0.122213 0.558687 0.197632 0.387551 
929 0.012291 0.568319 0.401213 0.328721 0.042632 -0.086702 -0.149920 0.958948 0.331564 0.417852 
930 -0.194567 0.464579 0.067023 0.388034 0.132122 0.577674 0.075891 0.424322 0.688055 0.698906 
931 -0.207970 0.300803 0.204320 0.282338 0.035245 0.670057 -0.181702 0.567011 0.680540 0.420830 
932 0.170627 0.325210 0.597356 0.277339 0.007987 0.365714 -0.098161 0.826892 0.501090 0.264367 
933 0.160127 0.306789 0.110672 0.487141 0.190151 -0.138295 0.187889 0.817412 0.113677 0.935458 
934 0.169751 0.346180 0.092669 0.487761 0.113623 -0.102261 -0.003266 0.781132 0.141147 0.572977 
935 0.223677 -0.037548 0.192147 0.944464 -0.117489 -0.093456 0.387791 0.950935 0.254781 0.004171 
936 -0.055444 0.674702 0.185732 0.434656 0.537285 -0.073319 0.082124 0.755865 0.529334 0.977748 
937 -0.237814 0.044625 -0.021864 0.604099 0.147837 -0.291273 0.569196 0.878553 0.387242 0.159481 
938 -0.385703 -0.073132 -0.309796 0.536668 0.406291 -0.513463 0.394184 1.204306 0.614893 0.828420 
939 -0.136750 0.379412 0.051652 0.370117 0.312061 -0.126381 -0.052930 0.798748 0.483754 0.688722 
940 -0.046455 0.525975 0.185499 0.371434 0.414928 -0.026155 0.095603 0.683585 0.388534 0.746984 
942 0.168636 0.117168 -0.061516 0.804433 -0.323488 0.185170 -0.069779 0.832498 0.265337 0.130127 
943 0.235660 0.122453 0.392411 0.729958 -0.160400 0.030804 -0.109574 1.106740 0.059602 -0.095080 
944 -0.098176 0.508188 0.115632 0.396542 0.204325 -0.150611 0.088022 0.772833 0.547150 0.736738 
945 0.029975 -0.111872 -0.070398 0.995208 0.064753 0.029941 0.419090 0.740775 0.431031 0.058417 
947 -0.117626 0.693802 0.187013 0.455593 0.487853 -0.174642 0.098324 0.660366 0.539518 0.807826 
948 0.163053 0.696137 0.287615 0.340083 0.345280 0.220258 0.140556 0.680767 0.452588 0.947273 
949 0.106250 -0.083288 -0.121821 0.890349 -0.317635 0.310388 0.133698 0.977636 0.353722 0.005657 
950 -0.127288 0.500869 0.148703 0.445330 0.279825 0.273572 0.027728 0.444296 0.669558 0.977374 
952 -0.150130 0.414387 0.222498 0.460188 0.375279 -0.021850 0.019549 0.545658 0.497399 0.874397 
953 -0.154003 0.496602 0.154558 0.413885 0.416511 0.062733 -0.007854 0.609328 0.535009 0.837810 
954 -0.005403 0.418078 0.437632 0.257919 -0.043717 0.052805 0.044959 0.886226 0.263331 0.392869 
955 -0.226323 -0.267846 -0.040473 0.845799 -0.220696 0.665779 0.026213 0.856815 0.770636 0.108836 
956 0.190077 0.663653 0.264542 0.570017 0.110453 -0.083844 0.062259 0.908207 0.499398 1.152540 
958 -0.168314 0.418265 0.185216 0.486378 0.431833 0.257486 -0.098390 0.502154 0.677495 0.863793 
959 -0.051919 -0.098989 0.134777 0.670494 0.281271 -0.081692 0.319724 0.740629 0.254661 0.592903 
960 -0.123867 -0.405518 0.089041 0.856285 -0.108790 0.731651 0.028648 0.870798 0.494018 0.014753 
961 -0.257445 0.624177 0.163079 0.329590 0.096527 0.435399 -0.181753 0.613192 0.557851 0.613166 
962 -0.014399 0.663691 0.276505 0.499551 0.537074 -0.122475 0.102515 0.763728 0.579796 0.863950 
963 -0.318882 0.420452 0.367350 0.339214 0.266623 -0.087047 0.185656 0.674090 0.258693 0.458981 
964 -0.141698 0.734723 0.336857 0.298738 -0.080328 0.734403 -0.344111 0.711076 0.653247 0.363382 
965 0.137392 0.214098 -0.057365 0.594649 0.437896 -0.255271 0.266283 0.728980 0.218849 0.720451 
966 0.065703 0.215717 -0.107047 0.668994 0.345505 -0.291872 0.393440 0.872668 0.068274 0.807353 
967 -0.410098 0.137585 -0.221221 0.432358 -0.030881 0.748113 -0.013244 0.599580 0.768736 0.367362 
968 -0.420685 0.210641 -0.202329 0.380244 -0.049213 0.718008 -0.081428 0.638410 0.878385 0.387725 
969 0.169991 0.000898 0.096911 0.639615 -0.239959 0.381408 -0.092932 0.866424 0.459434 -0.009149 
970 -0.081140 0.448853 0.281536 0.381552 0.198194 -0.048034 0.190788 0.670917 0.258783 0.736714 
971 -0.285360 -0.154421 -0.207438 0.981909 -0.135472 0.682524 0.144352 0.793564 0.581085 0.102715 
972 0.061653 0.168968 0.053601 0.988682 -0.162690 -0.029742 0.131015 0.845445 0.266887 0.020712 
973 -0.257257 -0.177538 -0.342008 0.938639 -0.125116 0.577828 0.144070 0.674329 0.668237 0.118411 
974 -0.187250 -0.363259 -0.050689 0.877786 -0.113036 0.754080 0.033168 0.932031 0.563278 0.034168 
975 -0.461157 0.215533 -0.331138 0.341085 -0.124600 0.711699 -0.034943 0.638615 0.855172 0.445430 
976 0.358879 0.710188 0.496226 0.360133 0.136949 0.188834 0.111242 0.730820 0.381489 0.690193 
977 0.159597 0.551496 0.523114 0.162879 -0.187314 0.452164 0.000726 0.819969 0.227377 0.351984 
978 0.114955 0.725138 0.553866 0.252997 0.142382 0.301634 -0.181283 0.691182 0.388207 0.839293 
979 0.201100 0.726384 0.418360 0.347952 0.195161 0.421930 -0.261395 0.609112 0.369943 0.676735 
980 0.160643 0.642595 0.362421 0.256165 0.165656 0.447294 -0.142462 0.799156 0.239628 0.698823 
981 0.202966 0.326431 0.448210 0.192092 -0.239512 0.256333 -0.059882 0.817127 0.268423 0.306125 
982 0.049633 0.742293 0.435033 0.247549 0.076502 0.334246 -0.231611 0.625359 0.425621 0.654388 
983 0.092226 0.715987 0.392304 0.272543 0.140511 0.335977 -0.195530 0.701950 0.331829 0.679287 
984 0.188711 0.797334 0.517177 0.399364 -0.016793 0.241268 -0.120609 0.717858 0.200823 0.511939 
985 0.205108 0.727611 0.387624 0.273242 0.235957 0.339737 -0.128224 0.808597 0.297312 0.559880 
986 0.232013 0.742296 0.468765 0.304327 0.076533 0.246778 -0.128752 0.834475 0.241259 0.498805 
987 0.213784 -0.017874 0.186674 0.908098 0.164198 -0.432964 0.143252 0.940258 0.222979 0.383375 
988 -0.134532 -0.207873 -0.099737 0.922144 0.349487 -0.292556 0.384508 0.673319 0.501001 0.628792 
989 -0.190150 -0.252786 -0.006712 0.842435 0.372180 -0.350179 0.387324 0.795102 0.197344 0.728857 
990 -0.191234 -0.094715 -0.137121 0.978324 0.358481 -0.239609 0.385584 0.658777 0.421818 0.614618 
991 -0.308634 -0.099803 -0.247925 0.976375 -0.179514 0.574243 0.163721 0.754753 0.705490 0.079106 
992 -0.247500 -0.051083 -0.404681 0.933000 -0.108520 0.632166 0.173151 0.696970 0.727717 0.107122 
993 -0.209559 -0.130109 -0.177194 0.641446 0.372937 -0.468507 0.363475 0.944845 0.413769 0.397512 
994 -0.157172 -0.148264 -0.039462 0.849254 0.307182 -0.175824 0.336684 0.634925 0.328851 0.559444 
995 0.224932 0.084578 0.367394 0.957368 -0.081213 -0.098051 0.197292 0.994022 0.161634 0.008620 
996 -0.067150 0.122124 0.037607 0.650502 -0.166754 0.437184 0.039241 0.808463 0.242121 0.081594 
997 0.008923 0.416742 0.196744 0.492183 0.507784 0.005236 0.010918 0.532112 0.465403 0.799045 
998 -0.231888 0.470283 0.207024 0.400190 0.339961 0.052101 0.128566 0.620233 0.390979 0.963606 
999 -0.033000 -0.058612 0.056395 0.701122 0.133299 0.146353 0.309615 0.688012 0.383114 0.168467 
1000 0.139552 0.227126 0.500436 0.618195 -0.152974 0.095247 -0.096172 1.014829 -0.245982 0.116228 
1001 0.219830 0.034334 0.198461 0.936732 -0.263795 -0.240158 0.107749 1.011745 0.246457 0.073611 
1002 0.053988 0.572262 0.312536 0.357818 0.100632 -0.054905 -0.227240 0.904406 0.350045 0.359218 
1003 -0.200718 -0.283138 -0.038046 0.745411 -0.301849 0.152668 0.153570 1.079086 0.521638 -0.070740 
1004 -0.135803 0.439518 0.212635 0.487905 0.371733 0.042551 0.073441 0.586496 0.433404 0.863271 
1005 -0.219416 -0.218971 -0.136403 0.713416 -0.028351 0.275086 0.305190 1.107838 0.449251 -0.070520 
